# Created at Wed Jun 05 17:07:13 GMT+03:00 2024 in Burnaby Canada 
943784631794846 -91.658310 56.426884 -216.299606 
943784651794846 -91.658310 56.426884 -216.299606 
943784671794846 -91.658310 56.426884 -216.299606 
943784691794846 -91.658310 56.426884 -216.299606 
943784711794846 -91.658310 56.426884 -216.299606 
943784731794846 -91.658310 56.426884 -216.299606 
943784751794846 -91.658310 56.426884 -216.299606 
943784771794846 -91.658310 56.426884 -216.299606 
943784791794846 -91.658310 56.426884 -216.299606 
943784811794846 -91.658310 56.426884 -216.299606 
943784831794846 -91.658310 56.426884 -216.299606 
943784851794846 -91.658310 56.426884 -216.299606 
943784871794846 -91.658310 56.426884 -216.299606 
943784891794846 -91.658310 56.426884 -216.299606 
943784911794846 -91.658310 56.426884 -216.299606 
943784931794846 -91.658310 56.426884 -216.299606 
943784951794846 -91.658310 56.426884 -216.299606 
943784971794846 -91.658310 56.426884 -216.299606 
943784991794846 -91.658310 56.426884 -216.299606 
943785011794846 -91.658310 56.426884 -216.299606 
943785031794846 -91.658310 56.426884 -216.299606 
943785051794846 -91.658310 56.426884 -216.299606 
943785071794846 -91.658310 56.426884 -216.299606 
943785091794846 -91.658310 56.426884 -216.299606 
943785111794846 -91.658310 56.426884 -216.299606 
943785131794846 -91.658310 56.426884 -216.299606 
943785151794846 -91.658310 56.426884 -216.299606 
943785171794846 -91.658310 56.426884 -216.299606 
943785191794846 -91.658310 56.426884 -216.299606 
943785211794846 -91.658310 56.426884 -216.299606 
943785231794846 -91.658310 56.426884 -216.299606 
943785251794846 -91.658310 56.426884 -216.299606 
943785271794846 -91.658310 56.426884 -216.299606 
943785291794846 -91.658310 56.426884 -216.299606 
943785311794846 -91.658310 56.426884 -216.299606 
943785331794846 -91.658310 56.426884 -216.299606 
943785351794846 -91.658310 56.426884 -216.299606 
943785371794846 -91.658310 56.426884 -216.299606 
943785391794846 -91.658310 56.426884 -216.299606 
943785411794846 -91.658310 56.426884 -216.299606 
943785431794846 -91.658310 56.426884 -216.299606 
943785451794846 -91.658310 56.426884 -216.299606 
943785471794846 -91.658310 56.426884 -216.299606 
943785491794846 -91.658310 56.426884 -216.299606 
943785511794846 -91.658310 56.426884 -216.299606 
943785531794846 -91.658310 56.426884 -216.299606 
943785551794846 -91.658310 56.426884 -216.299606 
943785571794846 -91.658310 56.426884 -216.299606 
943785591794846 -91.658310 56.426884 -216.299606 
943785611794846 -91.658310 56.426884 -216.299606 
943785631794846 -91.658310 56.426884 -216.299606 
943785651794846 -91.658310 56.426884 -216.299606 
943785671794846 -91.658310 56.426884 -216.299606 
943785691794846 -91.658310 56.426884 -216.299606 
943785711794846 -91.658310 56.426884 -216.299606 
943785731794846 -91.658310 56.426884 -216.299606 
943785751794846 -91.658310 56.426884 -216.299606 
943785771794846 -91.658310 56.426884 -216.299606 
943785791794846 -91.658310 56.426884 -216.299606 
943785811794846 -91.658310 56.426884 -216.299606 
943785831794846 -91.658310 56.426884 -216.299606 
943785851794846 -91.658310 56.426884 -216.299606 
943785871794846 -91.658310 56.426884 -216.299606 
943785891794846 -91.658310 56.426884 -216.299606 
943785911794846 -91.658310 56.426884 -216.299606 
943785931794846 -91.658310 56.426884 -216.299606 
943785951794846 -91.658310 56.426884 -216.299606 
943785971794846 -91.658310 56.426884 -216.299606 
943785991794846 -91.658310 56.426884 -216.299606 
943786011794846 -91.658310 56.426884 -216.299606 
943786031794846 -91.658310 56.426884 -216.299606 
943786051794846 -91.658310 56.426884 -216.299606 
943786071794846 -91.658310 56.426884 -216.299606 
943786091794846 -91.658310 56.426884 -216.299606 
943786111794846 -91.658310 56.426884 -216.299606 
943786131794846 -91.658310 56.426884 -216.299606 
943786151794846 -91.658310 56.426884 -216.299606 
943786171794846 -91.658310 56.426884 -216.299606 
943786191794846 -91.658310 56.426884 -216.299606 
943786211794846 -91.658310 56.426884 -216.299606 
943786231794846 -91.658310 56.426884 -216.299606 
943786251794846 -91.658310 56.426884 -216.299606 
943786271794846 -91.658310 56.426884 -216.299606 
943786291794846 -91.658310 56.426884 -216.299606 
943786311794846 -91.658310 56.426884 -216.299606 
943786331794846 -91.658310 56.426884 -216.299606 
943786351794846 -91.658310 56.426884 -216.299606 
943786371794846 -91.658310 56.426884 -216.299606 
943786391794846 -91.658310 56.426884 -216.299606 
943786411794846 -91.658310 56.426884 -216.299606 
943786431794846 -91.658310 56.426884 -216.299606 
943786451794846 -91.658310 56.426884 -216.299606 
943786471794846 -91.658310 56.426884 -216.299606 
943786491794846 -91.658310 56.426884 -216.299606 
943786511794846 -91.658310 56.426884 -216.299606 
943786531794846 -91.658310 56.426884 -216.299606 
943786551794846 -91.658310 56.426884 -216.299606 
943786571794846 -91.658310 56.426884 -216.299606 
943786591794846 -91.658310 56.426884 -216.299606 
943786611794846 -91.658310 56.426884 -216.299606 
943786631794846 -91.658310 56.426884 -216.299606 
943786651794846 -91.658310 56.426884 -216.299606 
943786671794846 -91.658310 56.426884 -216.299606 
943786691794846 -91.658310 56.426884 -216.299606 
943786711794846 -91.658310 56.426884 -216.299606 
943786731794846 -91.658310 56.426884 -216.299606 
943786751794846 -91.658310 56.426884 -216.299606 
943786771794846 -91.658310 56.426884 -216.299606 
943786791794846 -91.658310 56.426884 -216.299606 
943786811794846 -91.658310 56.426884 -216.299606 
943786831794846 -91.658310 56.426884 -216.299606 
943786851794846 -91.658310 56.426884 -216.299606 
943786871794846 -91.658310 56.426884 -216.299606 
943786891794846 -91.658310 56.426884 -216.299606 
943786911794846 -91.658310 56.426884 -216.299606 
943786931794846 -91.658310 56.426884 -216.299606 
943786951794846 -91.658310 56.426884 -216.299606 
943786971794846 -91.658310 56.426884 -216.299606 
943786991794846 -91.658310 56.426884 -216.299606 
943787011794846 -91.658310 56.426884 -216.299606 
943787031794846 -91.658310 56.426884 -216.299606 
943787051794846 -91.658310 56.426884 -216.299606 
943787071794846 -91.658310 56.426884 -216.299606 
943787091794846 -91.658310 56.426884 -216.299606 
943787111794846 -91.658310 56.426884 -216.299606 
943787131794846 -91.658310 56.426884 -216.299606 
943787151794846 -91.658310 56.426884 -216.299606 
943787171794846 -91.658310 56.426884 -216.299606 
943787191794846 -91.658310 56.426884 -216.299606 
943787211794846 -91.658310 56.426884 -216.299606 
943787231794846 -91.658310 56.426884 -216.299606 
943787251794846 -91.658310 56.426884 -216.299606 
943787271794846 -91.658310 56.426884 -216.299606 
943787291794846 -91.658310 56.426884 -216.299606 
943787311794846 -91.658310 56.426884 -216.299606 
943787331794846 -91.658310 56.426884 -216.299606 
943787351794846 -91.658310 56.426884 -216.299606 
943787371794846 -91.658310 56.426884 -216.299606 
943787391794846 -91.658310 56.426884 -216.299606 
943787411794846 -91.658310 56.426884 -216.299606 
943787431794846 -91.658310 56.426884 -216.299606 
943787451794846 -91.658310 56.426884 -216.299606 
943787471794846 -91.658310 56.426884 -216.299606 
943787491794846 -91.658310 56.426884 -216.299606 
943787511794846 -91.658310 56.426884 -216.299606 
943787531794846 -91.658310 56.426884 -216.299606 
943787551794846 -91.658310 56.426884 -216.299606 
943787571794846 -91.658310 56.426884 -216.299606 
943787591794846 -91.658310 56.426884 -216.299606 
943787611794846 -91.658310 56.426884 -216.299606 
943787631794846 -91.658310 56.426884 -216.299606 
943787651794846 -91.658310 56.426884 -216.299606 
943787671794846 -91.658310 56.426884 -216.299606 
943787691794846 -91.658310 56.426884 -216.299606 
943787711794846 -91.658310 56.426884 -216.299606 
943787731794846 -91.658310 56.426884 -216.299606 
943787751794846 -91.658310 56.426884 -216.299606 
943787771794846 -91.658310 56.426884 -216.299606 
943787791794846 -91.658310 56.426884 -216.299606 
943787811794846 -91.658310 56.426884 -216.299606 
943787831794846 -91.658310 56.426884 -216.299606 
943787851794846 -91.658310 56.426884 -216.299606 
943787871794846 -91.658310 56.426884 -216.299606 
943787891794846 -91.658310 56.426884 -216.299606 
943787911794846 -91.658310 56.426884 -216.299606 
943787931794846 -91.658310 56.426884 -216.299606 
943787951794846 -91.658310 56.426884 -216.299606 
943787971794846 -91.658310 56.426884 -216.299606 
943787991794846 -91.658310 56.426884 -216.299606 
943788011794846 -91.658310 56.426884 -216.299606 
943788031794846 -91.658310 56.426884 -216.299606 
943788051794846 -91.658310 56.426884 -216.299606 
943788071794846 -91.658310 56.426884 -216.299606 
943788091794846 -91.658310 56.426884 -216.299606 
943788111794846 -91.658310 56.426884 -216.299606 
943788131794846 -91.658310 56.426884 -216.299606 
943788151794846 -91.658310 56.426884 -216.299606 
943788171794846 -91.658310 56.426884 -216.299606 
943788191794846 -91.658310 56.426884 -216.299606 
943788211794846 -91.658310 56.426884 -216.299606 
943788231794846 -91.658310 56.426884 -216.299606 
943788251794846 -91.658310 56.426884 -216.299606 
943788271794846 -91.658310 56.426884 -216.299606 
943788291794846 -91.658310 56.426884 -216.299606 
943788311794846 -91.658310 56.426884 -216.299606 
943788331794846 -91.658310 56.426884 -216.299606 
943788351794846 -91.658310 56.426884 -216.299606 
943788371794846 -91.658310 56.426884 -216.299606 
943788391794846 -91.658310 56.426884 -216.299606 
943788411794846 -91.658310 56.426884 -216.299606 
943788431794846 -91.658310 56.426884 -216.299606 
943788451794846 -91.658310 56.426884 -216.299606 
943788471794846 -91.658310 56.426884 -216.299606 
943788491794846 -91.658310 56.426884 -216.299606 
943788511794846 -91.658310 56.426884 -216.299606 
943788531794846 -91.658310 56.426884 -216.299606 
943788551794846 -91.658310 56.426884 -216.299606 
943788571794846 -91.658310 56.426884 -216.299606 
943788591794846 -91.658310 56.426884 -216.299606 
943788611794846 -91.658310 56.426884 -216.299606 
943788631794846 -91.658310 56.426884 -216.299606 
943788651794846 -91.658310 56.426884 -216.299606 
943788671794846 -91.658310 56.426884 -216.299606 
943788691794846 -91.658310 56.426884 -216.299606 
943788711794846 -91.658310 56.426884 -216.299606 
943788731794846 -91.658310 56.426884 -216.299606 
943788751794846 -91.658310 56.426884 -216.299606 
943788771794846 -91.658310 56.426884 -216.299606 
943788791794846 -91.658310 56.426884 -216.299606 
943788811794846 -91.658310 56.426884 -216.299606 
943788831794846 -91.658310 56.426884 -216.299606 
943788851794846 -91.658310 56.426884 -216.299606 
943788871794846 -91.658310 56.426884 -216.299606 
943788891794846 -91.658310 56.426884 -216.299606 
943788911794846 -91.658310 56.426884 -216.299606 
943788931794846 -91.658310 56.426884 -216.299606 
943788951794846 -91.658310 56.426884 -216.299606 
943788971794846 -91.658310 56.426884 -216.299606 
943788991794846 -91.658310 56.426884 -216.299606 
943789011794846 -91.658310 56.426884 -216.299606 
943789031794846 -91.658310 56.426884 -216.299606 
943789051794846 -91.658310 56.426884 -216.299606 
943789071794846 -91.658310 56.426884 -216.299606 
943789091794846 -91.658310 56.426884 -216.299606 
943789111794846 -91.658310 56.426884 -216.299606 
943789131794846 -91.658310 56.426884 -216.299606 
943789151794846 -91.658310 56.426884 -216.299606 
943789171794846 -91.658310 56.426884 -216.299606 
943789191794846 -91.658310 56.426884 -216.299606 
943789211794846 -91.658310 56.426884 -216.299606 
943789231794846 -91.658310 56.426884 -216.299606 
943789251794846 -91.658310 56.426884 -216.299606 
943789271794846 -91.658310 56.426884 -216.299606 
943789291794846 -91.658310 56.426884 -216.299606 
943789311794846 -91.658310 56.426884 -216.299606 
943789331794846 -91.658310 56.426884 -216.299606 
943789351794846 -91.658310 56.426884 -216.299606 
943789371794846 -91.658310 56.426884 -216.299606 
943789391794846 -91.658310 56.426884 -216.299606 
943789411794846 -91.658310 56.426884 -216.299606 
943789431794846 -91.658310 56.426884 -216.299606 
943789451794846 -91.658310 56.426884 -216.299606 
943789471794846 -91.658310 56.426884 -216.299606 
943789491794846 -91.658310 56.426884 -216.299606 
943789511794846 -91.658310 56.426884 -216.299606 
943789531794846 -91.658310 56.426884 -216.299606 
943789551794846 -91.658310 56.426884 -216.299606 
943789571794846 -91.658310 56.426884 -216.299606 
943789591794846 -91.658310 56.426884 -216.299606 
943789611794846 -91.658310 56.426884 -216.299606 
943789631794846 -91.658310 56.426884 -216.299606 
943789651794846 -91.658310 56.426884 -216.299606 
943789671794846 -91.658310 56.426884 -216.299606 
943789691794846 -91.658310 56.426884 -216.299606 
943789711794846 -91.658310 56.426884 -216.299606 
943789731794846 -91.658310 56.426884 -216.299606 
943789751794846 -91.658310 56.426884 -216.299606 
943789771794846 -91.658310 56.426884 -216.299606 
943789791794846 -91.658310 56.426884 -216.299606 
943789811794846 -91.658310 56.426884 -216.299606 
943789831794846 -91.658310 56.426884 -216.299606 
943789851794846 -91.658310 56.426884 -216.299606 
943789871794846 -91.658310 56.426884 -216.299606 
943789891794846 -91.658310 56.426884 -216.299606 
943789911794846 -91.658310 56.426884 -216.299606 
943789931794846 -91.658310 56.426884 -216.299606 
943789951794846 -91.658310 56.426884 -216.299606 
943789971794846 -91.658310 56.426884 -216.299606 
943789991794846 -91.658310 56.426884 -216.299606 
943790011794846 -91.658310 56.426884 -216.299606 
943790031794846 -91.658310 56.426884 -216.299606 
943790051794846 -91.658310 56.426884 -216.299606 
943790071794846 -91.658310 56.426884 -216.299606 
943790091794846 -91.658310 56.426884 -216.299606 
943790111794846 -91.658310 56.426884 -216.299606 
