# Created at Thu Jun 06 10:35:43 GMT+03:00 2024 in Burnaby Canada 
1006694938669494 0.003517 0.009214 -0.016015 
1006694957575848 0.003517 0.009214 -0.016015 
1006694976482203 0.003517 0.009214 -0.016015 
1006694995388557 0.003517 0.009214 -0.016015 
1006695014294911 0.003517 0.009214 -0.016015 
1006695033201213 0.003517 0.009214 -0.016015 
1006695052107567 0.003517 0.009214 -0.016015 
1006695071013921 0.003517 0.009214 -0.016015 
1006695089920276 0.003517 0.009214 -0.016015 
1006695108826630 0.003517 0.009214 -0.016015 
1006695127732984 0.003517 0.009214 -0.016015 
1006695146639338 0.003517 0.009214 -0.016015 
1006695165545692 0.003517 0.009214 -0.016015 
1006695184452046 0.003517 0.009214 -0.016015 
1006695203358401 0.003517 0.009214 -0.016015 
1006695222264755 0.003517 0.009214 -0.016015 
1006695241171161 0.003517 0.009214 -0.016015 
1006695260077515 0.003517 0.009214 -0.016015 
1006695278983869 0.003517 0.009214 -0.016015 
1006695297890223 0.003517 0.009214 -0.016015 
1006695316796578 0.003517 0.009214 -0.016015 
1006695335702984 0.003517 0.009214 -0.016015 
1006695354609338 0.003517 0.009214 -0.016015 
1006695373515692 0.003517 0.009214 -0.016015 
1006695392422098 0.003517 0.009214 -0.016015 
1006695411328453 0.003517 0.009214 -0.016015 
1006695430234859 0.003517 0.009214 -0.016015 
1006695449141213 0.003517 0.009214 -0.016015 
1006695468047619 0.003517 0.009214 -0.016015 
1006695486953973 0.003517 0.009214 -0.016015 
1006695505860380 0.003517 0.009214 -0.016015 
1006695524766734 0.003517 0.009214 -0.016015 
1006695543673140 0.003517 0.009214 -0.016015 
1006695562579546 0.003517 0.009214 -0.016015 
1006695581485901 0.003517 0.009214 -0.016015 
1006695600392307 0.003517 0.009214 -0.016015 
1006695619298713 0.003517 0.009214 -0.016015 
1006695638205067 0.003517 0.009214 -0.016015 
1006695657111473 0.003517 0.009214 -0.016015 
1006695676017880 0.003517 0.009214 -0.016015 
1006695694924286 0.003517 0.009214 -0.016015 
1006695713830692 0.003517 0.009214 -0.016015 
1006695732737098 0.003517 0.009214 -0.016015 
1006695751643505 0.003517 0.009214 -0.016015 
1006695770549911 0.003517 0.009214 -0.016015 
1006695789456317 0.003517 0.009214 -0.016015 
1006695808362723 0.003517 0.009214 -0.016015 
1006695827269130 0.003517 0.009214 -0.016015 
1006695846175536 0.003517 0.009214 -0.016015 
1006695865081994 0.003517 0.009214 -0.016015 
1006695883988401 0.003517 0.009214 -0.016015 
1006695902894807 0.003517 0.009214 -0.016015 
1006695921801213 0.003517 0.009214 -0.016015 
1006695940707619 0.003517 0.009214 -0.016015 
1006695959614078 0.003517 0.009214 -0.016015 
1006695978520484 0.003517 0.009214 -0.016015 
1006695997426942 0.003517 0.009214 -0.016015 
1006696016333348 0.003517 0.009214 -0.016015 
1006696035239755 0.003517 0.009214 -0.016015 
1006696054146213 0.003517 0.009214 -0.016015 
1006696073052619 0.003517 0.009214 -0.016015 
1006696091959078 0.003517 0.009214 -0.016015 
1006696110865536 0.003517 0.009214 -0.016015 
1006696129771942 0.003517 0.009214 -0.016015 
1006696148678401 0.003517 0.009214 -0.016015 
1006696167584807 0.003517 0.009214 -0.016015 
1006696186491265 0.003517 0.009214 -0.016015 
1006696205397723 0.003517 0.009214 -0.016015 
1006696224304182 0.003517 0.009214 -0.016015 
1006696243210588 0.003517 0.009214 -0.016015 
1006696262117046 0.003517 0.009214 -0.016015 
1006696281023505 0.003517 0.009214 -0.016015 
1006696299929963 0.003517 0.009214 -0.016015 
1006696318836421 0.003517 0.009214 -0.016015 
1006696337742880 0.003517 0.009214 -0.016015 
1006696356649338 0.003517 0.009214 -0.016015 
1006696375555796 0.003517 0.009214 -0.016015 
1006696394462255 0.003517 0.009214 -0.016015 
1006696413368713 0.003517 0.009214 -0.016015 
1006696432275171 0.003517 0.009214 -0.016015 
1006696451181630 0.003517 0.009214 -0.016015 
1006696470088088 0.003517 0.009214 -0.016015 
1006696488994546 0.003517 0.009214 -0.016015 
1006696507901005 0.003517 0.009214 -0.016015 
1006696526807463 0.003517 0.009214 -0.016015 
1006696545713973 0.003517 0.009214 -0.016015 
1006696564620432 0.003517 0.009214 -0.016015 
1006696583526890 0.003517 0.009214 -0.016015 
1006696602433348 0.003517 0.009214 -0.016015 
1006696621339859 0.003517 0.009214 -0.016015 
1006696640246317 0.003517 0.009214 -0.016015 
1006696659152828 0.003517 0.009214 -0.016015 
1006696678059286 0.003517 0.009214 -0.016015 
1006696696965744 0.003517 0.009214 -0.016015 
1006696715872255 0.003517 0.009214 -0.016015 
1006696734778713 0.003517 0.009214 -0.016015 
1006696753685223 0.003517 0.009214 -0.016015 
1006696772591682 0.003517 0.009214 -0.016015 
1006696791498192 0.003517 0.009214 -0.016015 
1006696810404703 0.003517 0.009214 -0.016015 
1006696829311161 0.003517 0.009214 -0.016015 
1006696848217671 0.003517 0.009214 -0.016015 
1006696867124130 0.003517 0.009214 -0.016015 
1006696886030640 0.003517 0.009214 -0.016015 
1006696904937151 0.003517 0.009214 -0.016015 
1006696923843609 0.003517 0.009214 -0.016015 
1006696942750119 0.003517 0.009214 -0.016015 
1006696961656630 0.003517 0.009214 -0.016015 
1006696980563140 0.003517 0.009214 -0.016015 
1006696999469651 0.003517 0.009214 -0.016015 
1006697018376161 0.003517 0.009214 -0.016015 
1006697037282619 0.003517 0.009214 -0.016015 
1006697056189130 0.003517 0.009214 -0.016015 
1006697075095640 0.003517 0.009214 -0.016015 
1006697094002151 0.003517 0.009214 -0.016015 
1006697112908661 0.003517 0.009214 -0.016015 
1006697131815171 0.003517 0.009214 -0.016015 
1006697150721682 0.003517 0.009214 -0.016015 
1006697169628192 0.003517 0.009214 -0.016015 
1006697188534703 0.003517 0.009214 -0.016015 
1006697207441213 0.003517 0.009214 -0.016015 
1006697226347723 0.003517 0.009214 -0.016015 
1006697245254286 0.003517 0.009214 -0.016015 
1006697264160796 0.003517 0.009214 -0.016015 
1006697283067307 0.003517 0.009214 -0.016015 
1006697301973817 0.003517 0.009214 -0.016015 
1006697320880328 0.003517 0.009214 -0.016015 
1006697339786890 0.003517 0.009214 -0.016015 
1006697358693401 0.003517 0.009214 -0.016015 
1006697377599911 0.003517 0.009214 -0.016015 
1006697396506473 0.003517 0.009214 -0.016015 
1006697415412984 0.003517 0.009214 -0.016015 
1006697434319494 0.003517 0.009214 -0.016015 
1006697453226057 0.003517 0.009214 -0.016015 
1006697472132567 0.003517 0.009214 -0.016015 
1006697491039078 0.003517 0.009214 -0.016015 
1006697509945640 0.003517 0.009214 -0.016015 
1006697528852151 0.003517 0.009214 -0.016015 
1006697547758713 0.003517 0.009214 -0.016015 
1006697566665223 0.003517 0.009214 -0.016015 
1006697585571786 0.003517 0.009214 -0.016015 
1006697604478296 0.003517 0.009214 -0.016015 
1006697623384859 0.003517 0.009214 -0.016015 
1006697642291421 0.003517 0.009214 -0.016015 
1006697661197932 0.003517 0.009214 -0.016015 
1006697680104494 0.003517 0.009214 -0.016015 
1006697699011057 0.003517 0.009214 -0.016015 
1006697717917567 0.003517 0.009214 -0.016015 
1006697736824130 0.003517 0.009214 -0.016015 
1006697755730692 0.003517 0.009214 -0.016015 
1006697774637255 0.003517 0.009214 -0.016015 
1006697793543765 0.003517 0.009214 -0.016015 
1006697812450328 0.003517 0.009214 -0.016015 
1006697831356890 0.003517 0.009214 -0.016015 
1006697850263453 0.003517 0.009214 -0.016015 
1006697869170015 0.003517 0.009214 -0.016015 
1006697888076578 0.003517 0.009214 -0.016015 
1006697906983140 0.003517 0.009214 -0.016015 
1006697925889703 0.003517 0.009214 -0.016015 
1006697944796265 0.003517 0.009214 -0.016015 
1006697963702828 0.003517 0.009214 -0.016015 
1006697982609390 0.003517 0.009214 -0.016015 
1006698001515953 0.003517 0.009214 -0.016015 
1006698020422515 0.003517 0.009214 -0.016015 
1006698039329078 0.003517 0.009214 -0.016015 
1006698058235640 0.003517 0.009214 -0.016015 
1006698077142203 0.003517 0.009214 -0.016015 
1006698096048765 0.003517 0.009214 -0.016015 
1006698114955328 0.003517 0.009214 -0.016015 
1006698133861890 0.003517 0.009214 -0.016015 
1006698152768505 0.003517 0.009214 -0.016015 
1006698171675067 0.003517 0.009214 -0.016015 
1006698190581630 0.003517 0.009214 -0.016015 
1006698209488192 0.003517 0.009214 -0.016015 
1006698228394807 0.003517 0.009214 -0.016015 
1006698247301369 0.003517 0.009214 -0.016015 
1006698266207932 0.003517 0.009214 -0.016015 
1006698285114546 0.003517 0.009214 -0.016015 
1006698304021109 0.003517 0.009214 -0.016015 
1006698322927671 0.003517 0.009214 -0.016015 
1006698341834286 0.003517 0.009214 -0.016015 
1006698360740848 0.003517 0.009214 -0.016015 
1006698379647463 0.003517 0.009214 -0.016015 
1006698398554026 0.003517 0.009214 -0.016015 
1006698417460640 0.003517 0.009214 -0.016015 
1006698436367203 0.003517 0.009214 -0.016015 
1006698455273817 0.003517 0.009214 -0.016015 
1006698474180380 0.003517 0.009214 -0.016015 
1006698493086994 0.003517 0.009214 -0.016015 
1006698511993557 0.003517 0.009214 -0.016015 
1006698530900171 0.003517 0.009214 -0.016015 
1006698549806786 0.003517 0.009214 -0.016015 
1006698568713348 0.003517 0.009214 -0.016015 
1006698587619963 0.003517 0.009214 -0.016015 
1006698606526578 0.003517 0.009214 -0.016015 
1006698625433140 0.003517 0.009214 -0.016015 
1006698644339755 0.003517 0.009214 -0.016015 
1006698663246369 0.003517 0.009214 -0.016015 
1006698682152932 0.003517 0.009214 -0.016015 
1006698701059546 0.003517 0.009214 -0.016015 
1006698719966161 0.003517 0.009214 -0.016015 
1006698738872776 0.003517 0.009214 -0.016015 
1006698757779390 0.003517 0.009214 -0.016015 
1006698776685953 0.003517 0.009214 -0.016015 
1006698795592567 0.003517 0.009214 -0.016015 
1006698814499182 0.003517 0.009214 -0.016015 
1006698833405796 0.003517 0.009214 -0.016015 
1006698852312411 0.003517 0.009214 -0.016015 
1006698871219026 0.003517 0.009214 -0.016015 
1006698890125640 0.003517 0.009214 -0.016015 
1006698909032255 0.003517 0.009214 -0.016015 
1006698927938869 0.003517 0.009214 -0.016015 
1006698946845484 0.003517 0.009214 -0.016015 
1006698965752098 0.003517 0.009214 -0.016015 
1006698984658713 0.003517 0.009214 -0.016015 
1006699003565328 0.003517 0.009214 -0.016015 
1006699022471942 0.003517 0.009214 -0.016015 
1006699041378557 0.003517 0.009214 -0.016015 
1006699060285171 0.003517 0.009214 -0.016015 
1006699079191786 0.003517 0.009214 -0.016015 
1006699098098401 0.003517 0.009214 -0.016015 
1006699117005067 0.003517 0.009214 -0.016015 
1006699135911682 0.003517 0.009214 -0.016015 
1006699154818296 0.003517 0.009214 -0.016015 
1006699173724911 0.003517 0.009214 -0.016015 
1006699192631578 0.003517 0.009214 -0.016015 
1006699211538192 0.003517 0.009214 -0.016015 
1006699230444807 0.003517 0.009214 -0.016015 
1006699249351421 0.003517 0.009214 -0.016015 
1006699268258088 0.003517 0.009214 -0.016015 
1006699287164703 0.003517 0.009214 -0.016015 
1006699306071317 0.003517 0.009214 -0.016015 
1006699324977984 0.003517 0.009214 -0.016015 
1006699343884598 0.003517 0.009214 -0.016015 
1006699362791213 0.003517 0.009214 -0.016015 
1006699381697880 0.003517 0.009214 -0.016015 
1006699400604494 0.003517 0.009214 -0.016015 
1006699419511161 0.003517 0.009214 -0.016015 
1006699438417776 0.003517 0.009214 -0.016015 
1006699457324442 0.003517 0.009214 -0.016015 
1006699476231057 0.003517 0.009214 -0.016015 
1006699495137723 0.003517 0.009214 -0.016015 
1006699514044338 0.003517 0.009214 -0.016015 
1006699532951005 0.003517 0.009214 -0.016015 
1006699551857619 0.003517 0.009214 -0.016015 
1006699570764286 0.003517 0.009214 -0.016015 
1006699589670901 0.003517 0.009214 -0.016015 
1006699608577567 0.003517 0.009214 -0.016015 
1006699627484234 0.003517 0.009214 -0.016015 
1006699646390848 0.003517 0.009214 -0.016015 
1006699665297515 0.003517 0.009214 -0.016015 
1006699684204130 0.003517 0.009214 -0.016015 
1006699703110796 0.003517 0.009214 -0.016015 
1006699722017463 0.003517 0.009214 -0.016015 
1006699740924130 0.003517 0.009214 -0.016015 
1006699759830744 0.003517 0.009214 -0.016015 
1006699778737411 0.003517 0.009214 -0.016015 
1006699797644078 0.003517 0.009214 -0.016015 
1006699816550744 0.003517 0.009214 -0.016015 
1006699835457359 0.003517 0.009214 -0.016015 
1006699854364026 0.003517 0.009214 -0.016015 
1006699873270692 0.003517 0.009214 -0.016015 
1006699892177359 0.003517 0.009214 -0.016015 
1006699911084026 0.003517 0.009214 -0.016015 
1006699929990692 0.003517 0.009214 -0.016015 
1006699948897359 0.003517 0.009214 -0.016015 
1006699967803973 0.003517 0.009214 -0.016015 
1006699986710640 0.003517 0.009214 -0.016015 
1006700005617307 0.003517 0.009214 -0.016015 
1006700024523973 0.003517 0.009214 -0.016015 
1006700043430640 0.003517 0.009214 -0.016015 
1006700062337307 0.003517 0.009214 -0.016015 
1006700081243973 0.003517 0.009214 -0.016015 
1006700100150640 0.003517 0.009214 -0.016015 
1006700119057307 0.003517 0.009214 -0.016015 
1006700137963973 0.003517 0.009214 -0.016015 
1006700156870640 0.003517 0.009214 -0.016015 
1006700175777307 0.003517 0.009214 -0.016015 
1006700194683973 0.003517 0.009214 -0.016015 
1006700213590692 0.003517 0.009214 -0.016015 
1006700232497359 0.003517 0.009214 -0.016015 
1006700251404026 0.003517 0.009214 -0.016015 
1006700270310692 0.003517 0.009214 -0.016015 
1006700289217359 0.003517 0.009214 -0.016015 
1006700308124026 0.003517 0.009214 -0.016015 
1006700327030692 0.003517 0.009214 -0.016015 
1006700345937411 0.003517 0.009214 -0.016015 
1006700364844078 0.003517 0.009214 -0.016015 
1006700383750744 0.003517 0.009214 -0.016015 
1006700402657411 0.003517 0.009214 -0.016015 
1006700421564130 0.003517 0.009214 -0.016015 
1006700440470796 0.003517 0.009214 -0.016015 
1006700459377463 0.003517 0.009214 -0.016015 
1006700478284130 0.003517 0.009214 -0.016015 
1006700497190848 0.003517 0.009214 -0.016015 
1006700516097515 0.003517 0.009214 -0.016015 
1006700535004182 0.003517 0.009214 -0.016015 
1006700553910901 0.003517 0.009214 -0.016015 
1006700572817567 0.003517 0.009214 -0.016015 
1006700591724234 0.003517 0.009214 -0.016015 
1006700610630953 0.003517 0.009214 -0.016015 
1006700629537619 0.003517 0.009214 -0.016015 
1006700648444286 0.003517 0.009214 -0.016015 
1006700667351005 0.003517 0.009214 -0.016015 
1006700686257671 0.003517 0.009214 -0.016015 
1006700705164390 0.003517 0.009214 -0.016015 
1006700724071057 0.003517 0.009214 -0.016015 
1006700742977776 0.003517 0.009214 -0.016015 
1006700761884442 0.003517 0.009214 -0.016015 
1006700780791161 0.003517 0.009214 -0.016015 
1006700799697828 0.003517 0.009214 -0.016015 
1006700818604546 0.003517 0.009214 -0.016015 
1006700837511213 0.003517 0.009214 -0.016015 
1006700856417932 0.003517 0.009214 -0.016015 
1006700875324598 0.003517 0.009214 -0.016015 
1006700894231317 0.003517 0.009214 -0.016015 
1006700913137984 0.003517 0.009214 -0.016015 
1006700932044703 0.003517 0.009214 -0.016015 
1006700950951421 0.003517 0.009214 -0.016015 
1006700969858088 0.003517 0.009214 -0.016015 
1006700988764807 0.003517 0.009214 -0.016015 
1006701007671473 0.003517 0.009214 -0.016015 
1006701026578192 0.003517 0.009214 -0.016015 
1006701045484911 0.003517 0.009214 -0.016015 
1006701064391578 0.003517 0.009214 -0.016015 
1006701083298296 0.003517 0.009214 -0.016015 
1006701102205015 0.003517 0.009214 -0.016015 
1006701121111682 0.003517 0.009214 -0.016015 
1006701140018401 0.003517 0.009214 -0.016015 
1006701158925119 0.003517 0.009214 -0.016015 
1006701177831838 0.003517 0.009214 -0.016015 
1006701196738505 0.003517 0.009214 -0.016015 
1006701215645223 0.003517 0.009214 -0.016015 
1006701234551942 0.003517 0.009214 -0.016015 
1006701253458661 0.003517 0.009214 -0.016015 
1006701272365328 0.003517 0.009214 -0.016015 
1006701291272046 0.003517 0.009214 -0.016015 
1006701310178765 0.003517 0.009214 -0.016015 
1006701329085484 0.003517 0.009214 -0.016015 
1006701347992151 0.003517 0.009214 -0.016015 
1006701366898869 0.003517 0.009214 -0.016015 
1006701385805588 0.003517 0.009214 -0.016015 
1006701404712307 0.003517 0.009214 -0.016015 
1006701423619026 0.003517 0.009214 -0.016015 
1006701442525744 0.003517 0.009214 -0.016015 
1006701461432463 0.003517 0.009214 -0.016015 
1006701480339130 0.003517 0.009214 -0.016015 
1006701499245901 0.003517 0.009214 -0.016015 
1006701518152567 0.003517 0.009214 -0.016015 
1006701537059286 0.003517 0.009214 -0.016015 
1006701555966005 0.003517 0.009214 -0.016015 
1006701574872723 0.003517 0.009214 -0.016015 
1006701593779442 0.003517 0.009214 -0.016015 
1006701612686161 0.003517 0.009214 -0.016015 
1006701631592880 0.003517 0.009214 -0.016015 
1006701650499598 0.003517 0.009214 -0.016015 
1006701669406317 0.003517 0.009214 -0.016015 
1006701688313036 0.003517 0.009214 -0.016015 
1006701707219755 0.003517 0.009214 -0.016015 
1006701726126473 0.003517 0.009214 -0.016015 
1006701745033192 0.003517 0.009214 -0.016015 
1006701763939911 0.003517 0.009214 -0.016015 
1006701782846630 0.003517 0.009214 -0.016015 
1006701801753348 0.003517 0.009214 -0.016015 
1006701820660067 0.003517 0.009214 -0.016015 
1006701839566786 0.003517 0.009214 -0.016015 
1006701858473505 0.003517 0.009214 -0.016015 
1006701877380223 0.003517 0.009214 -0.016015 
1006701896286942 0.003517 0.009214 -0.016015 
1006701915193661 0.003517 0.009214 -0.016015 
1006701934100432 0.003517 0.009214 -0.016015 
1006701953007151 0.003517 0.009214 -0.016015 
1006701971913869 0.003517 0.009214 -0.016015 
1006701990820588 0.003517 0.009214 -0.016015 
1006702009727307 0.003517 0.009214 -0.016015 
1006702028634026 0.003517 0.009214 -0.016015 
1006702047540744 0.003517 0.009214 -0.016015 
1006702066447463 0.003517 0.009214 -0.016015 
1006702085354234 0.003517 0.009214 -0.016015 
1006702104260953 0.003517 0.009214 -0.016015 
1006702123167671 0.003517 0.009214 -0.016015 
1006702142074390 0.003517 0.009214 -0.016015 
1006702160981109 0.003517 0.009214 -0.016015 
1006702179887880 0.003517 0.009214 -0.016015 
1006702198794598 0.003517 0.009214 -0.016015 
1006702217701317 0.003517 0.009214 -0.016015 
1006702236608036 0.003517 0.009214 -0.016015 
1006702255514755 0.003517 0.009214 -0.016015 
1006702274421526 0.003517 0.009214 -0.016015 
1006702293328244 0.003517 0.009214 -0.016015 
1006702312234963 0.003517 0.009214 -0.016015 
1006702331141734 0.003517 0.009214 -0.016015 
1006702350048453 0.003517 0.009214 -0.016015 
1006702368955171 0.003517 0.009214 -0.016015 
1006702387861890 0.003517 0.009214 -0.016015 
1006702406768661 0.003517 0.009214 -0.016015 
1006702425675380 0.003517 0.009214 -0.016015 
1006702444582098 0.003517 0.009214 -0.016015 
1006702463488869 0.003517 0.009214 -0.016015 
1006702482395588 0.003517 0.009214 -0.016015 
1006702501302307 0.003517 0.009214 -0.016015 
1006702520209078 0.003517 0.009214 -0.016015 
1006702539115796 0.003517 0.009214 -0.016015 
1006702558022515 0.003517 0.009214 -0.016015 
1006702576929286 0.003517 0.009214 -0.016015 
1006702595836005 0.003517 0.009214 -0.016015 
1006702614742776 0.003517 0.009214 -0.016015 
1006702633649494 0.003517 0.009214 -0.016015 
1006702652556213 0.003517 0.009214 -0.016015 
1006702671462984 0.003517 0.009214 -0.016015 
1006702690369703 0.003517 0.009214 -0.016015 
1006702709276473 0.003517 0.009214 -0.016015 
1006702728183192 0.003517 0.009214 -0.016015 
1006702747089911 0.003517 0.009214 -0.016015 
1006702765996682 0.003517 0.009214 -0.016015 
1006702784903401 0.003517 0.009214 -0.016015 
1006702803810171 0.003517 0.009214 -0.016015 
1006702822716890 0.003517 0.009214 -0.016015 
1006702841623661 0.003517 0.009214 -0.016015 
1006702860530380 0.003517 0.009214 -0.016015 
1006702879437151 0.003517 0.009214 -0.016015 
1006702898343869 0.003517 0.009214 -0.016015 
1006702917250640 0.003517 0.009214 -0.016015 
1006702936157359 0.003517 0.009214 -0.016015 
1006702955064130 0.003517 0.009214 -0.016015 
1006702973970848 0.003517 0.009214 -0.016015 
1006702992877619 0.003517 0.009214 -0.016015 
1006703011784338 0.003517 0.009214 -0.016015 
1006703030691109 0.003517 0.009214 -0.016015 
1006703049597828 0.003517 0.009214 -0.016015 
1006703068504598 0.003517 0.009214 -0.016015 
1006703087411317 0.003517 0.009214 -0.016015 
1006703106318088 0.003517 0.009214 -0.016015 
1006703125224807 0.003517 0.009214 -0.016015 
1006703144131578 0.003517 0.009214 -0.016015 
1006703163038296 0.003517 0.009214 -0.016015 
1006703181945067 0.003517 0.009214 -0.016015 
1006703200851838 0.003517 0.009214 -0.016015 
1006703219758557 0.003517 0.009214 -0.016015 
1006703238665328 0.003517 0.009214 -0.016015 
1006703257572046 0.003517 0.009214 -0.016015 
1006703276478817 0.003517 0.009214 -0.016015 
1006703295385588 0.003517 0.009214 -0.016015 
1006703314292307 0.003517 0.009214 -0.016015 
1006703333199078 0.003517 0.009214 -0.016015 
1006703352105848 0.003517 0.009214 -0.016015 
1006703371012567 0.003517 0.009214 -0.016015 
1006703389919338 0.003517 0.009214 -0.016015 
1006703408826057 0.003517 0.009214 -0.016015 
1006703427732828 0.003517 0.009214 -0.016015 
1006703446639598 0.003517 0.009214 -0.016015 
1006703465546317 0.003517 0.009214 -0.016015 
1006703484453088 0.003517 0.009214 -0.016015 
1006703503359859 0.003517 0.009214 -0.016015 
1006703522266578 0.003517 0.009214 -0.016015 
1006703541173348 0.003517 0.009214 -0.016015 
1006703560080119 0.003517 0.009214 -0.016015 
1006703578986890 0.003517 0.009214 -0.016015 
1006703597893609 0.003517 0.009214 -0.016015 
1006703616800380 0.003517 0.009214 -0.016015 
1006703635707151 0.003517 0.009214 -0.016015 
1006703654613869 0.003517 0.009214 -0.016015 
1006703673520640 0.003517 0.009214 -0.016015 
1006703692427411 0.003517 0.009214 -0.016015 
1006703711334130 0.003517 0.009214 -0.016015 
1006703730240901 0.003517 0.009214 -0.016015 
1006703749147671 0.003517 0.009214 -0.016015 
1006703768054442 0.003517 0.009214 -0.016015 
1006703786961213 0.003517 0.009214 -0.016015 
1006703805867932 0.003517 0.009214 -0.016015 
1006703824774703 0.003517 0.009214 -0.016015 
1006703843681473 0.003517 0.009214 -0.016015 
1006703862588244 0.003517 0.009214 -0.016015 
1006703881494963 0.003517 0.009214 -0.016015 
1006703900401734 0.003517 0.009214 -0.016015 
1006703919308505 0.003517 0.009214 -0.016015 
1006703938215276 0.003517 0.009214 -0.016015 
1006703957121994 0.003517 0.009214 -0.016015 
1006703976028765 0.003517 0.009214 -0.016015 
1006703994935536 0.003517 0.009214 -0.016015 
1006704013842307 0.003517 0.009214 -0.016015 
1006704032749078 0.003517 0.009214 -0.016015 
1006704051655796 0.003517 0.009214 -0.016015 
1006704070562567 0.003517 0.009214 -0.016015 
1006704089469338 0.003517 0.009214 -0.016015 
1006704108376109 0.003517 0.009214 -0.016015 
1006704127282880 0.003517 0.009214 -0.016015 
1006704146189598 0.003517 0.009214 -0.016015 
1006704165096369 0.003517 0.009214 -0.016015 
1006704184003140 0.003517 0.009214 -0.016015 
1006704202909911 0.003517 0.009214 -0.016015 
1006704221816682 0.003517 0.009214 -0.016015 
1006704240723453 0.003517 0.009214 -0.016015 
1006704259630223 0.003517 0.009214 -0.016015 
1006704278536994 0.003517 0.009214 -0.016015 
1006704297443713 0.003517 0.009214 -0.016015 
1006704316350484 0.003517 0.009214 -0.016015 
1006704335257255 0.003517 0.009214 -0.016015 
1006704354164026 0.003517 0.009214 -0.016015 
1006704373070796 0.003517 0.009214 -0.016015 
1006704391977567 0.003517 0.009214 -0.016015 
1006704410884338 0.003517 0.009214 -0.016015 
1006704429791057 0.003517 0.009214 -0.016015 
1006704448697828 0.003517 0.009214 -0.016015 
1006704467604598 0.003517 0.009214 -0.016015 
1006704486511369 0.003517 0.009214 -0.016015 
1006704505418140 0.003517 0.009214 -0.016015 
1006704524324911 0.003517 0.009214 -0.016015 
1006704543231682 0.003517 0.009214 -0.016015 
1006704562138453 0.003517 0.009214 -0.016015 
1006704581045223 0.003517 0.009214 -0.016015 
1006704599951994 0.003517 0.009214 -0.016015 
1006704618858713 0.003517 0.009214 -0.016015 
1006704637765484 0.003517 0.009214 -0.016015 
1006704656672255 0.003517 0.009214 -0.016015 
1006704675579026 0.003517 0.009214 -0.016015 
1006704694485796 0.003517 0.009214 -0.016015 
1006704713392567 0.003517 0.009214 -0.016015 
1006704732299338 0.003517 0.009214 -0.016015 
1006704751206109 0.003517 0.009214 -0.016015 
1006704770112880 0.003517 0.009214 -0.016015 
1006704789019651 0.003517 0.009214 -0.016015 
1006704807926421 0.003517 0.009214 -0.016015 
1006704826833192 0.003517 0.009214 -0.016015 
1006704845739963 0.003517 0.009214 -0.016015 
1006704864646734 0.003517 0.009214 -0.016015 
1006704883553505 0.003517 0.009214 -0.016015 
1006704902460276 0.003517 0.009214 -0.016015 
1006704921367046 0.003517 0.009214 -0.016015 
1006704940273817 0.003517 0.009214 -0.016015 
1006704959180588 0.003517 0.009214 -0.016015 
1006704978087359 0.003517 0.009214 -0.016015 
1006704996994130 0.003517 0.009214 -0.016015 
1006705015900848 0.003517 0.009214 -0.016015 
1006705034807671 0.003517 0.009214 -0.016015 
1006705053714390 0.003517 0.009214 -0.016015 
1006705072621161 0.003517 0.009214 -0.016015 
1006705091527932 0.003517 0.009214 -0.016015 
1006705110434703 0.003517 0.009214 -0.016015 
1006705129341473 0.003517 0.009214 -0.016015 
1006705148248244 0.003517 0.009214 -0.016015 
1006705167155015 0.003517 0.009214 -0.016015 
1006705186061786 0.003517 0.009214 -0.016015 
1006705204968557 0.003517 0.009214 -0.016015 
1006705223875328 0.003517 0.009214 -0.016015 
1006705242782098 0.003517 0.009214 -0.016015 
1006705261688869 0.003517 0.009214 -0.016015 
1006705280595640 0.003517 0.009214 -0.016015 
1006705299502463 0.003517 0.009214 -0.016015 
1006705318409234 0.003517 0.009214 -0.016015 
1006705337316005 0.003517 0.009214 -0.016015 
1006705356222776 0.003517 0.009214 -0.016015 
1006705375129546 0.003517 0.009214 -0.016015 
1006705394036317 0.003517 0.009214 -0.016015 
1006705412943088 0.003517 0.009214 -0.016015 
1006705431849859 0.003517 0.009214 -0.016015 
1006705450756630 0.003517 0.009214 -0.016015 
1006705469663401 0.003517 0.009214 -0.016015 
1006705488570171 0.003517 0.009214 -0.016015 
1006705507476942 0.003517 0.009214 -0.016015 
1006705526383713 0.003517 0.009214 -0.016015 
1006705545290484 0.003517 0.009214 -0.016015 
1006705564197255 0.003517 0.009214 -0.016015 
1006705583104026 0.003517 0.009214 -0.016015 
1006705602010796 0.003517 0.009214 -0.016015 
1006705620917567 0.003517 0.009214 -0.016015 
1006705639824338 0.003517 0.009214 -0.016015 
1006705658731109 0.003517 0.009214 -0.016015 
1006705677637880 0.003517 0.009214 -0.016015 
1006705696544651 0.003517 0.009214 -0.016015 
1006705715451421 0.003517 0.009214 -0.016015 
1006705734358192 0.003517 0.009214 -0.016015 
1006705753264963 0.003517 0.009214 -0.016015 
1006705772171734 0.003517 0.009214 -0.016015 
1006705791078557 0.003517 0.009214 -0.016015 
1006705809985328 0.003517 0.009214 -0.016015 
1006705828892098 0.003517 0.009214 -0.016015 
1006705847798869 0.003517 0.009214 -0.016015 
1006705866705640 0.003517 0.009214 -0.016015 
1006705885612411 0.003517 0.009214 -0.016015 
1006705904519182 0.003517 0.009214 -0.016015 
1006705923425953 0.003517 0.009214 -0.016015 
1006705942332723 0.003517 0.009214 -0.016015 
1006705961239494 0.003517 0.009214 -0.016015 
1006705980146265 0.003517 0.009214 -0.016015 
1006705999053036 0.003517 0.009214 -0.016015 
1006706017959807 0.003517 0.009214 -0.016015 
1006706036866578 0.003517 0.009214 -0.016015 
1006706055773348 0.003517 0.009214 -0.016015 
1006706074680119 0.003517 0.009214 -0.016015 
1006706093586942 0.003517 0.009214 -0.016015 
1006706112493713 0.003517 0.009214 -0.016015 
1006706131400484 0.003517 0.009214 -0.016015 
1006706150307255 0.003517 0.009214 -0.016015 
1006706169214026 0.003517 0.009214 -0.016015 
1006706188120796 0.003517 0.009214 -0.016015 
1006706207027567 0.003517 0.009214 -0.016015 
1006706225934338 0.003517 0.009214 -0.016015 
1006706244841109 0.003517 0.009214 -0.016015 
1006706263747880 0.003517 0.009214 -0.016015 
1006706282654703 0.003517 0.009214 -0.016015 
1006706301561473 0.003517 0.009214 -0.016015 
1006706320468244 0.003517 0.009214 -0.016015 
1006706339375015 0.003517 0.009214 -0.016015 
1006706358281786 0.003517 0.009214 -0.016015 
1006706377188557 0.003517 0.009214 -0.016015 
1006706396095328 0.003517 0.009214 -0.016015 
1006706415002098 0.003517 0.009214 -0.016015 
1006706433908869 0.003517 0.009214 -0.016015 
1006706452815692 0.003517 0.009214 -0.016015 
1006706471722463 0.003517 0.009214 -0.016015 
1006706490629234 0.003517 0.009214 -0.016015 
1006706509536005 0.003517 0.009214 -0.016015 
1006706528442776 0.003517 0.009214 -0.016015 
1006706547349546 0.003517 0.009214 -0.016015 
1006706566256317 0.003517 0.009214 -0.016015 
1006706585163088 0.003517 0.009214 -0.016015 
1006706604069859 0.003517 0.009214 -0.016015 
1006706622976682 0.003517 0.009214 -0.016015 
1006706641883453 0.003517 0.009214 -0.016015 
1006706660790223 0.003517 0.009214 -0.016015 
1006706679696994 0.003517 0.009214 -0.016015 
1006706698603765 0.003517 0.009214 -0.016015 
1006706717510536 0.003517 0.009214 -0.016015 
1006706736417307 0.003517 0.009214 -0.016015 
1006706755324130 0.003517 0.009214 -0.016015 
1006706774230901 0.003517 0.009214 -0.016015 
1006706793137671 0.003517 0.009214 -0.016015 
1006706812044442 0.003517 0.009214 -0.016015 
1006706830951213 0.003517 0.009214 -0.016015 
1006706849857984 0.003517 0.009214 -0.016015 
1006706868764755 0.003517 0.009214 -0.016015 
1006706887671578 0.003517 0.009214 -0.016015 
1006706906578348 0.003517 0.009214 -0.016015 
1006706925485119 0.003517 0.009214 -0.016015 
1006706944391890 0.003517 0.009214 -0.016015 
1006706963298661 0.003517 0.009214 -0.016015 
1006706982205432 0.003517 0.009214 -0.016015 
1006707001112255 0.003517 0.009214 -0.016015 
1006707020019026 0.003517 0.009214 -0.016015 
1006707038925796 0.003517 0.009214 -0.016015 
1006707057832567 0.003517 0.009214 -0.016015 
1006707076739338 0.003517 0.009214 -0.016015 
1006707095646109 0.003517 0.009214 -0.016015 
1006707114552932 0.003517 0.009214 -0.016015 
1006707133459703 0.003517 0.009214 -0.016015 
1006707152366473 0.003517 0.009214 -0.016015 
1006707171273244 0.003517 0.009214 -0.016015 
1006707190180015 0.003517 0.009214 -0.016015 
1006707209086786 0.003517 0.009214 -0.016015 
1006707227993609 0.003517 0.009214 -0.016015 
1006707246900380 0.003517 0.009214 -0.016015 
1006707265807151 0.003517 0.009214 -0.016015 
1006707284713921 0.003517 0.009214 -0.016015 
1006707303620692 0.003517 0.009214 -0.016015 
1006707322527515 0.003517 0.009214 -0.016015 
1006707341434286 0.003517 0.009214 -0.016015 
1006707360341057 0.003517 0.009214 -0.016015 
1006707379247828 0.003517 0.009214 -0.016015 
1006707398154651 0.003517 0.009214 -0.016015 
1006707417061421 0.003517 0.009214 -0.016015 
1006707435968192 0.003517 0.009214 -0.016015 
1006707454874963 0.003517 0.009214 -0.016015 
1006707473781786 0.003517 0.009214 -0.016015 
1006707492688557 0.003517 0.009214 -0.016015 
1006707511595328 0.003517 0.009214 -0.016015 
1006707530502098 0.003517 0.009214 -0.016015 
1006707549408869 0.003517 0.009214 -0.016015 
1006707568315692 0.003517 0.009214 -0.016015 
1006707587222463 0.003517 0.009214 -0.016015 
1006707606129234 0.003517 0.009214 -0.016015 
1006707625036005 0.003517 0.009214 -0.016015 
1006707643942828 0.003517 0.009214 -0.016015 
1006707662849598 0.003517 0.009214 -0.016015 
1006707681756369 0.003517 0.009214 -0.016015 
1006707700663192 0.003517 0.009214 -0.016015 
1006707719569963 0.003517 0.009214 -0.016015 
1006707738476734 0.003517 0.009214 -0.016015 
1006707757383505 0.003517 0.009214 -0.016015 
1006707776290328 0.003517 0.009214 -0.016015 
1006707795197098 0.003517 0.009214 -0.016015 
1006707814103869 0.003517 0.009214 -0.016015 
1006707833010640 0.003517 0.009214 -0.016015 
1006707851917463 0.003517 0.009214 -0.016015 
1006707870824234 0.003517 0.009214 -0.016015 
1006707889731005 0.003517 0.009214 -0.016015 
1006707908637776 0.003517 0.009214 -0.016015 
1006707927544598 0.003517 0.009214 -0.016015 
1006707946451369 0.003517 0.009214 -0.016015 
1006707965358140 0.003517 0.009214 -0.016015 
1006707984264963 0.003517 0.009214 -0.016015 
1006708003171734 0.003517 0.009214 -0.016015 
1006708022078505 0.003517 0.009214 -0.016015 
1006708040985328 0.003517 0.009214 -0.016015 
1006708059892098 0.003517 0.009214 -0.016015 
1006708078798869 0.003517 0.009214 -0.016015 
1006708097705640 0.003517 0.009214 -0.016015 
1006708116612463 0.003517 0.009214 -0.016015 
1006708135519234 0.003517 0.009214 -0.016015 
1006708154426005 0.003517 0.009214 -0.016015 
1006708173332828 0.003517 0.009214 -0.016015 
1006708192239598 0.003517 0.009214 -0.016015 
1006708211146369 0.003517 0.009214 -0.016015 
1006708230053140 0.003517 0.009214 -0.016015 
1006708248959963 0.003517 0.009214 -0.016015 
1006708267866734 0.003517 0.009214 -0.016015 
1006708286773505 0.003517 0.009214 -0.016015 
1006708305680328 0.003517 0.009214 -0.016015 
1006708324587098 0.003517 0.009214 -0.016015 
1006708343493869 0.003517 0.009214 -0.016015 
1006708362400692 0.003517 0.009214 -0.016015 
1006708381307463 0.003517 0.009214 -0.016015 
1006708400214234 0.003517 0.009214 -0.016015 
1006708419121005 0.003517 0.009214 -0.016015 
1006708438027828 0.003517 0.009214 -0.016015 
1006708456934598 0.003517 0.009214 -0.016015 
1006708475841369 0.003517 0.009214 -0.016015 
1006708494748192 0.003517 0.009214 -0.016015 
1006708513654963 0.003517 0.009214 -0.016015 
1006708532561734 0.003517 0.009214 -0.016015 
1006708551468557 0.003517 0.009214 -0.016015 
1006708570375328 0.003517 0.009214 -0.016015 
1006708589282098 0.003517 0.009214 -0.016015 
1006708608188921 0.003517 0.009214 -0.016015 
1006708627095692 0.003517 0.009214 -0.016015 
1006708646002463 0.003517 0.009214 -0.016015 
1006708664909234 0.003517 0.009214 -0.016015 
1006708683816057 0.003517 0.009214 -0.016015 
1006708702722828 0.003517 0.009214 -0.016015 
1006708721629598 0.003517 0.009214 -0.016015 
1006708740536421 0.003517 0.009214 -0.016015 
1006708759443192 0.003517 0.009214 -0.016015 
1006708778349963 0.003517 0.009214 -0.016015 
1006708797256786 0.003517 0.009214 -0.016015 
1006708816163557 0.003517 0.009214 -0.016015 
1006708835070328 0.003517 0.009214 -0.016015 
1006708853977151 0.003517 0.009214 -0.016015 
1006708872883921 0.003517 0.009214 -0.016015 
1006708891790692 0.003517 0.009214 -0.016015 
1006708910697515 0.003517 0.009214 -0.016015 
1006708929604286 0.003517 0.009214 -0.016015 
1006708948511057 0.003517 0.009214 -0.016015 
1006708967417880 0.003517 0.009214 -0.016015 
1006708986324651 0.003517 0.009214 -0.016015 
1006709005231421 0.003517 0.009214 -0.016015 
1006709024138244 0.003517 0.009214 -0.016015 
1006709043045015 0.003517 0.009214 -0.016015 
1006709061951786 0.003517 0.009214 -0.016015 
1006709080858609 0.003517 0.009214 -0.016015 
1006709099765380 0.003517 0.009214 -0.016015 
1006709118672151 0.003517 0.009214 -0.016015 
1006709137578973 0.003517 0.009214 -0.016015 
1006709156485744 0.003517 0.009214 -0.016015 
1006709175392515 0.003517 0.009214 -0.016015 
1006709194299338 0.003517 0.009214 -0.016015 
1006709213206109 0.003517 0.009214 -0.016015 
1006709232112880 0.003517 0.009214 -0.016015 
1006709251019703 0.003517 0.009214 -0.016015 
1006709269926473 0.003517 0.009214 -0.016015 
1006709288833244 0.003517 0.009214 -0.016015 
1006709307740067 0.003517 0.009214 -0.016015 
1006709326646838 0.003517 0.009214 -0.016015 
1006709345553609 0.003517 0.009214 -0.016015 
1006709364460432 0.003517 0.009214 -0.016015 
1006709383367203 0.003517 0.009214 -0.016015 
1006709402273973 0.003517 0.009214 -0.016015 
1006709421180796 0.003517 0.009214 -0.016015 
1006709440087567 0.003517 0.009214 -0.016015 
1006709458994338 0.003517 0.009214 -0.016015 
1006709477901161 0.003517 0.009214 -0.016015 
1006709496807932 0.003517 0.009214 -0.016015 
1006709515714703 0.003517 0.009214 -0.016015 
1006709534621526 0.003517 0.009214 -0.016015 
1006709553528296 0.003517 0.009214 -0.016015 
1006709572435067 0.003517 0.009214 -0.016015 
1006709591341890 0.003517 0.009214 -0.016015 
1006709610248661 0.003517 0.009214 -0.016015 
1006709629155484 0.003517 0.009214 -0.016015 
1006709648062255 0.003517 0.009214 -0.016015 
1006709666969026 0.003517 0.009214 -0.016015 
1006709685875848 0.003517 0.009214 -0.016015 
1006709704782619 0.003517 0.009214 -0.016015 
1006709723689390 0.003517 0.009214 -0.016015 
1006709742596213 0.003517 0.009214 -0.016015 
1006709761502984 0.003517 0.009214 -0.016015 
1006709780409755 0.003517 0.009214 -0.016015 
1006709799316578 0.003517 0.009214 -0.016015 
1006709818223348 0.003517 0.009214 -0.016015 
1006709837130119 0.003517 0.009214 -0.016015 
1006709856036942 0.003517 0.009214 -0.016015 
1006709874943713 0.003517 0.009214 -0.016015 
1006709893850484 0.003517 0.009214 -0.016015 
1006709912757307 0.003517 0.009214 -0.016015 
1006709931664078 0.003517 0.009214 -0.016015 
1006709950570901 0.003517 0.009214 -0.016015 
1006709969477671 0.003517 0.009214 -0.016015 
1006709988384442 0.003517 0.009214 -0.016015 
1006710007291265 0.003517 0.009214 -0.016015 
1006710026198036 0.003517 0.009214 -0.016015 
1006710045104807 0.003517 0.009214 -0.016015 
1006710064011630 0.003517 0.009214 -0.016015 
1006710082918401 0.003517 0.009214 -0.016015 
1006710101825223 0.003517 0.009214 -0.016015 
1006710120731994 0.003517 0.009214 -0.016015 
1006710139638765 0.003517 0.009214 -0.016015 
1006710158545588 0.003517 0.009214 -0.016015 
1006710177452359 0.003517 0.009214 -0.016015 
1006710196359130 0.003517 0.009214 -0.016015 
1006710215265953 0.003517 0.009214 -0.016015 
1006710234172723 0.003517 0.009214 -0.016015 
1006710253079494 0.003517 0.009214 -0.016015 
1006710271986317 0.003517 0.009214 -0.016015 
1006710290893088 0.003517 0.009214 -0.016015 
1006710309799911 0.003517 0.009214 -0.016015 
1006710328706682 0.003517 0.009214 -0.016015 
1006710347613453 0.003517 0.009214 -0.016015 
1006710366520276 0.003517 0.009214 -0.016015 
1006710385427046 0.003517 0.009214 -0.016015 
1006710404333817 0.003517 0.009214 -0.016015 
1006710423240640 0.003517 0.009214 -0.016015 
1006710442147411 0.003517 0.009214 -0.016015 
1006710461054234 0.003517 0.009214 -0.016015 
1006710479961005 0.003517 0.009214 -0.016015 
1006710498867776 0.003517 0.009214 -0.016015 
1006710517774598 0.003517 0.009214 -0.016015 
1006710536681369 0.003517 0.009214 -0.016015 
1006710555588140 0.003517 0.009214 -0.016015 
1006710574494963 0.003517 0.009214 -0.016015 
1006710593401734 0.003517 0.009214 -0.016015 
1006710612308505 0.003517 0.009214 -0.016015 
1006710631215328 0.003517 0.009214 -0.016015 
1006710650122098 0.003517 0.009214 -0.016015 
1006710669028921 0.003517 0.009214 -0.016015 
1006710687935692 0.003517 0.009214 -0.016015 
1006710706842463 0.003517 0.009214 -0.016015 
1006710725749286 0.003517 0.009214 -0.016015 
1006710744656057 0.003517 0.009214 -0.016015 
1006710763562828 0.003517 0.009214 -0.016015 
1006710782469651 0.003517 0.009214 -0.016015 
1006710801376421 0.003517 0.009214 -0.016015 
1006710820283244 0.003517 0.009214 -0.016015 
1006710839190015 0.003517 0.009214 -0.016015 
1006710858096786 0.003517 0.009214 -0.016015 
1006710877003609 0.003517 0.009214 -0.016015 
1006710895910380 0.003517 0.009214 -0.016015 
1006710914817151 0.003517 0.009214 -0.016015 
1006710933723973 0.003517 0.009214 -0.016015 
1006710952630744 0.003517 0.009214 -0.016015 
1006710971537567 0.003517 0.009214 -0.016015 
1006710990444338 0.003517 0.009214 -0.016015 
1006711009351109 0.003517 0.009214 -0.016015 
1006711028257932 0.003517 0.009214 -0.016015 
1006711047164703 0.003517 0.009214 -0.016015 
1006711066071473 0.003517 0.009214 -0.016015 
1006711084978296 0.003517 0.009214 -0.016015 
1006711103885067 0.003517 0.009214 -0.016015 
1006711122791890 0.003517 0.009214 -0.016015 
1006711141698661 0.003517 0.009214 -0.016015 
1006711160605432 0.003517 0.009214 -0.016015 
1006711179512255 0.003517 0.009214 -0.016015 
1006711198419026 0.003517 0.009214 -0.016015 
1006711217325796 0.003517 0.009214 -0.016015 
1006711236232619 0.003517 0.009214 -0.016015 
1006711255139390 0.003517 0.009214 -0.016015 
1006711274046213 0.003517 0.009214 -0.016015 
1006711292952984 0.003517 0.009214 -0.016015 
1006711311859755 0.003517 0.009214 -0.016015 
1006711330766578 0.003517 0.009214 -0.016015 
1006711349673348 0.003517 0.009214 -0.016015 
1006711368580119 0.003517 0.009214 -0.016015 
1006711387486942 0.003517 0.009214 -0.016015 
1006711406393713 0.003517 0.009214 -0.016015 
1006711425300536 0.003517 0.009214 -0.016015 
1006711444207307 0.003517 0.009214 -0.016015 
1006711463114078 0.003517 0.009214 -0.016015 
1006711482020901 0.003517 0.009214 -0.016015 
1006711500927671 0.003517 0.009214 -0.016015 
1006711519834494 0.003517 0.009214 -0.016015 
1006711538741265 0.003517 0.009214 -0.016015 
1006711557648036 0.003517 0.009214 -0.016015 
1006711576554859 0.003517 0.009214 -0.016015 
1006711595461630 0.003517 0.009214 -0.016015 
1006711614368453 0.003517 0.009214 -0.016015 
1006711633275223 0.003517 0.009214 -0.016015 
1006711652181994 0.003517 0.009214 -0.016015 
1006711671088817 0.003517 0.009214 -0.016015 
1006711689995588 0.003517 0.009214 -0.016015 
1006711708902411 0.003517 0.009214 -0.016015 
1006711727809182 0.003517 0.009214 -0.016015 
1006711746715953 0.003517 0.009214 -0.016015 
1006711765622776 0.003517 0.009214 -0.016015 
1006711784529546 0.003517 0.009214 -0.016015 
1006711803436369 0.003517 0.009214 -0.016015 
1006711822343140 0.003517 0.009214 -0.016015 
1006711841249911 0.003517 0.009214 -0.016015 
1006711860156734 0.003517 0.009214 -0.016015 
1006711879063505 0.003517 0.009214 -0.016015 
1006711897970328 0.003517 0.009214 -0.016015 
1006711916877098 0.003517 0.009214 -0.016015 
1006711935783869 0.003517 0.009214 -0.016015 
1006711954690692 0.003517 0.009214 -0.016015 
1006711973597463 0.003517 0.009214 -0.016015 
1006711992504286 0.003517 0.009214 -0.016015 
1006712011411057 0.003517 0.009214 -0.016015 
1006712030317828 0.003517 0.009214 -0.016015 
1006712049224651 0.003517 0.009214 -0.016015 
1006712068131421 0.003517 0.009214 -0.016015 
1006712087038244 0.003517 0.009214 -0.016015 
1006712105945015 0.003517 0.009214 -0.016015 
1006712124851838 0.003517 0.009214 -0.016015 
1006712143758609 0.003517 0.009214 -0.016015 
1006712162665380 0.003517 0.009214 -0.016015 
1006712181572203 0.003517 0.009214 -0.016015 
1006712200478973 0.003517 0.009214 -0.016015 
1006712219385744 0.003517 0.009214 -0.016015 
1006712238292567 0.003517 0.009214 -0.016015 
1006712257199338 0.003517 0.009214 -0.016015 
1006712276106161 0.003517 0.009214 -0.016015 
1006712295012932 0.003517 0.009214 -0.016015 
1006712313919703 0.003517 0.009214 -0.016015 
1006712332826526 0.003517 0.009214 -0.016015 
1006712351733296 0.003517 0.009214 -0.016015 
1006712370640119 0.003517 0.009214 -0.016015 
1006712389546890 0.003517 0.009214 -0.016015 
1006712408453661 0.003517 0.009214 -0.016015 
1006712427360484 0.003517 0.009214 -0.016015 
1006712446267255 0.003517 0.009214 -0.016015 
1006712465174078 0.003517 0.009214 -0.016015 
1006712484080848 0.003517 0.009214 -0.016015 
1006712502987619 0.003517 0.009214 -0.016015 
1006712521894442 0.003517 0.009214 -0.016015 
1006712540801213 0.003517 0.009214 -0.016015 
1006712559708036 0.003517 0.009214 -0.016015 
1006712578614807 0.003517 0.009214 -0.016015 
1006712597521630 0.003517 0.009214 -0.016015 
1006712616428401 0.003517 0.009214 -0.016015 
1006712635335171 0.003517 0.009214 -0.016015 
1006712654241994 0.003517 0.009214 -0.016015 
1006712673148765 0.003517 0.009214 -0.016015 
1006712692055588 0.003517 0.009214 -0.016015 
1006712710962359 0.003517 0.009214 -0.016015 
1006712729869130 0.003517 0.009214 -0.016015 
1006712748775953 0.003517 0.009214 -0.016015 
1006712767682723 0.003517 0.009214 -0.016015 
1006712786589546 0.003517 0.009214 -0.016015 
1006712805496317 0.003517 0.009214 -0.016015 
1006712824403140 0.003517 0.009214 -0.016015 
1006712843309911 0.003517 0.009214 -0.016015 
1006712862216682 0.003517 0.009214 -0.016015 
1006712881123505 0.003517 0.009214 -0.016015 
1006712900030276 0.003517 0.009214 -0.016015 
1006712918937098 0.003517 0.009214 -0.016015 
1006712937843869 0.003517 0.009214 -0.016015 
1006712956750692 0.003517 0.009214 -0.016015 
1006712975657463 0.003517 0.009214 -0.016015 
1006712994564234 0.003517 0.009214 -0.016015 
1006713013471057 0.003517 0.009214 -0.016015 
1006713032377828 0.003517 0.009214 -0.016015 
1006713051284651 0.003517 0.009214 -0.016015 
1006713070191421 0.003517 0.009214 -0.016015 
1006713089098244 0.003517 0.009214 -0.016015 
1006713108005015 0.003517 0.009214 -0.016015 
1006713126911786 0.003517 0.009214 -0.016015 
1006713145818609 0.003517 0.009214 -0.016015 
1006713164725380 0.003517 0.009214 -0.016015 
1006713183632203 0.003517 0.009214 -0.016015 
1006713202538973 0.003517 0.009214 -0.016015 
1006713221445796 0.003517 0.009214 -0.016015 
1006713240352567 0.003517 0.009214 -0.016015 
1006713259259338 0.003517 0.009214 -0.016015 
1006713278166161 0.003517 0.009214 -0.016015 
1006713297072932 0.003517 0.009214 -0.016015 
1006713315979755 0.003517 0.009214 -0.016015 
1006713334886526 0.003517 0.009214 -0.016015 
1006713353793348 0.003517 0.009214 -0.016015 
1006713372700119 0.003517 0.009214 -0.016015 
1006713391606890 0.003517 0.009214 -0.016015 
1006713410513713 0.003517 0.009214 -0.016015 
1006713429420484 0.003517 0.009214 -0.016015 
1006713448327307 0.003517 0.009214 -0.016015 
1006713467234078 0.003517 0.009214 -0.016015 
1006713486140901 0.003517 0.009214 -0.016015 
1006713505047671 0.003517 0.009214 -0.016015 
1006713523954494 0.003517 0.009214 -0.016015 
1006713542861265 0.003517 0.009214 -0.016015 
1006713561768036 0.003517 0.009214 -0.016015 
1006713580674859 0.003517 0.009214 -0.016015 
1006713599581630 0.003517 0.009214 -0.016015 
1006713618488453 0.003517 0.009214 -0.016015 
1006713637395223 0.003517 0.009214 -0.016015 
1006713656302046 0.003517 0.009214 -0.016015 
1006713675208817 0.003517 0.009214 -0.016015 
1006713694115588 0.003517 0.009214 -0.016015 
1006713713022411 0.003517 0.009214 -0.016015 
1006713731929182 0.003517 0.009214 -0.016015 
1006713750836005 0.003517 0.009214 -0.016015 
1006713769742776 0.003517 0.009214 -0.016015 
1006713788649598 0.003517 0.009214 -0.016015 
1006713807556369 0.003517 0.009214 -0.016015 
1006713826463192 0.003517 0.009214 -0.016015 
1006713845369963 0.003517 0.009214 -0.016015 
1006713864276734 0.003517 0.009214 -0.016015 
1006713883183557 0.003517 0.009214 -0.016015 
1006713902090328 0.003517 0.009214 -0.016015 
1006713920997151 0.003517 0.009214 -0.016015 
1006713939903921 0.003517 0.009214 -0.016015 
1006713958810744 0.003517 0.009214 -0.016015 
1006713977717515 0.003517 0.009214 -0.016015 
1006713996624338 0.003517 0.009214 -0.016015 
1006714015531109 0.003517 0.009214 -0.016015 
1006714034437880 0.003517 0.009214 -0.016015 
1006714053344703 0.003517 0.009214 -0.016015 
1006714072251473 0.003517 0.009214 -0.016015 
1006714091158296 0.003517 0.009214 -0.016015 
1006714110065067 0.003517 0.009214 -0.016015 
1006714128971890 0.003517 0.009214 -0.016015 
1006714147878661 0.003517 0.009214 -0.016015 
1006714166785484 0.003517 0.009214 -0.016015 
1006714185692255 0.003517 0.009214 -0.016015 
1006714204599026 0.003517 0.009214 -0.016015 
1006714223505848 0.003517 0.009214 -0.016015 
1006714242412619 0.003517 0.009214 -0.016015 
1006714261319442 0.003517 0.009214 -0.016015 
1006714280226213 0.003517 0.009214 -0.016015 
1006714299133036 0.003517 0.009214 -0.016015 
1006714318039807 0.003517 0.009214 -0.016015 
1006714336946578 0.003517 0.009214 -0.016015 
1006714355853401 0.003517 0.009214 -0.016015 
1006714374760171 0.003517 0.009214 -0.016015 
1006714393666994 0.003517 0.009214 -0.016015 
1006714412573765 0.003517 0.009214 -0.016015 
1006714431480588 0.003517 0.009214 -0.016015 
1006714450387359 0.003517 0.009214 -0.016015 
1006714469294182 0.003517 0.009214 -0.016015 
1006714488200953 0.003517 0.009214 -0.016015 
1006714507107723 0.003517 0.009214 -0.016015 
1006714526014546 0.003517 0.009214 -0.016015 
1006714544921317 0.003517 0.009214 -0.016015 
1006714563828140 0.003517 0.009214 -0.016015 
1006714582734911 0.003517 0.009214 -0.016015 
1006714601641734 0.003517 0.009214 -0.016015 
1006714620548505 0.003517 0.009214 -0.016015 
1006714639455276 0.003517 0.009214 -0.016015 
1006714658362098 0.003517 0.009214 -0.016015 
1006714677268869 0.003517 0.009214 -0.016015 
1006714696175692 0.003517 0.009214 -0.016015 
1006714715082463 0.003517 0.009214 -0.016015 
1006714733989286 0.003517 0.009214 -0.016015 
1006714752896057 0.003517 0.009214 -0.016015 
1006714771802880 0.003517 0.009214 -0.016015 
1006714790709651 0.003517 0.009214 -0.016015 
1006714809616421 0.003517 0.009214 -0.016015 
1006714828523244 0.003517 0.009214 -0.016015 
1006714847430015 0.003517 0.009214 -0.016015 
1006714866336838 0.003517 0.009214 -0.016015 
1006714885243609 0.003517 0.009214 -0.016015 
1006714904150432 0.003517 0.009214 -0.016015 
1006714923057203 0.003517 0.009214 -0.016015 
1006714941963973 0.003517 0.009214 -0.016015 
1006714960870796 0.003517 0.009214 -0.016015 
1006714979777567 0.003517 0.009214 -0.016015 
1006714998684390 0.003517 0.009214 -0.016015 
1006715017591161 0.003517 0.009214 -0.016015 
1006715036497984 0.003517 0.009214 -0.016015 
1006715055404755 0.003517 0.009214 -0.016015 
1006715074311526 0.003517 0.009214 -0.016015 
1006715093218348 0.003517 0.009214 -0.016015 
1006715112125119 0.003517 0.009214 -0.016015 
1006715131031942 0.003517 0.009214 -0.016015 
1006715149938713 0.003517 0.009214 -0.016015 
1006715168845536 0.003517 0.009214 -0.016015 
1006715187752307 0.003517 0.009214 -0.016015 
1006715206659130 0.003517 0.009214 -0.016015 
1006715225565901 0.003517 0.009214 -0.016015 
1006715244472671 0.003517 0.009214 -0.016015 
1006715263379494 0.003517 0.009214 -0.016015 
1006715282286265 0.003517 0.009214 -0.016015 
1006715301193088 0.003517 0.009214 -0.016015 
1006715320099859 0.003517 0.009214 -0.016015 
1006715339006682 0.003517 0.009214 -0.016015 
1006715357913453 0.003517 0.009214 -0.016015 
1006715376820276 0.003517 0.009214 -0.016015 
1006715395727046 0.003517 0.009214 -0.016015 
1006715414633817 0.003517 0.009214 -0.016015 
1006715433540640 0.003517 0.009214 -0.016015 
1006715452447411 0.003517 0.009214 -0.016015 
1006715471354234 0.003517 0.009214 -0.016015 
1006715490261005 0.003517 0.009214 -0.016015 
1006715509167828 0.003517 0.009214 -0.016015 
1006715528074598 0.003517 0.009214 -0.016015 
1006715546981421 0.003517 0.009214 -0.016015 
1006715565888192 0.003517 0.009214 -0.016015 
1006715584795015 0.003517 0.009214 -0.016015 
1006715603701786 0.003517 0.009214 -0.016015 
1006715622608609 0.003517 0.009214 -0.016015 
1006715641515380 0.003517 0.009214 -0.016015 
1006715660422203 0.003517 0.009214 -0.016015 
1006715679328973 0.003517 0.009214 -0.016015 
1006715698235796 0.003517 0.009214 -0.016015 
1006715717142567 0.003517 0.009214 -0.016015 
1006715736049390 0.003517 0.009214 -0.016015 
1006715754956161 0.003517 0.009214 -0.016015 
1006715773862984 0.003517 0.009214 -0.016015 
1006715792769755 0.003517 0.009214 -0.016015 
1006715811676578 0.003517 0.009214 -0.016015 
1006715830583348 0.003517 0.009214 -0.016015 
1006715849490171 0.003517 0.009214 -0.016015 
1006715868396994 0.003517 0.009214 -0.016015 
1006715887303765 0.003517 0.009214 -0.016015 
1006715906210588 0.003517 0.009214 -0.016015 
1006715925117359 0.003517 0.009214 -0.016015 
1006715944024182 0.003517 0.009214 -0.016015 
1006715962930953 0.003517 0.009214 -0.016015 
1006715981837776 0.003517 0.009214 -0.016015 
1006716000744546 0.003517 0.009214 -0.016015 
1006716019651369 0.003517 0.009214 -0.016015 
1006716038558140 0.003517 0.009214 -0.016015 
1006716057464963 0.003517 0.009214 -0.016015 
1006716076371786 0.003517 0.009214 -0.016015 
1006716095278557 0.003517 0.009214 -0.016015 
1006716114185380 0.003517 0.009214 -0.016015 
1006716133092151 0.003517 0.009214 -0.016015 
1006716151998973 0.003517 0.009214 -0.016015 
1006716170905744 0.003517 0.009214 -0.016015 
1006716189812567 0.003517 0.009214 -0.016015 
1006716208719390 0.003517 0.009214 -0.016015 
1006716227626161 0.003517 0.009214 -0.016015 
1006716246532984 0.003517 0.009214 -0.016015 
1006716265439755 0.003517 0.009214 -0.016015 
1006716284346578 0.003517 0.009214 -0.016015 
1006716303253401 0.003517 0.009214 -0.016015 
1006716322160171 0.003517 0.009214 -0.016015 
1006716341066994 0.003517 0.009214 -0.016015 
1006716359973765 0.003517 0.009214 -0.016015 
1006716378880588 0.003517 0.009214 -0.016015 
1006716397787411 0.003517 0.009214 -0.016015 
1006716416694182 0.003517 0.009214 -0.016015 
1006716435601005 0.003517 0.009214 -0.016015 
1006716454507828 0.003517 0.009214 -0.016015 
1006716473414598 0.003517 0.009214 -0.016015 
1006716492321421 0.003517 0.009214 -0.016015 
1006716511228192 0.003517 0.009214 -0.016015 
1006716530135015 0.003517 0.009214 -0.016015 
1006716549041838 0.003517 0.009214 -0.016015 
1006716567948609 0.003517 0.009214 -0.016015 
1006716586855432 0.003517 0.009214 -0.016015 
1006716605762255 0.003517 0.009214 -0.016015 
1006716624669026 0.003517 0.009214 -0.016015 
1006716643575848 0.003517 0.009214 -0.016015 
1006716662482671 0.003517 0.009214 -0.016015 
1006716681389442 0.003517 0.009214 -0.016015 
1006716700296265 0.003517 0.009214 -0.016015 
1006716719203088 0.003517 0.009214 -0.016015 
1006716738109859 0.003517 0.009214 -0.016015 
1006716757016682 0.003517 0.009214 -0.016015 
1006716775923505 0.003517 0.009214 -0.016015 
1006716794830276 0.003517 0.009214 -0.016015 
1006716813737098 0.003517 0.009214 -0.016015 
1006716832643921 0.003517 0.009214 -0.016015 
1006716851550692 0.003517 0.009214 -0.016015 
1006716870457515 0.003517 0.009214 -0.016015 
1006716889364286 0.003517 0.009214 -0.016015 
1006716908271109 0.003517 0.009214 -0.016015 
1006716927177932 0.003517 0.009214 -0.016015 
1006716946084755 0.003517 0.009214 -0.016015 
1006716964991526 0.003517 0.009214 -0.016015 
1006716983898348 0.003517 0.009214 -0.016015 
1006717002805171 0.003517 0.009214 -0.016015 
1006717021711942 0.003517 0.009214 -0.016015 
1006717040618765 0.003517 0.009214 -0.016015 
1006717059525588 0.003517 0.009214 -0.016015 
1006717078432359 0.003517 0.009214 -0.016015 
1006717097339182 0.003517 0.009214 -0.016015 
1006717116246005 0.003517 0.009214 -0.016015 
1006717135152828 0.003517 0.009214 -0.016015 
1006717154059598 0.003517 0.009214 -0.016015 
1006717172966421 0.003517 0.009214 -0.016015 
1006717191873244 0.003517 0.009214 -0.016015 
1006717210780015 0.003517 0.009214 -0.016015 
1006717229686838 0.003517 0.009214 -0.016015 
1006717248593661 0.003517 0.009214 -0.016015 
1006717267500432 0.003517 0.009214 -0.016015 
1006717286407255 0.003517 0.009214 -0.016015 
1006717305314078 0.003517 0.009214 -0.016015 
1006717324220901 0.003517 0.009214 -0.016015 
1006717343127671 0.003517 0.009214 -0.016015 
1006717362034494 0.003517 0.009214 -0.016015 
1006717380941317 0.003517 0.009214 -0.016015 
1006717399848140 0.003517 0.009214 -0.016015 
1006717418754911 0.003517 0.009214 -0.016015 
1006717437661734 0.003517 0.009214 -0.016015 
1006717456568557 0.003517 0.009214 -0.016015 
1006717475475328 0.003517 0.009214 -0.016015 
1006717494382151 0.003517 0.009214 -0.016015 
1006717513288973 0.003517 0.009214 -0.016015 
1006717532195796 0.003517 0.009214 -0.016015 
1006717551102567 0.003517 0.009214 -0.016015 
1006717570009390 0.003517 0.009214 -0.016015 
1006717588916213 0.003517 0.009214 -0.016015 
1006717607823036 0.003517 0.009214 -0.016015 
1006717626729859 0.003517 0.009214 -0.016015 
1006717645636630 0.003517 0.009214 -0.016015 
1006717664543453 0.003517 0.009214 -0.016015 
1006717683450276 0.003517 0.009214 -0.016015 
1006717702357098 0.003517 0.009214 -0.016015 
1006717721263921 0.003517 0.009214 -0.016015 
1006717740170692 0.003517 0.009214 -0.016015 
1006717759077515 0.003517 0.009214 -0.016015 
1006717777984338 0.003517 0.009214 -0.016015 
1006717796891161 0.003517 0.009214 -0.016015 
1006717815797984 0.003517 0.009214 -0.016015 
1006717834704755 0.003517 0.009214 -0.016015 
1006717853611578 0.003517 0.009214 -0.016015 
1006717872518401 0.003517 0.009214 -0.016015 
1006717891425223 0.003517 0.009214 -0.016015 
1006717910332046 0.003517 0.009214 -0.016015 
1006717929238869 0.003517 0.009214 -0.016015 
1006717948145640 0.003517 0.009214 -0.016015 
1006717967052463 0.003517 0.009214 -0.016015 
1006717985959286 0.003517 0.009214 -0.016015 
1006718004866109 0.003517 0.009214 -0.016015 
1006718023772932 0.003517 0.009214 -0.016015 
1006718042679755 0.003517 0.009214 -0.016015 
1006718061586526 0.003517 0.009214 -0.016015 
1006718080493348 0.003517 0.009214 -0.016015 
1006718099400171 0.003517 0.009214 -0.016015 
1006718118306994 0.003517 0.009214 -0.016015 
1006718137213817 0.003517 0.009214 -0.016015 
1006718156120640 0.003517 0.009214 -0.016015 
1006718175027411 0.003517 0.009214 -0.016015 
1006718193934234 0.003517 0.009214 -0.016015 
1006718212841057 0.003517 0.009214 -0.016015 
1006718231747880 0.003517 0.009214 -0.016015 
1006718250654703 0.003517 0.009214 -0.016015 
1006718269561526 0.003517 0.009214 -0.016015 
1006718288468348 0.003517 0.009214 -0.016015 
1006718307375171 0.003517 0.009214 -0.016015 
1006718326281994 0.003517 0.009214 -0.016015 
1006718345188765 0.003517 0.009214 -0.016015 
1006718364095588 0.003517 0.009214 -0.016015 
1006718383002411 0.003517 0.009214 -0.016015 
1006718401909234 0.003517 0.009214 -0.016015 
1006718420816057 0.003517 0.009214 -0.016015 
1006718439722880 0.003517 0.009214 -0.016015 
1006718458629703 0.003517 0.009214 -0.016015 
1006718477536526 0.003517 0.009214 -0.016015 
1006718496443348 0.003517 0.009214 -0.016015 
1006718515350171 0.003517 0.009214 -0.016015 
1006718534256942 0.003517 0.009214 -0.016015 
1006718553163765 0.003517 0.009214 -0.016015 
1006718572070588 0.003517 0.009214 -0.016015 
1006718590977411 0.003517 0.009214 -0.016015 
1006718609884234 0.003517 0.009214 -0.016015 
1006718628791057 0.003517 0.009214 -0.016015 
1006718647697880 0.003517 0.009214 -0.016015 
1006718666604703 0.003517 0.009214 -0.016015 
1006718685511526 0.003517 0.009214 -0.016015 
1006718704418348 0.003517 0.009214 -0.016015 
1006718723325171 0.003517 0.009214 -0.016015 
1006718742231994 0.003517 0.009214 -0.016015 
1006718761138817 0.003517 0.009214 -0.016015 
1006718780045640 0.003517 0.009214 -0.016015 
1006718798952411 0.003517 0.009214 -0.016015 
1006718817859234 0.003517 0.009214 -0.016015 
1006718836766057 0.003517 0.009214 -0.016015 
1006718855672880 0.003517 0.009214 -0.016015 
1006718874579703 0.003517 0.009214 -0.016015 
1006718893486526 0.003517 0.009214 -0.016015 
1006718912393348 0.003517 0.009214 -0.016015 
1006718931300171 0.003517 0.009214 -0.016015 
1006718950206994 0.003517 0.009214 -0.016015 
1006718969113817 0.003517 0.009214 -0.016015 
1006718988020640 0.003517 0.009214 -0.016015 
1006719006927463 0.003517 0.009214 -0.016015 
1006719025834286 0.003517 0.009214 -0.016015 
1006719044741109 0.003517 0.009214 -0.016015 
1006719063647932 0.003517 0.009214 -0.016015 
1006719082554755 0.003517 0.009214 -0.016015 
1006719101461578 0.003517 0.009214 -0.016015 
1006719120368401 0.003517 0.009214 -0.016015 
1006719139275223 0.003517 0.009214 -0.016015 
1006719158182046 0.003517 0.009214 -0.016015 
1006719177088869 0.003517 0.009214 -0.016015 
1006719195995692 0.003517 0.009214 -0.016015 
1006719214902515 0.003517 0.009214 -0.016015 
1006719233809338 0.003517 0.009214 -0.016015 
1006719252716161 0.003517 0.009214 -0.016015 
1006719271622984 0.003517 0.009214 -0.016015 
1006719290529807 0.003517 0.009214 -0.016015 
1006719309436630 0.003517 0.009214 -0.016015 
1006719328343453 0.003517 0.009214 -0.016015 
1006719347250276 0.003517 0.009214 -0.016015 
1006719366157098 0.003517 0.009214 -0.016015 
1006719385063921 0.003517 0.009214 -0.016015 
1006719403970744 0.003517 0.009214 -0.016015 
1006719422877567 0.003517 0.009214 -0.016015 
1006719441784390 0.003517 0.009214 -0.016015 
1006719460691213 0.003517 0.009214 -0.016015 
1006719479598036 0.003517 0.009214 -0.016015 
1006719498504859 0.003517 0.009214 -0.016015 
1006719517411682 0.003517 0.009214 -0.016015 
1006719536318505 0.003517 0.009214 -0.016015 
1006719555225328 0.003517 0.009214 -0.016015 
1006719574132151 0.003517 0.009214 -0.016015 
1006719593038973 0.003517 0.009214 -0.016015 
1006719611945796 0.003517 0.009214 -0.016015 
1006719630852619 0.003517 0.009214 -0.016015 
1006719649759442 0.003517 0.009214 -0.016015 
1006719668666265 0.003517 0.009214 -0.016015 
1006719687573140 0.003517 0.009214 -0.016015 
1006719706479963 0.003517 0.009214 -0.016015 
1006719725386786 0.003517 0.009214 -0.016015 
1006719744293609 0.003517 0.009214 -0.016015 
1006719763200432 0.003517 0.009214 -0.016015 
1006719782107255 0.003517 0.009214 -0.016015 
1006719801014078 0.003517 0.009214 -0.016015 
1006719819920901 0.003517 0.009214 -0.016015 
1006719838827723 0.003517 0.009214 -0.016015 
1006719857734546 0.003517 0.009214 -0.016015 
1006719876641369 0.003517 0.009214 -0.016015 
1006719895548192 0.003517 0.009214 -0.016015 
1006719914455015 0.003517 0.009214 -0.016015 
1006719933361890 0.003517 0.009214 -0.016015 
1006719952268713 0.003517 0.009214 -0.016015 
1006719971175536 0.003517 0.009214 -0.016015 
1006719990082359 0.003517 0.009214 -0.016015 
1006720008989182 0.003517 0.009214 -0.016015 
1006720027896005 0.003517 0.009214 -0.016015 
1006720046802828 0.003517 0.009214 -0.016015 
1006720065709651 0.003517 0.009214 -0.016015 
1006720084616473 0.003517 0.009214 -0.016015 
1006720103523296 0.003517 0.009214 -0.016015 
1006720122430171 0.003517 0.009214 -0.016015 
1006720141336994 0.003517 0.009214 -0.016015 
1006720160243817 0.003517 0.009214 -0.016015 
1006720179150640 0.003517 0.009214 -0.016015 
1006720198057463 0.003517 0.009214 -0.016015 
1006720216964286 0.003517 0.009214 -0.016015 
1006720235871109 0.003517 0.009214 -0.016015 
1006720254777984 0.003517 0.009214 -0.016015 
1006720273684807 0.003517 0.009214 -0.016015 
1006720292591630 0.003517 0.009214 -0.016015 
1006720311498453 0.003517 0.009214 -0.016015 
1006720330405276 0.003517 0.009214 -0.016015 
1006720349312098 0.003517 0.009214 -0.016015 
1006720368218921 0.003517 0.009214 -0.016015 
1006720387125796 0.003517 0.009214 -0.016015 
1006720406032619 0.003517 0.009214 -0.016015 
1006720424939442 0.003517 0.009214 -0.016015 
1006720443846265 0.003517 0.009214 -0.016015 
1006720462753088 0.003517 0.009214 -0.016015 
1006720481659911 0.003517 0.009214 -0.016015 
1006720500566786 0.003517 0.009214 -0.016015 
1006720519473609 0.003517 0.009214 -0.016015 
1006720538380432 0.003517 0.009214 -0.016015 
1006720557287255 0.003517 0.009214 -0.016015 
1006720576194078 0.003517 0.009214 -0.016015 
1006720595100901 0.003517 0.009214 -0.016015 
1006720614007776 0.003517 0.009214 -0.016015 
1006720632914598 0.003517 0.009214 -0.016015 
1006720651821421 0.003517 0.009214 -0.016015 
1006720670728244 0.003517 0.009214 -0.016015 
1006720689635067 0.003517 0.009214 -0.016015 
1006720708541942 0.003517 0.009214 -0.016015 
1006720727448765 0.003517 0.009214 -0.016015 
1006720746355588 0.003517 0.009214 -0.016015 
1006720765262411 0.003517 0.009214 -0.016015 
1006720784169286 0.003517 0.009214 -0.016015 
1006720803076109 0.003517 0.009214 -0.016015 
1006720821982932 0.003517 0.009214 -0.016015 
1006720840889755 0.003517 0.009214 -0.016015 
1006720859796578 0.003517 0.009214 -0.016015 
1006720878703453 0.003517 0.009214 -0.016015 
1006720897610276 0.003517 0.009214 -0.016015 
1006720916517098 0.003517 0.009214 -0.016015 
1006720935423921 0.003517 0.009214 -0.016015 
1006720954330796 0.003517 0.009214 -0.016015 
1006720973237619 0.003517 0.009214 -0.016015 
1006720992144442 0.003517 0.009214 -0.016015 
1006721011051265 0.003517 0.009214 -0.016015 
1006721029958140 0.003517 0.009214 -0.016015 
1006721048864963 0.003517 0.009214 -0.016015 
1006721067771786 0.003517 0.009214 -0.016015 
1006721086678609 0.003517 0.009214 -0.016015 
1006721105585484 0.003517 0.009214 -0.016015 
1006721124492307 0.003517 0.009214 -0.016015 
1006721143399130 0.003517 0.009214 -0.016015 
1006721162305953 0.003517 0.009214 -0.016015 
1006721181212828 0.003517 0.009214 -0.016015 
1006721200119651 0.003517 0.009214 -0.016015 
1006721219026473 0.003517 0.009214 -0.016015 
1006721237933348 0.003517 0.009214 -0.016015 
1006721256840171 0.003517 0.009214 -0.016015 
1006721275746994 0.003517 0.009214 -0.016015 
1006721294653817 0.003517 0.009214 -0.016015 
1006721313560692 0.003517 0.009214 -0.016015 
1006721332467515 0.003517 0.009214 -0.016015 
1006721351374338 0.003517 0.009214 -0.016015 
1006721370281213 0.003517 0.009214 -0.016015 
1006721389188036 0.003517 0.009214 -0.016015 
1006721408094859 0.003517 0.009214 -0.016015 
1006721427001734 0.003517 0.009214 -0.016015 
1006721445908557 0.003517 0.009214 -0.016015 
1006721464815380 0.003517 0.009214 -0.016015 
1006721483722255 0.003517 0.009214 -0.016015 
1006721502629078 0.003517 0.009214 -0.016015 
1006721521535901 0.003517 0.009214 -0.016015 
1006721540442776 0.003517 0.009214 -0.016015 
1006721559349598 0.003517 0.009214 -0.016015 
1006721578256421 0.003517 0.009214 -0.016015 
1006721597163296 0.003517 0.009214 -0.016015 
1006721616070119 0.003517 0.009214 -0.016015 
1006721634976942 0.003517 0.009214 -0.016015 
1006721653883817 0.003517 0.009214 -0.016015 
1006721672790640 0.003517 0.009214 -0.016015 
1006721691697463 0.003517 0.009214 -0.016015 
1006721710604338 0.003517 0.009214 -0.016015 
1006721729511161 0.003517 0.009214 -0.016015 
1006721748417984 0.003517 0.009214 -0.016015 
1006721767324859 0.003517 0.009214 -0.016015 
1006721786231682 0.003517 0.009214 -0.016015 
1006721805138557 0.003517 0.009214 -0.016015 
1006721824045380 0.003517 0.009214 -0.016015 
1006721842952203 0.003517 0.009214 -0.016015 
1006721861859078 0.003517 0.009214 -0.016015 
1006721880765901 0.003517 0.009214 -0.016015 
1006721899672776 0.003517 0.009214 -0.016015 
1006721918579598 0.003517 0.009214 -0.016015 
1006721937486421 0.003517 0.009214 -0.016015 
1006721956393296 0.003517 0.009214 -0.016015 
1006721975300119 0.003517 0.009214 -0.016015 
1006721994206942 0.003517 0.009214 -0.016015 
1006722013113817 0.003517 0.009214 -0.016015 
1006722032020640 0.003517 0.009214 -0.016015 
1006722050927515 0.003517 0.009214 -0.016015 
1006722069834338 0.003517 0.009214 -0.016015 
1006722088741213 0.003517 0.009214 -0.016015 
1006722107648036 0.003517 0.009214 -0.016015 
1006722126554859 0.003517 0.009214 -0.016015 
1006722145461734 0.003517 0.009214 -0.016015 
1006722164368557 0.003517 0.009214 -0.016015 
1006722183275380 0.003517 0.009214 -0.016015 
1006722202182255 0.003517 0.009214 -0.016015 
1006722221089078 0.003517 0.009214 -0.016015 
1006722239995953 0.003517 0.009214 -0.016015 
1006722258902776 0.003517 0.009214 -0.016015 
1006722277809651 0.003517 0.009214 -0.016015 
1006722296716473 0.003517 0.009214 -0.016015 
1006722315623348 0.003517 0.009214 -0.016015 
1006722334530171 0.003517 0.009214 -0.016015 
1006722353436994 0.003517 0.009214 -0.016015 
1006722372343869 0.003517 0.009214 -0.016015 
1006722391250692 0.003517 0.009214 -0.016015 
1006722410157567 0.003517 0.009214 -0.016015 
1006722429064390 0.003517 0.009214 -0.016015 
1006722447971265 0.003517 0.009214 -0.016015 
1006722466878088 0.003517 0.009214 -0.016015 
1006722485784911 0.003517 0.009214 -0.016015 
1006722504691786 0.003517 0.009214 -0.016015 
1006722523598609 0.003517 0.009214 -0.016015 
1006722542505484 0.003517 0.009214 -0.016015 
1006722561412307 0.003517 0.009214 -0.016015 
1006722580319182 0.003517 0.009214 -0.016015 
1006722599226005 0.003517 0.009214 -0.016015 
1006722618132880 0.003517 0.009214 -0.016015 
1006722637039703 0.003517 0.009214 -0.016015 
1006722655946578 0.003517 0.009214 -0.016015 
1006722674853401 0.003517 0.009214 -0.016015 
1006722693760223 0.003517 0.009214 -0.016015 
1006722712667098 0.003517 0.009214 -0.016015 
1006722731573973 0.003517 0.009214 -0.016015 
1006722750480796 0.003517 0.009214 -0.016015 
1006722769387619 0.003517 0.009214 -0.016015 
1006722788294494 0.003517 0.009214 -0.016015 
1006722807201317 0.003517 0.009214 -0.016015 
1006722826108192 0.003517 0.009214 -0.016015 
1006722845015015 0.003517 0.009214 -0.016015 
1006722863921890 0.003517 0.009214 -0.016015 
1006722882828713 0.003517 0.009214 -0.016015 
1006722901735588 0.003517 0.009214 -0.016015 
1006722920642411 0.003517 0.009214 -0.016015 
1006722939549286 0.003517 0.009214 -0.016015 
1006722958456109 0.003517 0.009214 -0.016015 
1006722977362984 0.003517 0.009214 -0.016015 
1006722996269807 0.003517 0.009214 -0.016015 
1006723015176682 0.003517 0.009214 -0.016015 
1006723034083505 0.003517 0.009214 -0.016015 
1006723052990380 0.003517 0.009214 -0.016015 
1006723071897203 0.003517 0.009214 -0.016015 
1006723090804078 0.003517 0.009214 -0.016015 
1006723109710901 0.003517 0.009214 -0.016015 
1006723128617776 0.003517 0.009214 -0.016015 
1006723147524598 0.003517 0.009214 -0.016015 
1006723166431473 0.003517 0.009214 -0.016015 
1006723185338296 0.003517 0.009214 -0.016015 
1006723204245171 0.003517 0.009214 -0.016015 
1006723223152046 0.003517 0.009214 -0.016015 
1006723242058869 0.003517 0.009214 -0.016015 
1006723260965692 0.003517 0.009214 -0.016015 
1006723279872567 0.003517 0.009214 -0.016015 
1006723298779442 0.003517 0.009214 -0.016015 
1006723317686265 0.003517 0.009214 -0.016015 
1006723336593140 0.003517 0.009214 -0.016015 
1006723355499963 0.003517 0.009214 -0.016015 
1006723374406838 0.003517 0.009214 -0.016015 
1006723393313661 0.003517 0.009214 -0.016015 
1006723412220536 0.003517 0.009214 -0.016015 
1006723431127359 0.003517 0.009214 -0.016015 
1006723450034234 0.003517 0.009214 -0.016015 
1006723468941057 0.003517 0.009214 -0.016015 
1006723487847932 0.003517 0.009214 -0.016015 
1006723506754807 0.003517 0.009214 -0.016015 
1006723525661630 0.003517 0.009214 -0.016015 
1006723544568505 0.003517 0.009214 -0.016015 
1006723563475328 0.003517 0.009214 -0.016015 
1006723582382203 0.003517 0.009214 -0.016015 
1006723601289026 0.003517 0.009214 -0.016015 
1006723620195901 0.003517 0.009214 -0.016015 
1006723639102723 0.003517 0.009214 -0.016015 
1006723658009598 0.003517 0.009214 -0.016015 
1006723676916473 0.003517 0.009214 -0.016015 
1006723695823296 0.003517 0.009214 -0.016015 
1006723714730171 0.003517 0.009214 -0.016015 
1006723733636994 0.003517 0.009214 -0.016015 
1006723752543869 0.003517 0.009214 -0.016015 
1006723771450744 0.003517 0.009214 -0.016015 
1006723790357567 0.003517 0.009214 -0.016015 
1006723809264442 0.003517 0.009214 -0.016015 
1006723828171265 0.003517 0.009214 -0.016015 
1006723847078140 0.003517 0.009214 -0.016015 
1006723865984963 0.003517 0.009214 -0.016015 
1006723884891838 0.003517 0.009214 -0.016015 
1006723903798661 0.003517 0.009214 -0.016015 
1006723922705536 0.003517 0.009214 -0.016015 
1006723941612411 0.003517 0.009214 -0.016015 
1006723960519234 0.003517 0.009214 -0.016015 
1006723979426109 0.003517 0.009214 -0.016015 
1006723998332932 0.003517 0.009214 -0.016015 
1006724017239807 0.003517 0.009214 -0.016015 
1006724036146682 0.003517 0.009214 -0.016015 
1006724055053505 0.003517 0.009214 -0.016015 
1006724073960380 0.003517 0.009214 -0.016015 
1006724092867203 0.003517 0.009214 -0.016015 
1006724111774078 0.003517 0.009214 -0.016015 
1006724130680953 0.003517 0.009214 -0.016015 
1006724149587776 0.003517 0.009214 -0.016015 
1006724168494651 0.003517 0.009214 -0.016015 
1006724187401473 0.003517 0.009214 -0.016015 
1006724206308348 0.003517 0.009214 -0.016015 
1006724225215223 0.003517 0.009214 -0.016015 
1006724244122046 0.003517 0.009214 -0.016015 
1006724263028921 0.003517 0.009214 -0.016015 
1006724281935744 0.003517 0.009214 -0.016015 
1006724300842619 0.003517 0.009214 -0.016015 
1006724319749494 0.003517 0.009214 -0.016015 
1006724338656317 0.003517 0.009214 -0.016015 
1006724357563192 0.003517 0.009214 -0.016015 
1006724376470015 0.003517 0.009214 -0.016015 
1006724395376890 0.003517 0.009214 -0.016015 
1006724414283765 0.003517 0.009214 -0.016015 
1006724433190588 0.003517 0.009214 -0.016015 
1006724452097463 0.003517 0.009214 -0.016015 
1006724471004338 0.003517 0.009214 -0.016015 
1006724489911161 0.003517 0.009214 -0.016015 
1006724508818036 0.003517 0.009214 -0.016015 
1006724527724859 0.003517 0.009214 -0.016015 
1006724546631734 0.003517 0.009214 -0.016015 
1006724565538609 0.003517 0.009214 -0.016015 
1006724584445432 0.003517 0.009214 -0.016015 
1006724603352307 0.003517 0.009214 -0.016015 
1006724622259182 0.003517 0.009214 -0.016015 
1006724641166005 0.003517 0.009214 -0.016015 
1006724660072880 0.003517 0.009214 -0.016015 
1006724678979755 0.003517 0.009214 -0.016015 
1006724697886578 0.003517 0.009214 -0.016015 
1006724716793453 0.003517 0.009214 -0.016015 
1006724735700328 0.003517 0.009214 -0.016015 
1006724754607151 0.003517 0.009214 -0.016015 
1006724773514026 0.003517 0.009214 -0.016015 
1006724792420901 0.003517 0.009214 -0.016015 
1006724811327723 0.003517 0.009214 -0.016015 
1006724830234598 0.003517 0.009214 -0.016015 
1006724849141473 0.003517 0.009214 -0.016015 
1006724868048296 0.003517 0.009214 -0.016015 
1006724886955171 0.003517 0.009214 -0.016015 
1006724905862046 0.003517 0.009214 -0.016015 
1006724924768869 0.003517 0.009214 -0.016015 
1006724943675744 0.003517 0.009214 -0.016015 
1006724962582619 0.003517 0.009214 -0.016015 
1006724981489494 0.003517 0.009214 -0.016015 
1006725000396317 0.003517 0.009214 -0.016015 
1006725019303192 0.003517 0.009214 -0.016015 
1006725038210067 0.003517 0.009214 -0.016015 
1006725057116942 0.003517 0.009214 -0.016015 
1006725076023765 0.003517 0.009214 -0.016015 
1006725094930640 0.003517 0.009214 -0.016015 
1006725113837515 0.003517 0.009214 -0.016015 
1006725132744390 0.003517 0.009214 -0.016015 
1006725151651213 0.003517 0.009214 -0.016015 
1006725170558088 0.003517 0.009214 -0.016015 
1006725189464963 0.003517 0.009214 -0.016015 
1006725208371838 0.003517 0.009214 -0.016015 
1006725227278661 0.003517 0.009214 -0.016015 
1006725246185536 0.003517 0.009214 -0.016015 
1006725265092411 0.003517 0.009214 -0.016015 
1006725283999286 0.003517 0.009214 -0.016015 
1006725302906161 0.003517 0.009214 -0.016015 
1006725321812984 0.003517 0.009214 -0.016015 
1006725340719859 0.003517 0.009214 -0.016015 
1006725359626734 0.003517 0.009214 -0.016015 
1006725378533609 0.003517 0.009214 -0.016015 
1006725397440484 0.003517 0.009214 -0.016015 
1006725416347307 0.003517 0.009214 -0.016015 
1006725435254182 0.003517 0.009214 -0.016015 
1006725454161057 0.003517 0.009214 -0.016015 
1006725473067932 0.003517 0.009214 -0.016015 
1006725491974807 0.003517 0.009214 -0.016015 
1006725510881630 0.003517 0.009214 -0.016015 
1006725529788505 0.003517 0.009214 -0.016015 
1006725548695380 0.003517 0.009214 -0.016015 
1006725567602255 0.003517 0.009214 -0.016015 
1006725586509130 0.003517 0.009214 -0.016015 
1006725605416005 0.003517 0.009214 -0.016015 
1006725624322880 0.003517 0.009214 -0.016015 
1006725643229703 0.003517 0.009214 -0.016015 
1006725662136578 0.003517 0.009214 -0.016015 
1006725681043453 0.003517 0.009214 -0.016015 
1006725699950328 0.003517 0.009214 -0.016015 
1006725718857203 0.003517 0.009214 -0.016015 
1006725737764078 0.003517 0.009214 -0.016015 
1006725756670953 0.003517 0.009214 -0.016015 
1006725775577776 0.003517 0.009214 -0.016015 
1006725794484651 0.003517 0.009214 -0.016015 
1006725813391526 0.003517 0.009214 -0.016015 
1006725832298401 0.003517 0.009214 -0.016015 
1006725851205276 0.003517 0.009214 -0.016015 
1006725870112151 0.003517 0.009214 -0.016015 
1006725889019026 0.003517 0.009214 -0.016015 
1006725907925901 0.003517 0.009214 -0.016015 
1006725926832776 0.003517 0.009214 -0.016015 
1006725945739598 0.003517 0.009214 -0.016015 
1006725964646473 0.003517 0.009214 -0.016015 
1006725983553348 0.003517 0.009214 -0.016015 
1006726002460223 0.003517 0.009214 -0.016015 
1006726021367098 0.003517 0.009214 -0.016015 
1006726040273973 0.003517 0.009214 -0.016015 
1006726059180848 0.003517 0.009214 -0.016015 
1006726078087723 0.003517 0.009214 -0.016015 
1006726096994598 0.003517 0.009214 -0.016015 
1006726115901473 0.003517 0.009214 -0.016015 
1006726134808296 0.003517 0.009214 -0.016015 
1006726153715171 0.003517 0.009214 -0.016015 
1006726172622046 0.003517 0.009214 -0.016015 
1006726191528921 0.003517 0.009214 -0.016015 
1006726210435796 0.003517 0.009214 -0.016015 
1006726229342671 0.003517 0.009214 -0.016015 
1006726248249546 0.003517 0.009214 -0.016015 
1006726267156421 0.003517 0.009214 -0.016015 
1006726286063296 0.003517 0.009214 -0.016015 
1006726304970171 0.003517 0.009214 -0.016015 
1006726323877046 0.003517 0.009214 -0.016015 
1006726342783921 0.003517 0.009214 -0.016015 
1006726361690796 0.003517 0.009214 -0.016015 
1006726380597671 0.003517 0.009214 -0.016015 
1006726399504546 0.003517 0.009214 -0.016015 
1006726418411421 0.003517 0.009214 -0.016015 
1006726437318296 0.003517 0.009214 -0.016015 
1006726456225119 0.003517 0.009214 -0.016015 
1006726475131994 0.003517 0.009214 -0.016015 
1006726494038869 0.003517 0.009214 -0.016015 
1006726512945796 0.003517 0.009214 -0.016015 
1006726531852619 0.003517 0.009214 -0.016015 
1006726550759494 0.003517 0.009214 -0.016015 
1006726569666369 0.003517 0.009214 -0.016015 
1006726588573244 0.003517 0.009214 -0.016015 
1006726607480119 0.003517 0.009214 -0.016015 
1006726626386994 0.003517 0.009214 -0.016015 
1006726645293869 0.003517 0.009214 -0.016015 
1006726664200744 0.003517 0.009214 -0.016015 
1006726683107619 0.003517 0.009214 -0.016015 
1006726702014494 0.003517 0.009214 -0.016015 
1006726720921369 0.003517 0.009214 -0.016015 
1006726739828244 0.003517 0.009214 -0.016015 
1006726758735119 0.003517 0.009214 -0.016015 
1006726777641994 0.003517 0.009214 -0.016015 
1006726796548869 0.003517 0.009214 -0.016015 
1006726815455744 0.003517 0.009214 -0.016015 
1006726834362619 0.003517 0.009214 -0.016015 
1006726853269494 0.003517 0.009214 -0.016015 
1006726872176369 0.003517 0.009214 -0.016015 
1006726891083244 0.003517 0.009214 -0.016015 
1006726909990119 0.003517 0.009214 -0.016015 
1006726928896994 0.003517 0.009214 -0.016015 
1006726947803869 0.003517 0.009214 -0.016015 
1006726966710744 0.003517 0.009214 -0.016015 
1006726985617619 0.003517 0.009214 -0.016015 
1006727004524494 0.003517 0.009214 -0.016015 
1006727023431369 0.003517 0.009214 -0.016015 
1006727042338244 0.003517 0.009214 -0.016015 
1006727061245119 0.003517 0.009214 -0.016015 
1006727080151994 0.003517 0.009214 -0.016015 
1006727099058869 0.003517 0.009214 -0.016015 
1006727117965744 0.003517 0.009214 -0.016015 
1006727136872619 0.003517 0.009214 -0.016015 
1006727155779494 0.003517 0.009214 -0.016015 
1006727174686369 0.003517 0.009214 -0.016015 
1006727193593244 0.003517 0.009214 -0.016015 
1006727212500119 0.003517 0.009214 -0.016015 
1006727231406994 0.003517 0.009214 -0.016015 
1006727250313869 0.003517 0.009214 -0.016015 
1006727269220744 0.003517 0.009214 -0.016015 
1006727288127619 0.003517 0.009214 -0.016015 
1006727307034494 0.003517 0.009214 -0.016015 
