# Created at Wed Jun 05 17:07:29 GMT+03:00 2024 in Burnaby Canada 
943801560132815 0.004122 0.009518 -0.013466 
943801579041877 0.004122 0.009518 -0.013466 
943801597950992 0.004122 0.009518 -0.013466 
943801616860054 0.004122 0.009518 -0.013466 
943801635769117 0.004122 0.009518 -0.013466 
943801654678179 0.004122 0.009518 -0.013466 
943801673587294 0.004122 0.009518 -0.013466 
943801692496356 0.004122 0.009518 -0.013466 
943801711405419 0.004122 0.009518 -0.013466 
943801730314533 0.004122 0.009518 -0.013466 
943801749223596 0.004122 0.009518 -0.013466 
943801768132658 0.004122 0.009518 -0.013466 
943801787041773 0.004122 0.009518 -0.013466 
943801805950835 0.004122 0.009518 -0.013466 
943801824859950 0.004122 0.009518 -0.013466 
943801843769013 0.004122 0.009518 -0.013466 
943801862678075 0.004122 0.009518 -0.013466 
943801881587190 0.004122 0.009518 -0.013466 
943801900496304 0.004122 0.009518 -0.013466 
943801919405367 0.004122 0.009518 -0.013466 
943801938314429 0.004122 0.009518 -0.013466 
943801957223544 0.004122 0.009518 -0.013466 
943801976132606 0.004122 0.009518 -0.013466 
943801995041721 0.004122 0.009518 -0.013466 
943802013950835 0.004122 0.009518 -0.013466 
943802032859898 0.004122 0.009518 -0.013466 
943802051769013 0.004122 0.009518 -0.013466 
943802070678075 0.004122 0.009518 -0.013466 
943802089587190 0.004122 0.009518 -0.013466 
943802108496304 0.004122 0.009518 -0.013466 
943802127405367 0.004122 0.009518 -0.013466 
943802146314481 0.004122 0.009518 -0.013466 
943802165223596 0.004122 0.009518 -0.013466 
943802184132658 0.004122 0.009518 -0.013466 
943802203041773 0.004122 0.009518 -0.013466 
943802221950888 0.004122 0.009518 -0.013466 
943802240860002 0.004122 0.009518 -0.013466 
943802259769065 0.004122 0.009518 -0.013466 
943802278678179 0.004122 0.009518 -0.013466 
943802297587294 0.004122 0.009518 -0.013466 
943802316496408 0.004122 0.009518 -0.013466 
943802335405523 0.004122 0.009518 -0.013466 
943802354314585 0.004122 0.009518 -0.013466 
943802373223700 0.004122 0.009518 -0.013466 
943802392132815 0.004122 0.009518 -0.013466 
943802411041929 0.004122 0.009518 -0.013466 
943802429951044 0.004122 0.009518 -0.013466 
943802448860158 0.004122 0.009518 -0.013466 
943802467769273 0.004122 0.009518 -0.013466 
943802486678388 0.004122 0.009518 -0.013466 
943802505587502 0.004122 0.009518 -0.013466 
943802524496617 0.004122 0.009518 -0.013466 
943802543405731 0.004122 0.009518 -0.013466 
943802562314846 0.004122 0.009518 -0.013466 
943802581223960 0.004122 0.009518 -0.013466 
943802600133075 0.004122 0.009518 -0.013466 
943802619042190 0.004122 0.009518 -0.013466 
943802637951304 0.004122 0.009518 -0.013466 
943802656860419 0.004122 0.009518 -0.013466 
943802675769533 0.004122 0.009518 -0.013466 
943802694678648 0.004122 0.009518 -0.013466 
943802713587763 0.004122 0.009518 -0.013466 
943802732496929 0.004122 0.009518 -0.013466 
943802751406044 0.004122 0.009518 -0.013466 
943802770315158 0.004122 0.009518 -0.013466 
943802789224273 0.004122 0.009518 -0.013466 
943802808133388 0.004122 0.009518 -0.013466 
943802827042554 0.004122 0.009518 -0.013466 
943802845951669 0.004122 0.009518 -0.013466 
943802864860783 0.004122 0.009518 -0.013466 
943802883769898 0.004122 0.009518 -0.013466 
943802902679065 0.004122 0.009518 -0.013466 
943802921588179 0.004122 0.009518 -0.013466 
943802940497294 0.004122 0.009518 -0.013466 
943802959406408 0.004122 0.009518 -0.013466 
943802978315575 0.004122 0.009518 -0.013466 
943802997224690 0.004122 0.009518 -0.013466 
943803016133856 0.004122 0.009518 -0.013466 
943803035042971 0.004122 0.009518 -0.013466 
943803053952085 0.004122 0.009518 -0.013466 
943803072861252 0.004122 0.009518 -0.013466 
943803091770367 0.004122 0.009518 -0.013466 
943803110679481 0.004122 0.009518 -0.013466 
943803129588648 0.004122 0.009518 -0.013466 
943803148497763 0.004122 0.009518 -0.013466 
943803167406929 0.004122 0.009518 -0.013466 
943803186316044 0.004122 0.009518 -0.013466 
943803205225210 0.004122 0.009518 -0.013466 
943803224134325 0.004122 0.009518 -0.013466 
943803243043492 0.004122 0.009518 -0.013466 
943803261952606 0.004122 0.009518 -0.013466 
943803280861773 0.004122 0.009518 -0.013466 
943803299770888 0.004122 0.009518 -0.013466 
943803318680054 0.004122 0.009518 -0.013466 
943803337589169 0.004122 0.009518 -0.013466 
943803356498335 0.004122 0.009518 -0.013466 
943803375407502 0.004122 0.009518 -0.013466 
943803394316617 0.004122 0.009518 -0.013466 
943803413225783 0.004122 0.009518 -0.013466 
943803432134898 0.004122 0.009518 -0.013466 
943803451044065 0.004122 0.009518 -0.013466 
943803469953231 0.004122 0.009518 -0.013466 
943803488862346 0.004122 0.009518 -0.013466 
943803507771513 0.004122 0.009518 -0.013466 
943803526680679 0.004122 0.009518 -0.013466 
943803545589846 0.004122 0.009518 -0.013466 
943803564498960 0.004122 0.009518 -0.013466 
943803583408127 0.004122 0.009518 -0.013466 
943803602317294 0.004122 0.009518 -0.013466 
943803621226460 0.004122 0.009518 -0.013466 
943803640135575 0.004122 0.009518 -0.013466 
943803659044742 0.004122 0.009518 -0.013466 
943803677953908 0.004122 0.009518 -0.013466 
943803696863075 0.004122 0.009518 -0.013466 
943803715772190 0.004122 0.009518 -0.013466 
943803734681356 0.004122 0.009518 -0.013466 
943803753590523 0.004122 0.009518 -0.013466 
943803772499690 0.004122 0.009518 -0.013466 
943803791408856 0.004122 0.009518 -0.013466 
943803810318023 0.004122 0.009518 -0.013466 
943803829227190 0.004122 0.009518 -0.013466 
943803848136304 0.004122 0.009518 -0.013466 
943803867045471 0.004122 0.009518 -0.013466 
943803885954638 0.004122 0.009518 -0.013466 
943803904863804 0.004122 0.009518 -0.013466 
943803923772971 0.004122 0.009518 -0.013466 
943803942682138 0.004122 0.009518 -0.013466 
943803961591304 0.004122 0.009518 -0.013466 
943803980500471 0.004122 0.009518 -0.013466 
943803999409638 0.004122 0.009518 -0.013466 
943804018318804 0.004122 0.009518 -0.013466 
943804037227971 0.004122 0.009518 -0.013466 
943804056137138 0.004122 0.009518 -0.013466 
943804075046304 0.004122 0.009518 -0.013466 
943804093955471 0.004122 0.009518 -0.013466 
943804112864638 0.004122 0.009518 -0.013466 
943804131773804 0.004122 0.009518 -0.013466 
943804150683023 0.004122 0.009518 -0.013466 
943804169592190 0.004122 0.009518 -0.013466 
943804188501356 0.004122 0.009518 -0.013466 
943804207410523 0.004122 0.009518 -0.013466 
943804226319690 0.004122 0.009518 -0.013466 
943804245228856 0.004122 0.009518 -0.013466 
943804264138075 0.004122 0.009518 -0.013466 
943804283047242 0.004122 0.009518 -0.013466 
943804301956408 0.004122 0.009518 -0.013466 
943804320865575 0.004122 0.009518 -0.013466 
943804339774742 0.004122 0.009518 -0.013466 
943804358683960 0.004122 0.009518 -0.013466 
943804377593127 0.004122 0.009518 -0.013466 
943804396502294 0.004122 0.009518 -0.013466 
943804415411460 0.004122 0.009518 -0.013466 
943804434320679 0.004122 0.009518 -0.013466 
943804453229846 0.004122 0.009518 -0.013466 
943804472139065 0.004122 0.009518 -0.013466 
943804491048231 0.004122 0.009518 -0.013466 
943804509957398 0.004122 0.009518 -0.013466 
943804528866617 0.004122 0.009518 -0.013466 
943804547775783 0.004122 0.009518 -0.013466 
943804566684950 0.004122 0.009518 -0.013466 
943804585594169 0.004122 0.009518 -0.013466 
943804604503335 0.004122 0.009518 -0.013466 
943804623412554 0.004122 0.009518 -0.013466 
943804642321721 0.004122 0.009518 -0.013466 
943804661230940 0.004122 0.009518 -0.013466 
943804680140106 0.004122 0.009518 -0.013466 
943804699049325 0.004122 0.009518 -0.013466 
943804717958492 0.004122 0.009518 -0.013466 
943804736867710 0.004122 0.009518 -0.013466 
943804755776877 0.004122 0.009518 -0.013466 
943804774686096 0.004122 0.009518 -0.013466 
943804793595263 0.004122 0.009518 -0.013466 
943804812504481 0.004122 0.009518 -0.013466 
943804831413648 0.004122 0.009518 -0.013466 
943804850322867 0.004122 0.009518 -0.013466 
943804869232085 0.004122 0.009518 -0.013466 
943804888141252 0.004122 0.009518 -0.013466 
943804907050471 0.004122 0.009518 -0.013466 
943804925959690 0.004122 0.009518 -0.013466 
943804944868856 0.004122 0.009518 -0.013466 
943804963778075 0.004122 0.009518 -0.013466 
943804982687294 0.004122 0.009518 -0.013466 
943805001596460 0.004122 0.009518 -0.013466 
943805020505679 0.004122 0.009518 -0.013466 
943805039414898 0.004122 0.009518 -0.013466 
943805058324065 0.004122 0.009518 -0.013466 
943805077233283 0.004122 0.009518 -0.013466 
943805096142502 0.004122 0.009518 -0.013466 
943805115051721 0.004122 0.009518 -0.013466 
943805133960940 0.004122 0.009518 -0.013466 
943805152870106 0.004122 0.009518 -0.013466 
943805171779325 0.004122 0.009518 -0.013466 
943805190688544 0.004122 0.009518 -0.013466 
943805209597763 0.004122 0.009518 -0.013466 
943805228506981 0.004122 0.009518 -0.013466 
943805247416148 0.004122 0.009518 -0.013466 
943805266325367 0.004122 0.009518 -0.013466 
943805285234585 0.004122 0.009518 -0.013466 
943805304143804 0.004122 0.009518 -0.013466 
943805323053023 0.004122 0.009518 -0.013466 
943805341962242 0.004122 0.009518 -0.013466 
943805360871460 0.004122 0.009518 -0.013466 
943805379780679 0.004122 0.009518 -0.013466 
943805398689898 0.004122 0.009518 -0.013466 
943805417599117 0.004122 0.009518 -0.013466 
943805436508335 0.004122 0.009518 -0.013466 
943805455417554 0.004122 0.009518 -0.013466 
943805474326773 0.004122 0.009518 -0.013466 
943805493235992 0.004122 0.009518 -0.013466 
943805512145210 0.004122 0.009518 -0.013466 
943805531054429 0.004122 0.009518 -0.013466 
943805549963596 0.004122 0.009518 -0.013466 
943805568872867 0.004122 0.009518 -0.013466 
943805587782085 0.004122 0.009518 -0.013466 
943805606691304 0.004122 0.009518 -0.013466 
943805625600523 0.004122 0.009518 -0.013466 
943805644509742 0.004122 0.009518 -0.013466 
943805663418960 0.004122 0.009518 -0.013466 
943805682328179 0.004122 0.009518 -0.013466 
943805701237398 0.004122 0.009518 -0.013466 
943805720146617 0.004122 0.009518 -0.013466 
943805739055835 0.004122 0.009518 -0.013466 
943805757965106 0.004122 0.009518 -0.013466 
943805776874325 0.004122 0.009518 -0.013466 
943805795783544 0.004122 0.009518 -0.013466 
943805814692763 0.004122 0.009518 -0.013466 
943805833601981 0.004122 0.009518 -0.013466 
943805852511200 0.004122 0.009518 -0.013466 
943805871420471 0.004122 0.009518 -0.013466 
943805890329690 0.004122 0.009518 -0.013466 
943805909238908 0.004122 0.009518 -0.013466 
943805928148127 0.004122 0.009518 -0.013466 
943805947057398 0.004122 0.009518 -0.013466 
943805965966617 0.004122 0.009518 -0.013466 
943805984875835 0.004122 0.009518 -0.013466 
943806003785054 0.004122 0.009518 -0.013466 
943806022694325 0.004122 0.009518 -0.013466 
943806041603544 0.004122 0.009518 -0.013466 
943806060512763 0.004122 0.009518 -0.013466 
943806079422033 0.004122 0.009518 -0.013466 
943806098331252 0.004122 0.009518 -0.013466 
943806117240471 0.004122 0.009518 -0.013466 
943806136149742 0.004122 0.009518 -0.013466 
943806155058960 0.004122 0.009518 -0.013466 
943806173968179 0.004122 0.009518 -0.013466 
943806192877450 0.004122 0.009518 -0.013466 
943806211786669 0.004122 0.009518 -0.013466 
943806230695940 0.004122 0.009518 -0.013466 
943806249605158 0.004122 0.009518 -0.013466 
943806268514377 0.004122 0.009518 -0.013466 
943806287423648 0.004122 0.009518 -0.013466 
943806306332919 0.004122 0.009518 -0.013466 
943806325242138 0.004122 0.009518 -0.013466 
943806344151356 0.004122 0.009518 -0.013466 
943806363060627 0.004122 0.009518 -0.013466 
943806381969898 0.004122 0.009518 -0.013466 
943806400879117 0.004122 0.009518 -0.013466 
943806419788388 0.004122 0.009518 -0.013466 
943806438697606 0.004122 0.009518 -0.013466 
943806457606877 0.004122 0.009518 -0.013466 
943806476516148 0.004122 0.009518 -0.013466 
943806495425367 0.004122 0.009518 -0.013466 
943806514334638 0.004122 0.009518 -0.013466 
943806533243856 0.004122 0.009518 -0.013466 
943806552153127 0.004122 0.009518 -0.013466 
943806571062398 0.004122 0.009518 -0.013466 
943806589971617 0.004122 0.009518 -0.013466 
943806608880888 0.004122 0.009518 -0.013466 
943806627790158 0.004122 0.009518 -0.013466 
943806646699377 0.004122 0.009518 -0.013466 
943806665608648 0.004122 0.009518 -0.013466 
943806684517919 0.004122 0.009518 -0.013466 
943806703427190 0.004122 0.009518 -0.013466 
943806722336408 0.004122 0.009518 -0.013466 
943806741245679 0.004122 0.009518 -0.013466 
943806760154950 0.004122 0.009518 -0.013466 
943806779064221 0.004122 0.009518 -0.013466 
943806797973440 0.004122 0.009518 -0.013466 
943806816882710 0.004122 0.009518 -0.013466 
943806835791981 0.004122 0.009518 -0.013466 
943806854701252 0.004122 0.009518 -0.013466 
943806873610523 0.004122 0.009518 -0.013466 
943806892519794 0.004122 0.009518 -0.013466 
943806911429013 0.004122 0.009518 -0.013466 
943806930338283 0.004122 0.009518 -0.013466 
943806949247554 0.004122 0.009518 -0.013466 
943806968156825 0.004122 0.009518 -0.013466 
943806987066096 0.004122 0.009518 -0.013466 
943807005975367 0.004122 0.009518 -0.013466 
943807024884638 0.004122 0.009518 -0.013466 
943807043793908 0.004122 0.009518 -0.013466 
943807062703179 0.004122 0.009518 -0.013466 
943807081612450 0.004122 0.009518 -0.013466 
943807100521721 0.004122 0.009518 -0.013466 
943807119430992 0.004122 0.009518 -0.013466 
943807138340263 0.004122 0.009518 -0.013466 
943807157249533 0.004122 0.009518 -0.013466 
943807176158804 0.004122 0.009518 -0.013466 
943807195068075 0.004122 0.009518 -0.013466 
943807213977346 0.004122 0.009518 -0.013466 
943807232886617 0.004122 0.009518 -0.013466 
943807251795888 0.004122 0.009518 -0.013466 
943807270705158 0.004122 0.009518 -0.013466 
943807289614429 0.004122 0.009518 -0.013466 
943807308523700 0.004122 0.009518 -0.013466 
943807327432971 0.004122 0.009518 -0.013466 
943807346342242 0.004122 0.009518 -0.013466 
943807365251565 0.004122 0.009518 -0.013466 
943807384160835 0.004122 0.009518 -0.013466 
943807403070106 0.004122 0.009518 -0.013466 
943807421979377 0.004122 0.009518 -0.013466 
943807440888648 0.004122 0.009518 -0.013466 
943807459797919 0.004122 0.009518 -0.013466 
943807478707242 0.004122 0.009518 -0.013466 
943807497616513 0.004122 0.009518 -0.013466 
943807516525783 0.004122 0.009518 -0.013466 
943807535435054 0.004122 0.009518 -0.013466 
943807554344325 0.004122 0.009518 -0.013466 
943807573253648 0.004122 0.009518 -0.013466 
943807592162919 0.004122 0.009518 -0.013466 
943807611072190 0.004122 0.009518 -0.013466 
943807629981460 0.004122 0.009518 -0.013466 
943807648890783 0.004122 0.009518 -0.013466 
943807667800054 0.004122 0.009518 -0.013466 
943807686709325 0.004122 0.009518 -0.013466 
943807705618596 0.004122 0.009518 -0.013466 
943807724527919 0.004122 0.009518 -0.013466 
943807743437190 0.004122 0.009518 -0.013466 
943807762346460 0.004122 0.009518 -0.013466 
943807781255783 0.004122 0.009518 -0.013466 
943807800165054 0.004122 0.009518 -0.013466 
943807819074377 0.004122 0.009518 -0.013466 
943807837983648 0.004122 0.009518 -0.013466 
943807856892919 0.004122 0.009518 -0.013466 
943807875802242 0.004122 0.009518 -0.013466 
943807894711513 0.004122 0.009518 -0.013466 
943807913620783 0.004122 0.009518 -0.013466 
943807932530106 0.004122 0.009518 -0.013466 
943807951439377 0.004122 0.009518 -0.013466 
943807970348700 0.004122 0.009518 -0.013466 
943807989257971 0.004122 0.009518 -0.013466 
943808008167294 0.004122 0.009518 -0.013466 
943808027076565 0.004122 0.009518 -0.013466 
943808045985835 0.004122 0.009518 -0.013466 
943808064895158 0.004122 0.009518 -0.013466 
943808083804429 0.004122 0.009518 -0.013466 
943808102713752 0.004122 0.009518 -0.013466 
943808121623023 0.004122 0.009518 -0.013466 
943808140532346 0.004122 0.009518 -0.013466 
943808159441617 0.004122 0.009518 -0.013466 
943808178350940 0.004122 0.009518 -0.013466 
943808197260263 0.004122 0.009518 -0.013466 
943808216169533 0.004122 0.009518 -0.013466 
943808235078856 0.004122 0.009518 -0.013466 
943808253988127 0.004122 0.009518 -0.013466 
943808272897450 0.004122 0.009518 -0.013466 
943808291806721 0.004122 0.009518 -0.013466 
943808310716044 0.004122 0.009518 -0.013466 
943808329625315 0.004122 0.009518 -0.013466 
943808348534638 0.004122 0.009518 -0.013466 
943808367443960 0.004122 0.009518 -0.013466 
943808386353231 0.004122 0.009518 -0.013466 
943808405262554 0.004122 0.009518 -0.013466 
943808424171877 0.004122 0.009518 -0.013466 
943808443081148 0.004122 0.009518 -0.013466 
943808461990471 0.004122 0.009518 -0.013466 
943808480899794 0.004122 0.009518 -0.013466 
943808499809065 0.004122 0.009518 -0.013466 
943808518718388 0.004122 0.009518 -0.013466 
943808537627658 0.004122 0.009518 -0.013466 
943808556536981 0.004122 0.009518 -0.013466 
943808575446304 0.004122 0.009518 -0.013466 
943808594355575 0.004122 0.009518 -0.013466 
943808613264898 0.004122 0.009518 -0.013466 
943808632174221 0.004122 0.009518 -0.013466 
943808651083544 0.004122 0.009518 -0.013466 
943808669992867 0.004122 0.009518 -0.013466 
943808688902138 0.004122 0.009518 -0.013466 
943808707811460 0.004122 0.009518 -0.013466 
943808726720783 0.004122 0.009518 -0.013466 
943808745630054 0.004122 0.009518 -0.013466 
943808764539377 0.004122 0.009518 -0.013466 
943808783448700 0.004122 0.009518 -0.013466 
943808802358023 0.004122 0.009518 -0.013466 
943808821267346 0.004122 0.009518 -0.013466 
943808840176617 0.004122 0.009518 -0.013466 
943808859085940 0.004122 0.009518 -0.013466 
943808877995263 0.004122 0.009518 -0.013466 
943808896904585 0.004122 0.009518 -0.013466 
943808915813908 0.004122 0.009518 -0.013466 
943808934723231 0.004122 0.009518 -0.013466 
943808953632502 0.004122 0.009518 -0.013466 
943808972541825 0.004122 0.009518 -0.013466 
943808991451148 0.004122 0.009518 -0.013466 
943809010360471 0.004122 0.009518 -0.013466 
943809029269794 0.004122 0.009518 -0.013466 
943809048179117 0.004122 0.009518 -0.013466 
943809067088440 0.004122 0.009518 -0.013466 
943809085997763 0.004122 0.009518 -0.013466 
943809104907085 0.004122 0.009518 -0.013466 
943809123816356 0.004122 0.009518 -0.013466 
943809142725731 0.004122 0.009518 -0.013466 
943809161635002 0.004122 0.009518 -0.013466 
943809180544325 0.004122 0.009518 -0.013466 
943809199453648 0.004122 0.009518 -0.013466 
943809218362971 0.004122 0.009518 -0.013466 
943809237272294 0.004122 0.009518 -0.013466 
943809256181617 0.004122 0.009518 -0.013466 
943809275090940 0.004122 0.009518 -0.013466 
943809294000263 0.004122 0.009518 -0.013466 
943809312909585 0.004122 0.009518 -0.013466 
943809331818908 0.004122 0.009518 -0.013466 
943809350728231 0.004122 0.009518 -0.013466 
943809369637554 0.004122 0.009518 -0.013466 
943809388546877 0.004122 0.009518 -0.013466 
943809407456200 0.004122 0.009518 -0.013466 
943809426365523 0.004122 0.009518 -0.013466 
943809445274846 0.004122 0.009518 -0.013466 
943809464184221 0.004122 0.009518 -0.013466 
943809483093492 0.004122 0.009518 -0.013466 
943809502002867 0.004122 0.009518 -0.013466 
943809520912190 0.004122 0.009518 -0.013466 
943809539821513 0.004122 0.009518 -0.013466 
943809558730835 0.004122 0.009518 -0.013466 
943809577640158 0.004122 0.009518 -0.013466 
943809596549481 0.004122 0.009518 -0.013466 
943809615458804 0.004122 0.009518 -0.013466 
943809634368127 0.004122 0.009518 -0.013466 
943809653277450 0.004122 0.009518 -0.013466 
943809672186773 0.004122 0.009518 -0.013466 
943809691096096 0.004122 0.009518 -0.013466 
943809710005471 0.004122 0.009518 -0.013466 
943809728914794 0.004122 0.009518 -0.013466 
943809747824117 0.004122 0.009518 -0.013466 
943809766733440 0.004122 0.009518 -0.013466 
943809785642763 0.004122 0.009518 -0.013466 
943809804552085 0.004122 0.009518 -0.013466 
943809823461460 0.004122 0.009518 -0.013466 
943809842370783 0.004122 0.009518 -0.013466 
943809861280106 0.004122 0.009518 -0.013466 
943809880189429 0.004122 0.009518 -0.013466 
943809899098752 0.004122 0.009518 -0.013466 
943809918008075 0.004122 0.009518 -0.013466 
943809936917450 0.004122 0.009518 -0.013466 
943809955826773 0.004122 0.009518 -0.013466 
943809974736096 0.004122 0.009518 -0.013466 
943809993645419 0.004122 0.009518 -0.013466 
943810012554742 0.004122 0.009518 -0.013466 
943810031464117 0.004122 0.009518 -0.013466 
943810050373440 0.004122 0.009518 -0.013466 
943810069282763 0.004122 0.009518 -0.013466 
943810088192085 0.004122 0.009518 -0.013466 
943810107101460 0.004122 0.009518 -0.013466 
943810126010783 0.004122 0.009518 -0.013466 
943810144920106 0.004122 0.009518 -0.013466 
943810163829429 0.004122 0.009518 -0.013466 
943810182738752 0.004122 0.009518 -0.013466 
943810201648127 0.004122 0.009518 -0.013466 
943810220557450 0.004122 0.009518 -0.013466 
943810239466773 0.004122 0.009518 -0.013466 
943810258376096 0.004122 0.009518 -0.013466 
943810277285471 0.004122 0.009518 -0.013466 
943810296194794 0.004122 0.009518 -0.013466 
943810315104117 0.004122 0.009518 -0.013466 
943810334013440 0.004122 0.009518 -0.013466 
943810352922815 0.004122 0.009518 -0.013466 
943810371832138 0.004122 0.009518 -0.013466 
943810390741460 0.004122 0.009518 -0.013466 
943810409650835 0.004122 0.009518 -0.013466 
943810428560158 0.004122 0.009518 -0.013466 
943810447469481 0.004122 0.009518 -0.013466 
943810466378804 0.004122 0.009518 -0.013466 
943810485288179 0.004122 0.009518 -0.013466 
943810504197502 0.004122 0.009518 -0.013466 
943810523106877 0.004122 0.009518 -0.013466 
943810542016200 0.004122 0.009518 -0.013466 
943810560925523 0.004122 0.009518 -0.013466 
943810579834846 0.004122 0.009518 -0.013466 
943810598744221 0.004122 0.009518 -0.013466 
943810617653544 0.004122 0.009518 -0.013466 
943810636562867 0.004122 0.009518 -0.013466 
943810655472242 0.004122 0.009518 -0.013466 
943810674381565 0.004122 0.009518 -0.013466 
943810693290888 0.004122 0.009518 -0.013466 
943810712200263 0.004122 0.009518 -0.013466 
943810731109585 0.004122 0.009518 -0.013466 
943810750018908 0.004122 0.009518 -0.013466 
943810768928283 0.004122 0.009518 -0.013466 
943810787837606 0.004122 0.009518 -0.013466 
943810806746981 0.004122 0.009518 -0.013466 
943810825656304 0.004122 0.009518 -0.013466 
943810844565627 0.004122 0.009518 -0.013466 
943810863475002 0.004122 0.009518 -0.013466 
943810882384325 0.004122 0.009518 -0.013466 
943810901293648 0.004122 0.009518 -0.013466 
943810920203023 0.004122 0.009518 -0.013466 
943810939112346 0.004122 0.009518 -0.013466 
943810958021669 0.004122 0.009518 -0.013466 
943810976931044 0.004122 0.009518 -0.013466 
943810995840367 0.004122 0.009518 -0.013466 
943811014749742 0.004122 0.009518 -0.013466 
943811033659065 0.004122 0.009518 -0.013466 
943811052568388 0.004122 0.009518 -0.013466 
943811071477763 0.004122 0.009518 -0.013466 
943811090387085 0.004122 0.009518 -0.013466 
943811109296408 0.004122 0.009518 -0.013466 
943811128205783 0.004122 0.009518 -0.013466 
943811147115106 0.004122 0.009518 -0.013466 
943811166024481 0.004122 0.009518 -0.013466 
943811184933804 0.004122 0.009518 -0.013466 
943811203843179 0.004122 0.009518 -0.013466 
943811222752502 0.004122 0.009518 -0.013466 
943811241661825 0.004122 0.009518 -0.013466 
943811260571200 0.004122 0.009518 -0.013466 
943811279480523 0.004122 0.009518 -0.013466 
943811298389846 0.004122 0.009518 -0.013466 
943811317299221 0.004122 0.009518 -0.013466 
943811336208544 0.004122 0.009518 -0.013466 
943811355117919 0.004122 0.009518 -0.013466 
943811374027242 0.004122 0.009518 -0.013466 
943811392936617 0.004122 0.009518 -0.013466 
943811411845940 0.004122 0.009518 -0.013466 
943811430755263 0.004122 0.009518 -0.013466 
943811449664638 0.004122 0.009518 -0.013466 
943811468573960 0.004122 0.009518 -0.013466 
943811487483335 0.004122 0.009518 -0.013466 
943811506392658 0.004122 0.009518 -0.013466 
943811525302033 0.004122 0.009518 -0.013466 
943811544211356 0.004122 0.009518 -0.013466 
943811563120679 0.004122 0.009518 -0.013466 
943811582030054 0.004122 0.009518 -0.013466 
943811600939377 0.004122 0.009518 -0.013466 
943811619848752 0.004122 0.009518 -0.013466 
943811638758075 0.004122 0.009518 -0.013466 
943811657667450 0.004122 0.009518 -0.013466 
943811676576773 0.004122 0.009518 -0.013466 
943811695486096 0.004122 0.009518 -0.013466 
943811714395471 0.004122 0.009518 -0.013466 
943811733304846 0.004122 0.009518 -0.013466 
943811752214169 0.004122 0.009518 -0.013466 
943811771123492 0.004122 0.009518 -0.013466 
943811790032867 0.004122 0.009518 -0.013466 
943811808942190 0.004122 0.009518 -0.013466 
943811827851565 0.004122 0.009518 -0.013466 
943811846760888 0.004122 0.009518 -0.013466 
943811865670263 0.004122 0.009518 -0.013466 
943811884579585 0.004122 0.009518 -0.013466 
943811903488908 0.004122 0.009518 -0.013466 
943811922398283 0.004122 0.009518 -0.013466 
943811941307606 0.004122 0.009518 -0.013466 
943811960216981 0.004122 0.009518 -0.013466 
943811979126304 0.004122 0.009518 -0.013466 
943811998035679 0.004122 0.009518 -0.013466 
943812016945002 0.004122 0.009518 -0.013466 
943812035854377 0.004122 0.009518 -0.013466 
943812054763700 0.004122 0.009518 -0.013466 
943812073673023 0.004122 0.009518 -0.013466 
943812092582398 0.004122 0.009518 -0.013466 
943812111491721 0.004122 0.009518 -0.013466 
943812130401096 0.004122 0.009518 -0.013466 
943812149310419 0.004122 0.009518 -0.013466 
943812168219794 0.004122 0.009518 -0.013466 
943812187129117 0.004122 0.009518 -0.013466 
943812206038492 0.004122 0.009518 -0.013466 
943812224947815 0.004122 0.009518 -0.013466 
943812243857190 0.004122 0.009518 -0.013466 
943812262766513 0.004122 0.009518 -0.013466 
943812281675835 0.004122 0.009518 -0.013466 
943812300585210 0.004122 0.009518 -0.013466 
943812319494533 0.004122 0.009518 -0.013466 
943812338403908 0.004122 0.009518 -0.013466 
943812357313231 0.004122 0.009518 -0.013466 
943812376222606 0.004122 0.009518 -0.013466 
943812395131929 0.004122 0.009518 -0.013466 
943812414041304 0.004122 0.009518 -0.013466 
943812432950627 0.004122 0.009518 -0.013466 
943812451859950 0.004122 0.009518 -0.013466 
943812470769325 0.004122 0.009518 -0.013466 
943812489678648 0.004122 0.009518 -0.013466 
943812508588023 0.004122 0.009518 -0.013466 
943812527497346 0.004122 0.009518 -0.013466 
943812546406721 0.004122 0.009518 -0.013466 
943812565316044 0.004122 0.009518 -0.013466 
943812584225367 0.004122 0.009518 -0.013466 
943812603134742 0.004122 0.009518 -0.013466 
943812622044065 0.004122 0.009518 -0.013466 
943812640953440 0.004122 0.009518 -0.013466 
943812659862763 0.004122 0.009518 -0.013466 
943812678772138 0.004122 0.009518 -0.013466 
943812697681460 0.004122 0.009518 -0.013466 
943812716590783 0.004122 0.009518 -0.013466 
943812735500158 0.004122 0.009518 -0.013466 
943812754409481 0.004122 0.009518 -0.013466 
943812773318856 0.004122 0.009518 -0.013466 
943812792228179 0.004122 0.009518 -0.013466 
943812811137554 0.004122 0.009518 -0.013466 
943812830046877 0.004122 0.009518 -0.013466 
943812848956200 0.004122 0.009518 -0.013466 
943812867865575 0.004122 0.009518 -0.013466 
943812886774898 0.004122 0.009518 -0.013466 
943812905684273 0.004122 0.009518 -0.013466 
943812924593596 0.004122 0.009518 -0.013466 
943812943502919 0.004122 0.009518 -0.013466 
943812962412294 0.004122 0.009518 -0.013466 
943812981321617 0.004122 0.009518 -0.013466 
943813000230992 0.004122 0.009518 -0.013466 
943813019140315 0.004122 0.009518 -0.013466 
943813038049638 0.004122 0.009518 -0.013466 
943813056959013 0.004122 0.009518 -0.013466 
943813075868335 0.004122 0.009518 -0.013466 
943813094777710 0.004122 0.009518 -0.013466 
943813113687033 0.004122 0.009518 -0.013466 
943813132596356 0.004122 0.009518 -0.013466 
943813151505731 0.004122 0.009518 -0.013466 
943813170415054 0.004122 0.009518 -0.013466 
943813189324429 0.004122 0.009518 -0.013466 
943813208233752 0.004122 0.009518 -0.013466 
943813227143075 0.004122 0.009518 -0.013466 
943813246052450 0.004122 0.009518 -0.013466 
943813264961773 0.004122 0.009518 -0.013466 
943813283871148 0.004122 0.009518 -0.013466 
943813302780471 0.004122 0.009518 -0.013466 
943813321689846 0.004122 0.009518 -0.013466 
943813340599169 0.004122 0.009518 -0.013466 
943813359508492 0.004122 0.009518 -0.013466 
943813378417867 0.004122 0.009518 -0.013466 
943813397327190 0.004122 0.009518 -0.013466 
943813416236565 0.004122 0.009518 -0.013466 
943813435145888 0.004122 0.009518 -0.013466 
943813454055210 0.004122 0.009518 -0.013466 
943813472964585 0.004122 0.009518 -0.013466 
943813491873908 0.004122 0.009518 -0.013466 
943813510783283 0.004122 0.009518 -0.013466 
943813529692606 0.004122 0.009518 -0.013466 
943813548601981 0.004122 0.009518 -0.013466 
943813567511304 0.004122 0.009518 -0.013466 
943813586420627 0.004122 0.009518 -0.013466 
943813605330002 0.004122 0.009518 -0.013466 
943813624239325 0.004122 0.009518 -0.013466 
943813643148700 0.004122 0.009518 -0.013466 
943813662058023 0.004122 0.009518 -0.013466 
943813680967398 0.004122 0.009518 -0.013466 
943813699876721 0.004122 0.009518 -0.013466 
943813718786044 0.004122 0.009518 -0.013466 
943813737695419 0.004122 0.009518 -0.013466 
943813756604742 0.004122 0.009518 -0.013466 
943813775514117 0.004122 0.009518 -0.013466 
943813794423440 0.004122 0.009518 -0.013466 
943813813332763 0.004122 0.009518 -0.013466 
943813832242138 0.004122 0.009518 -0.013466 
943813851151460 0.004122 0.009518 -0.013466 
943813870060835 0.004122 0.009518 -0.013466 
943813888970158 0.004122 0.009518 -0.013466 
943813907879533 0.004122 0.009518 -0.013466 
943813926788856 0.004122 0.009518 -0.013466 
943813945698231 0.004122 0.009518 -0.013466 
943813964607554 0.004122 0.009518 -0.013466 
943813983516877 0.004122 0.009518 -0.013466 
943814002426252 0.004122 0.009518 -0.013466 
943814021335575 0.004122 0.009518 -0.013466 
943814040244950 0.004122 0.009518 -0.013466 
943814059154273 0.004122 0.009518 -0.013466 
943814078063648 0.004122 0.009518 -0.013466 
943814096972971 0.004122 0.009518 -0.013466 
943814115882346 0.004122 0.009518 -0.013466 
943814134791669 0.004122 0.009518 -0.013466 
943814153700992 0.004122 0.009518 -0.013466 
943814172610367 0.004122 0.009518 -0.013466 
943814191519690 0.004122 0.009518 -0.013466 
943814210429065 0.004122 0.009518 -0.013466 
943814229338388 0.004122 0.009518 -0.013466 
943814248247763 0.004122 0.009518 -0.013466 
943814267157085 0.004122 0.009518 -0.013466 
943814286066460 0.004122 0.009518 -0.013466 
943814304975783 0.004122 0.009518 -0.013466 
943814323885106 0.004122 0.009518 -0.013466 
943814342794481 0.004122 0.009518 -0.013466 
943814361703804 0.004122 0.009518 -0.013466 
943814380613179 0.004122 0.009518 -0.013466 
943814399522502 0.004122 0.009518 -0.013466 
943814418431877 0.004122 0.009518 -0.013466 
943814437341200 0.004122 0.009518 -0.013466 
943814456250575 0.004122 0.009518 -0.013466 
943814475159898 0.004122 0.009518 -0.013466 
943814494069221 0.004122 0.009518 -0.013466 
943814512978596 0.004122 0.009518 -0.013466 
943814531887919 0.004122 0.009518 -0.013466 
943814550797294 0.004122 0.009518 -0.013466 
943814569706617 0.004122 0.009518 -0.013466 
943814588615992 0.004122 0.009518 -0.013466 
943814607525315 0.004122 0.009518 -0.013466 
943814626434638 0.004122 0.009518 -0.013466 
943814645344013 0.004122 0.009518 -0.013466 
943814664253335 0.004122 0.009518 -0.013466 
943814683162710 0.004122 0.009518 -0.013466 
943814702072033 0.004122 0.009518 -0.013466 
943814720981408 0.004122 0.009518 -0.013466 
943814739890731 0.004122 0.009518 -0.013466 
943814758800106 0.004122 0.009518 -0.013466 
943814777709429 0.004122 0.009518 -0.013466 
943814796618752 0.004122 0.009518 -0.013466 
943814815528127 0.004122 0.009518 -0.013466 
943814834437450 0.004122 0.009518 -0.013466 
943814853346825 0.004122 0.009518 -0.013466 
943814872256148 0.004122 0.009518 -0.013466 
943814891165523 0.004122 0.009518 -0.013466 
943814910074846 0.004122 0.009518 -0.013466 
943814928984169 0.004122 0.009518 -0.013466 
943814947893544 0.004122 0.009518 -0.013466 
943814966802867 0.004122 0.009518 -0.013466 
943814985712242 0.004122 0.009518 -0.013466 
943815004621565 0.004122 0.009518 -0.013466 
943815023530940 0.004122 0.009518 -0.013466 
943815042440263 0.004122 0.009518 -0.013466 
943815061349638 0.004122 0.009518 -0.013466 
943815080258960 0.004122 0.009518 -0.013466 
943815099168283 0.004122 0.009518 -0.013466 
943815118077658 0.004122 0.009518 -0.013466 
943815136986981 0.004122 0.009518 -0.013466 
943815155896356 0.004122 0.009518 -0.013466 
943815174805679 0.004122 0.009518 -0.013466 
943815193715054 0.004122 0.009518 -0.013466 
943815212624377 0.004122 0.009518 -0.013466 
943815231533700 0.004122 0.009518 -0.013466 
943815250443075 0.004122 0.009518 -0.013466 
943815269352398 0.004122 0.009518 -0.013466 
943815288261773 0.004122 0.009518 -0.013466 
943815307171096 0.004122 0.009518 -0.013466 
943815326080419 0.004122 0.009518 -0.013466 
943815344989794 0.004122 0.009518 -0.013466 
943815363899117 0.004122 0.009518 -0.013466 
943815382808492 0.004122 0.009518 -0.013466 
943815401717815 0.004122 0.009518 -0.013466 
943815420627190 0.004122 0.009518 -0.013466 
943815439536513 0.004122 0.009518 -0.013466 
943815458445835 0.004122 0.009518 -0.013466 
943815477355210 0.004122 0.009518 -0.013466 
943815496264533 0.004122 0.009518 -0.013466 
943815515173908 0.004122 0.009518 -0.013466 
943815534083231 0.004122 0.009518 -0.013466 
943815552992554 0.004122 0.009518 -0.013466 
943815571901929 0.004122 0.009518 -0.013466 
943815590811252 0.004122 0.009518 -0.013466 
943815609720627 0.004122 0.009518 -0.013466 
943815628629950 0.004122 0.009518 -0.013466 
943815647539325 0.004122 0.009518 -0.013466 
943815666448648 0.004122 0.009518 -0.013466 
943815685357971 0.004122 0.009518 -0.013466 
943815704267346 0.004122 0.009518 -0.013466 
943815723176669 0.004122 0.009518 -0.013466 
943815742086044 0.004122 0.009518 -0.013466 
943815760995367 0.004122 0.009518 -0.013466 
943815779904690 0.004122 0.009518 -0.013466 
943815798814065 0.004122 0.009518 -0.013466 
943815817723388 0.004122 0.009518 -0.013466 
943815836632763 0.004122 0.009518 -0.013466 
943815855542085 0.004122 0.009518 -0.013466 
943815874451408 0.004122 0.009518 -0.013466 
943815893360783 0.004122 0.009518 -0.013466 
943815912270106 0.004122 0.009518 -0.013466 
943815931179481 0.004122 0.009518 -0.013466 
943815950088804 0.004122 0.009518 -0.013466 
943815968998127 0.004122 0.009518 -0.013466 
943815987907502 0.004122 0.009518 -0.013466 
943816006816825 0.004122 0.009518 -0.013466 
943816025726200 0.004122 0.009518 -0.013466 
943816044635523 0.004122 0.009518 -0.013466 
943816063544846 0.004122 0.009518 -0.013466 
943816082454221 0.004122 0.009518 -0.013466 
943816101363544 0.004122 0.009518 -0.013466 
943816120272867 0.004122 0.009518 -0.013466 
943816139182242 0.004122 0.009518 -0.013466 
943816158091565 0.004122 0.009518 -0.013466 
943816177000940 0.004122 0.009518 -0.013466 
943816195910263 0.004122 0.009518 -0.013466 
943816214819638 0.004122 0.009518 -0.013466 
943816233728960 0.004122 0.009518 -0.013466 
943816252638283 0.004122 0.009518 -0.013466 
943816271547658 0.004122 0.009518 -0.013466 
943816290456981 0.004122 0.009518 -0.013466 
943816309366304 0.004122 0.009518 -0.013466 
943816328275679 0.004122 0.009518 -0.013466 
943816347185002 0.004122 0.009518 -0.013466 
943816366094377 0.004122 0.009518 -0.013466 
943816385003700 0.004122 0.009518 -0.013466 
943816403913023 0.004122 0.009518 -0.013466 
943816422822398 0.004122 0.009518 -0.013466 
943816441731721 0.004122 0.009518 -0.013466 
943816460641096 0.004122 0.009518 -0.013466 
943816479550419 0.004122 0.009518 -0.013466 
943816498459794 0.004122 0.009518 -0.013466 
943816517369117 0.004122 0.009518 -0.013466 
943816536278440 0.004122 0.009518 -0.013466 
943816555187815 0.004122 0.009518 -0.013466 
943816574097138 0.004122 0.009518 -0.013466 
943816593006513 0.004122 0.009518 -0.013466 
943816611915835 0.004122 0.009518 -0.013466 
943816630825158 0.004122 0.009518 -0.013466 
943816649734533 0.004122 0.009518 -0.013466 
943816668643856 0.004122 0.009518 -0.013466 
943816687553231 0.004122 0.009518 -0.013466 
943816706462554 0.004122 0.009518 -0.013466 
943816725371877 0.004122 0.009518 -0.013466 
943816744281252 0.004122 0.009518 -0.013466 
943816763190575 0.004122 0.009518 -0.013466 
943816782099950 0.004122 0.009518 -0.013466 
943816801009273 0.004122 0.009518 -0.013466 
943816819918648 0.004122 0.009518 -0.013466 
943816838827971 0.004122 0.009518 -0.013466 
943816857737294 0.004122 0.009518 -0.013466 
943816876646669 0.004122 0.009518 -0.013466 
943816895555992 0.004122 0.009518 -0.013466 
943816914465367 0.004122 0.009518 -0.013466 
943816933374690 0.004122 0.009518 -0.013466 
943816952284065 0.004122 0.009518 -0.013466 
943816971193388 0.004122 0.009518 -0.013466 
943816990102763 0.004122 0.009518 -0.013466 
943817009012085 0.004122 0.009518 -0.013466 
943817027921408 0.004122 0.009518 -0.013466 
943817046830783 0.004122 0.009518 -0.013466 
943817065740106 0.004122 0.009518 -0.013466 
943817084649481 0.004122 0.009518 -0.013466 
943817103558804 0.004122 0.009518 -0.013466 
943817122468179 0.004122 0.009518 -0.013466 
943817141377502 0.004122 0.009518 -0.013466 
943817160286877 0.004122 0.009518 -0.013466 
943817179196200 0.004122 0.009518 -0.013466 
943817198105575 0.004122 0.009518 -0.013466 
943817217014898 0.004122 0.009518 -0.013466 
943817235924273 0.004122 0.009518 -0.013466 
943817254833596 0.004122 0.009518 -0.013466 
943817273742971 0.004122 0.009518 -0.013466 
943817292652294 0.004122 0.009518 -0.013466 
943817311561669 0.004122 0.009518 -0.013466 
943817330470992 0.004122 0.009518 -0.013466 
943817349380367 0.004122 0.009518 -0.013466 
943817368289690 0.004122 0.009518 -0.013466 
943817387199065 0.004122 0.009518 -0.013466 
943817406108388 0.004122 0.009518 -0.013466 
943817425017763 0.004122 0.009518 -0.013466 
943817443927138 0.004122 0.009518 -0.013466 
943817462836460 0.004122 0.009518 -0.013466 
943817481745835 0.004122 0.009518 -0.013466 
943817500655158 0.004122 0.009518 -0.013466 
943817519564533 0.004122 0.009518 -0.013466 
943817538473856 0.004122 0.009518 -0.013466 
943817557383231 0.004122 0.009518 -0.013466 
943817576292554 0.004122 0.009518 -0.013466 
943817595201929 0.004122 0.009518 -0.013466 
943817614111252 0.004122 0.009518 -0.013466 
943817633020627 0.004122 0.009518 -0.013466 
943817651929950 0.004122 0.009518 -0.013466 
943817670839325 0.004122 0.009518 -0.013466 
943817689748700 0.004122 0.009518 -0.013466 
943817708658023 0.004122 0.009518 -0.013466 
943817727567398 0.004122 0.009518 -0.013466 
943817746476721 0.004122 0.009518 -0.013466 
943817765386096 0.004122 0.009518 -0.013466 
943817784295419 0.004122 0.009518 -0.013466 
943817803204794 0.004122 0.009518 -0.013466 
943817822114117 0.004122 0.009518 -0.013466 
943817841023492 0.004122 0.009518 -0.013466 
943817859932815 0.004122 0.009518 -0.013466 
943817878842190 0.004122 0.009518 -0.013466 
943817897751565 0.004122 0.009518 -0.013466 
943817916660888 0.004122 0.009518 -0.013466 
943817935570263 0.004122 0.009518 -0.013466 
943817954479585 0.004122 0.009518 -0.013466 
943817973388960 0.004122 0.009518 -0.013466 
943817992298283 0.004122 0.009518 -0.013466 
943818011207658 0.004122 0.009518 -0.013466 
943818030116981 0.004122 0.009518 -0.013466 
943818049026356 0.004122 0.009518 -0.013466 
943818067935731 0.004122 0.009518 -0.013466 
943818086845054 0.004122 0.009518 -0.013466 
943818105754429 0.004122 0.009518 -0.013466 
943818124663752 0.004122 0.009518 -0.013466 
943818143573127 0.004122 0.009518 -0.013466 
943818162482450 0.004122 0.009518 -0.013466 
943818181391825 0.004122 0.009518 -0.013466 
943818200301148 0.004122 0.009518 -0.013466 
943818219210523 0.004122 0.009518 -0.013466 
943818238119846 0.004122 0.009518 -0.013466 
943818257029221 0.004122 0.009518 -0.013466 
943818275938596 0.004122 0.009518 -0.013466 
943818294847919 0.004122 0.009518 -0.013466 
943818313757294 0.004122 0.009518 -0.013466 
943818332666617 0.004122 0.009518 -0.013466 
943818351575992 0.004122 0.009518 -0.013466 
943818370485315 0.004122 0.009518 -0.013466 
943818389394690 0.004122 0.009518 -0.013466 
943818408304013 0.004122 0.009518 -0.013466 
943818427213388 0.004122 0.009518 -0.013466 
943818446122763 0.004122 0.009518 -0.013466 
943818465032085 0.004122 0.009518 -0.013466 
943818483941460 0.004122 0.009518 -0.013466 
943818502850783 0.004122 0.009518 -0.013466 
943818521760158 0.004122 0.009518 -0.013466 
943818540669481 0.004122 0.009518 -0.013466 
943818559578856 0.004122 0.009518 -0.013466 
943818578488231 0.004122 0.009518 -0.013466 
943818597397554 0.004122 0.009518 -0.013466 
943818616306929 0.004122 0.009518 -0.013466 
943818635216252 0.004122 0.009518 -0.013466 
943818654125627 0.004122 0.009518 -0.013466 
943818673035002 0.004122 0.009518 -0.013466 
943818691944325 0.004122 0.009518 -0.013466 
943818710853700 0.004122 0.009518 -0.013466 
943818729763023 0.004122 0.009518 -0.013466 
943818748672398 0.004122 0.009518 -0.013466 
943818767581773 0.004122 0.009518 -0.013466 
943818786491096 0.004122 0.009518 -0.013466 
943818805400471 0.004122 0.009518 -0.013466 
943818824309794 0.004122 0.009518 -0.013466 
943818843219169 0.004122 0.009518 -0.013466 
943818862128544 0.004122 0.009518 -0.013466 
943818881037867 0.004122 0.009518 -0.013466 
943818899947242 0.004122 0.009518 -0.013466 
943818918856565 0.004122 0.009518 -0.013466 
943818937765940 0.004122 0.009518 -0.013466 
943818956675315 0.004122 0.009518 -0.013466 
943818975584638 0.004122 0.009518 -0.013466 
943818994494013 0.004122 0.009518 -0.013466 
943819013403388 0.004122 0.009518 -0.013466 
943819032312710 0.004122 0.009518 -0.013466 
943819051222085 0.004122 0.009518 -0.013466 
943819070131460 0.004122 0.009518 -0.013466 
943819089040783 0.004122 0.009518 -0.013466 
943819107950158 0.004122 0.009518 -0.013466 
943819126859533 0.004122 0.009518 -0.013466 
943819145768856 0.004122 0.009518 -0.013466 
943819164678231 0.004122 0.009518 -0.013466 
943819183587606 0.004122 0.009518 -0.013466 
943819202496929 0.004122 0.009518 -0.013466 
943819221406304 0.004122 0.009518 -0.013466 
943819240315679 0.004122 0.009518 -0.013466 
943819259225002 0.004122 0.009518 -0.013466 
943819278134377 0.004122 0.009518 -0.013466 
943819297043752 0.004122 0.009518 -0.013466 
943819315953075 0.004122 0.009518 -0.013466 
943819334862450 0.004122 0.009518 -0.013466 
943819353771825 0.004122 0.009518 -0.013466 
943819372681200 0.004122 0.009518 -0.013466 
943819391590523 0.004122 0.009518 -0.013466 
943819410499898 0.004122 0.009518 -0.013466 
943819429409273 0.004122 0.009518 -0.013466 
943819448318596 0.004122 0.009518 -0.013466 
943819467227971 0.004122 0.009518 -0.013466 
943819486137346 0.004122 0.009518 -0.013466 
943819505046721 0.004122 0.009518 -0.013466 
943819523956044 0.004122 0.009518 -0.013466 
943819542865419 0.004122 0.009518 -0.013466 
943819561774794 0.004122 0.009518 -0.013466 
943819580684169 0.004122 0.009518 -0.013466 
943819599593492 0.004122 0.009518 -0.013466 
943819618502867 0.004122 0.009518 -0.013466 
943819637412242 0.004122 0.009518 -0.013466 
943819656321617 0.004122 0.009518 -0.013466 
943819675230992 0.004122 0.009518 -0.013466 
943819694140315 0.004122 0.009518 -0.013466 
943819713049690 0.004122 0.009518 -0.013466 
943819731959065 0.004122 0.009518 -0.013466 
943819750868440 0.004122 0.009518 -0.013466 
943819769777815 0.004122 0.009518 -0.013466 
943819788687138 0.004122 0.009518 -0.013466 
943819807596513 0.004122 0.009518 -0.013466 
943819826505888 0.004122 0.009518 -0.013466 
943819845415263 0.004122 0.009518 -0.013466 
943819864324585 0.004122 0.009518 -0.013466 
943819883233960 0.004122 0.009518 -0.013466 
943819902143335 0.004122 0.009518 -0.013466 
943819921052710 0.004122 0.009518 -0.013466 
943819939962085 0.004122 0.009518 -0.013466 
943819958871460 0.004122 0.009518 -0.013466 
943819977780783 0.004122 0.009518 -0.013466 
943819996690158 0.004122 0.009518 -0.013466 
943820015599533 0.004122 0.009518 -0.013466 
943820034508908 0.004122 0.009518 -0.013466 
943820053418283 0.004122 0.009518 -0.013466 
943820072327658 0.004122 0.009518 -0.013466 
943820091237033 0.004122 0.009518 -0.013466 
943820110146408 0.004122 0.009518 -0.013466 
943820129055731 0.004122 0.009518 -0.013466 
943820147965106 0.004122 0.009518 -0.013466 
943820166874481 0.004122 0.009518 -0.013466 
943820185783856 0.004122 0.009518 -0.013466 
943820204693231 0.004122 0.009518 -0.013466 
943820223602606 0.004122 0.009518 -0.013466 
943820242511981 0.004122 0.009518 -0.013466 
943820261421356 0.004122 0.009518 -0.013466 
943820280330679 0.004122 0.009518 -0.013466 
943820299240054 0.004122 0.009518 -0.013466 
943820318149429 0.004122 0.009518 -0.013466 
943820337058804 0.004122 0.009518 -0.013466 
943820355968179 0.004122 0.009518 -0.013466 
943820374877554 0.004122 0.009518 -0.013466 
943820393786929 0.004122 0.009518 -0.013466 
943820412696304 0.004122 0.009518 -0.013466 
943820431605679 0.004122 0.009518 -0.013466 
943820450515054 0.004122 0.009518 -0.013466 
943820469424429 0.004122 0.009518 -0.013466 
943820488333804 0.004122 0.009518 -0.013466 
943820507243179 0.004122 0.009518 -0.013466 
943820526152554 0.004122 0.009518 -0.013466 
943820545061929 0.004122 0.009518 -0.013466 
943820563971252 0.004122 0.009518 -0.013466 
943820582880627 0.004122 0.009518 -0.013466 
943820601790054 0.004122 0.009518 -0.013466 
943820620699377 0.004122 0.009518 -0.013466 
943820639608752 0.004122 0.009518 -0.013466 
943820658518127 0.004122 0.009518 -0.013466 
943820677427502 0.004122 0.009518 -0.013466 
943820696336877 0.004122 0.009518 -0.013466 
943820715246252 0.004122 0.009518 -0.013466 
943820734155627 0.004122 0.009518 -0.013466 
943820753065002 0.004122 0.009518 -0.013466 
943820771974377 0.004122 0.009518 -0.013466 
943820790883752 0.004122 0.009518 -0.013466 
943820809793127 0.004122 0.009518 -0.013466 
943820828702502 0.004122 0.009518 -0.013466 
943820847611877 0.004122 0.009518 -0.013466 
943820866521252 0.004122 0.009518 -0.013466 
943820885430627 0.004122 0.009518 -0.013466 
943820904340002 0.004122 0.009518 -0.013466 
943820923249377 0.004122 0.009518 -0.013466 
943820942158752 0.004122 0.009518 -0.013466 
943820961068127 0.004122 0.009518 -0.013466 
943820979977502 0.004122 0.009518 -0.013466 
943820998886877 0.004122 0.009518 -0.013466 
943821017796252 0.004122 0.009518 -0.013466 
943821036705627 0.004122 0.009518 -0.013466 
943821055614950 0.004122 0.009518 -0.013466 
943821074524325 0.004122 0.009518 -0.013466 
943821093433700 0.004122 0.009518 -0.013466 
943821112343075 0.004122 0.009518 -0.013466 
943821131252450 0.004122 0.009518 -0.013466 
943821150161825 0.004122 0.009518 -0.013466 
943821169071200 0.004122 0.009518 -0.013466 
943821187980575 0.004122 0.009518 -0.013466 
943821206889950 0.004122 0.009518 -0.013466 
943821225799325 0.004122 0.009518 -0.013466 
943821244708700 0.004122 0.009518 -0.013466 
943821263618075 0.004122 0.009518 -0.013466 
943821282527450 0.004122 0.009518 -0.013466 
943821301436825 0.004122 0.009518 -0.013466 
943821320346200 0.004122 0.009518 -0.013466 
943821339255575 0.004122 0.009518 -0.013466 
943821358164950 0.004122 0.009518 -0.013466 
943821377074325 0.004122 0.009518 -0.013466 
943821395983700 0.004122 0.009518 -0.013466 
943821414893075 0.004122 0.009518 -0.013466 
943821433802450 0.004122 0.009518 -0.013466 
943821452711825 0.004122 0.009518 -0.013466 
943821471621200 0.004122 0.009518 -0.013466 
943821490530575 0.004122 0.009518 -0.013466 
943821509439950 0.004122 0.009518 -0.013466 
943821528349325 0.004122 0.009518 -0.013466 
943821547258700 0.004122 0.009518 -0.013466 
943821566168075 0.004122 0.009518 -0.013466 
943821585077450 0.004122 0.009518 -0.013466 
943821603986825 0.004122 0.009518 -0.013466 
943821622896200 0.004122 0.009518 -0.013466 
943821641805575 0.004122 0.009518 -0.013466 
943821660714950 0.004122 0.009518 -0.013466 
943821679624325 0.004122 0.009518 -0.013466 
943821698533700 0.004122 0.009518 -0.013466 
943821717443075 0.004122 0.009518 -0.013466 
943821736352450 0.004122 0.009518 -0.013466 
943821755261825 0.004122 0.009518 -0.013466 
943821774171148 0.004122 0.009518 -0.013466 
943821793080575 0.004122 0.009518 -0.013466 
943821811989950 0.004122 0.009518 -0.013466 
943821830899325 0.004122 0.009518 -0.013466 
943821849808700 0.004122 0.009518 -0.013466 
943821868718023 0.004122 0.009518 -0.013466 
943821887627450 0.004122 0.009518 -0.013466 
943821906536773 0.004122 0.009518 -0.013466 
943821925446148 0.004122 0.009518 -0.013466 
943821944355523 0.004122 0.009518 -0.013466 
943821963264898 0.004122 0.009518 -0.013466 
943821982174273 0.004122 0.009518 -0.013466 
943822001083648 0.004122 0.009518 -0.013466 
943822019993023 0.004122 0.009518 -0.013466 
943822038902398 0.004122 0.009518 -0.013466 
943822057811773 0.004122 0.009518 -0.013466 
943822076721148 0.004122 0.009518 -0.013466 
943822095630523 0.004122 0.009518 -0.013466 
943822114539898 0.004122 0.009518 -0.013466 
943822133449273 0.004122 0.009518 -0.013466 
943822152358648 0.004122 0.009518 -0.013466 
943822171268023 0.004122 0.009518 -0.013466 
943822190177398 0.004122 0.009518 -0.013466 
943822209086773 0.004122 0.009518 -0.013466 
943822227996148 0.004122 0.009518 -0.013466 
943822246905523 0.004122 0.009518 -0.013466 
943822265814898 0.004122 0.009518 -0.013466 
943822284724273 0.004122 0.009518 -0.013466 
943822303633648 0.004122 0.009518 -0.013466 
943822322543023 0.004122 0.009518 -0.013466 
943822341452398 0.004122 0.009518 -0.013466 
943822360361773 0.004122 0.009518 -0.013466 
943822379271148 0.004122 0.009518 -0.013466 
943822398180523 0.004122 0.009518 -0.013466 
943822417089898 0.004122 0.009518 -0.013466 
943822435999273 0.004122 0.009518 -0.013466 
943822454908648 0.004122 0.009518 -0.013466 
943822473818023 0.004122 0.009518 -0.013466 
943822492727398 0.004122 0.009518 -0.013466 
943822511636773 0.004122 0.009518 -0.013466 
943822530546096 0.004122 0.009518 -0.013466 
943822549455471 0.004122 0.009518 -0.013466 
943822568364846 0.004122 0.009518 -0.013466 
943822587274221 0.004122 0.009518 -0.013466 
943822606183596 0.004122 0.009518 -0.013466 
943822625092971 0.004122 0.009518 -0.013466 
943822644002346 0.004122 0.009518 -0.013466 
943822662911721 0.004122 0.009518 -0.013466 
943822681821096 0.004122 0.009518 -0.013466 
943822700730471 0.004122 0.009518 -0.013466 
943822719639846 0.004122 0.009518 -0.013466 
943822738549221 0.004122 0.009518 -0.013466 
943822757458596 0.004122 0.009518 -0.013466 
943822776367971 0.004122 0.009518 -0.013466 
943822795277346 0.004122 0.009518 -0.013466 
943822814186721 0.004122 0.009518 -0.013466 
943822833096096 0.004122 0.009518 -0.013466 
943822852005471 0.004122 0.009518 -0.013466 
943822870914846 0.004122 0.009518 -0.013466 
943822889824221 0.004122 0.009518 -0.013466 
943822908733596 0.004122 0.009518 -0.013466 
943822927642971 0.004122 0.009518 -0.013466 
943822946552346 0.004122 0.009518 -0.013466 
943822965461721 0.004122 0.009518 -0.013466 
943822984371096 0.004122 0.009518 -0.013466 
943823003280471 0.004122 0.009518 -0.013466 
943823022189846 0.004122 0.009518 -0.013466 
943823041099169 0.004122 0.009518 -0.013466 
943823060008544 0.004122 0.009518 -0.013466 
943823078917919 0.004122 0.009518 -0.013466 
943823097827294 0.004122 0.009518 -0.013466 
943823116736669 0.004122 0.009518 -0.013466 
943823135646044 0.004122 0.009518 -0.013466 
943823154555419 0.004122 0.009518 -0.013466 
943823173464794 0.004122 0.009518 -0.013466 
943823192374169 0.004122 0.009518 -0.013466 
943823211283544 0.004122 0.009518 -0.013466 
943823230192919 0.004122 0.009518 -0.013466 
943823249102294 0.004122 0.009518 -0.013466 
943823268011669 0.004122 0.009518 -0.013466 
943823286921044 0.004122 0.009518 -0.013466 
943823305830419 0.004122 0.009518 -0.013466 
943823324739794 0.004122 0.009518 -0.013466 
943823343649169 0.004122 0.009518 -0.013466 
943823362558544 0.004122 0.009518 -0.013466 
943823381467919 0.004122 0.009518 -0.013466 
943823400377242 0.004122 0.009518 -0.013466 
943823419286617 0.004122 0.009518 -0.013466 
943823438195992 0.004122 0.009518 -0.013466 
943823457105367 0.004122 0.009518 -0.013466 
943823476014742 0.004122 0.009518 -0.013466 
943823494924117 0.004122 0.009518 -0.013466 
943823513833492 0.004122 0.009518 -0.013466 
943823532742867 0.004122 0.009518 -0.013466 
943823551652242 0.004122 0.009518 -0.013466 
943823570561617 0.004122 0.009518 -0.013466 
943823589470992 0.004122 0.009518 -0.013466 
943823608380367 0.004122 0.009518 -0.013466 
943823627289742 0.004122 0.009518 -0.013466 
943823646199117 0.004122 0.009518 -0.013466 
943823665108440 0.004122 0.009518 -0.013466 
943823684017815 0.004122 0.009518 -0.013466 
943823702927190 0.004122 0.009518 -0.013466 
943823721836565 0.004122 0.009518 -0.013466 
943823740745940 0.004122 0.009518 -0.013466 
943823759655315 0.004122 0.009518 -0.013466 
943823778564690 0.004122 0.009518 -0.013466 
943823797474065 0.004122 0.009518 -0.013466 
943823816383440 0.004122 0.009518 -0.013466 
943823835292815 0.004122 0.009518 -0.013466 
943823854202190 0.004122 0.009518 -0.013466 
943823873111513 0.004122 0.009518 -0.013466 
943823892020888 0.004122 0.009518 -0.013466 
943823910930263 0.004122 0.009518 -0.013466 
943823929839638 0.004122 0.009518 -0.013466 
943823948749013 0.004122 0.009518 -0.013466 
943823967658388 0.004122 0.009518 -0.013466 
943823986567763 0.004122 0.009518 -0.013466 
943824005477138 0.004122 0.009518 -0.013466 
943824024386513 0.004122 0.009518 -0.013466 
943824043295888 0.004122 0.009518 -0.013466 
943824062205210 0.004122 0.009518 -0.013466 
943824081114585 0.004122 0.009518 -0.013466 
943824100023960 0.004122 0.009518 -0.013466 
943824118933335 0.004122 0.009518 -0.013466 
943824137842710 0.004122 0.009518 -0.013466 
943824156752085 0.004122 0.009518 -0.013466 
943824175661460 0.004122 0.009518 -0.013466 
943824194570783 0.004122 0.009518 -0.013466 
943824213480158 0.004122 0.009518 -0.013466 
943824232389533 0.004122 0.009518 -0.013466 
943824251298908 0.004122 0.009518 -0.013466 
943824270208283 0.004122 0.009518 -0.013466 
943824289117658 0.004122 0.009518 -0.013466 
943824308027033 0.004122 0.009518 -0.013466 
943824326936408 0.004122 0.009518 -0.013466 
943824345845731 0.004122 0.009518 -0.013466 
943824364755106 0.004122 0.009518 -0.013466 
943824383664481 0.004122 0.009518 -0.013466 
943824402573856 0.004122 0.009518 -0.013466 
943824421483231 0.004122 0.009518 -0.013466 
943824440392606 0.004122 0.009518 -0.013466 
943824459301929 0.004122 0.009518 -0.013466 
943824478211304 0.004122 0.009518 -0.013466 
943824497120679 0.004122 0.009518 -0.013466 
943824516030054 0.004122 0.009518 -0.013466 
943824534939429 0.004122 0.009518 -0.013466 
943824553848752 0.004122 0.009518 -0.013466 
943824572758127 0.004122 0.009518 -0.013466 
943824591667502 0.004122 0.009518 -0.013466 
943824610576877 0.004122 0.009518 -0.013466 
943824629486252 0.004122 0.009518 -0.013466 
943824648395575 0.004122 0.009518 -0.013466 
943824667304950 0.004122 0.009518 -0.013466 
943824686214325 0.004122 0.009518 -0.013466 
943824705123700 0.004122 0.009518 -0.013466 
943824724033075 0.004122 0.009518 -0.013466 
943824742942398 0.004122 0.009518 -0.013466 
943824761851773 0.004122 0.009518 -0.013466 
943824780761148 0.004122 0.009518 -0.013466 
943824799670523 0.004122 0.009518 -0.013466 
943824818579846 0.004122 0.009518 -0.013466 
943824837489221 0.004122 0.009518 -0.013466 
943824856398596 0.004122 0.009518 -0.013466 
943824875307971 0.004122 0.009518 -0.013466 
943824894217346 0.004122 0.009518 -0.013466 
943824913126669 0.004122 0.009518 -0.013466 
943824932036044 0.004122 0.009518 -0.013466 
943824950945419 0.004122 0.009518 -0.013466 
943824969854794 0.004122 0.009518 -0.013466 
943824988764117 0.004122 0.009518 -0.013466 
943825007673492 0.004122 0.009518 -0.013466 
943825026582867 0.004122 0.009518 -0.013466 
943825045492242 0.004122 0.009518 -0.013466 
943825064401565 0.004122 0.009518 -0.013466 
943825083310940 0.004122 0.009518 -0.013466 
943825102220315 0.004122 0.009518 -0.013466 
943825121129690 0.004122 0.009518 -0.013466 
943825140039013 0.004122 0.009518 -0.013466 
943825158948388 0.004122 0.009518 -0.013466 
943825177857763 0.004122 0.009518 -0.013466 
943825196767085 0.004122 0.009518 -0.013466 
943825215676460 0.004122 0.009518 -0.013466 
943825234585835 0.004122 0.009518 -0.013466 
943825253495210 0.004122 0.009518 -0.013466 
943825272404533 0.004122 0.009518 -0.013466 
943825291313908 0.004122 0.009518 -0.013466 
943825310223283 0.004122 0.009518 -0.013466 
943825329132606 0.004122 0.009518 -0.013466 
943825348041981 0.004122 0.009518 -0.013466 
943825366951356 0.004122 0.009518 -0.013466 
943825385860679 0.004122 0.009518 -0.013466 
943825404770054 0.004122 0.009518 -0.013466 
943825423679429 0.004122 0.009518 -0.013466 
943825442588752 0.004122 0.009518 -0.013466 
943825461498127 0.004122 0.009518 -0.013466 
943825480407502 0.004122 0.009518 -0.013466 
943825499316825 0.004122 0.009518 -0.013466 
943825518226200 0.004122 0.009518 -0.013466 
943825537135523 0.004122 0.009518 -0.013466 
943825556044898 0.004122 0.009518 -0.013466 
943825574954273 0.004122 0.009518 -0.013466 
943825593863596 0.004122 0.009518 -0.013466 
943825612772971 0.004122 0.009518 -0.013466 
943825631682294 0.004122 0.009518 -0.013466 
943825650591669 0.004122 0.009518 -0.013466 
943825669501044 0.004122 0.009518 -0.013466 
943825688410367 0.004122 0.009518 -0.013466 
943825707319742 0.004122 0.009518 -0.013466 
943825726229065 0.004122 0.009518 -0.013466 
943825745138440 0.004122 0.009518 -0.013466 
943825764047763 0.004122 0.009518 -0.013466 
943825782957138 0.004122 0.009518 -0.013466 
943825801866513 0.004122 0.009518 -0.013466 
943825820775835 0.004122 0.009518 -0.013466 
943825839685210 0.004122 0.009518 -0.013466 
943825858594533 0.004122 0.009518 -0.013466 
943825877503908 0.004122 0.009518 -0.013466 
943825896413231 0.004122 0.009518 -0.013466 
943825915322606 0.004122 0.009518 -0.013466 
943825934231929 0.004122 0.009518 -0.013466 
943825953141304 0.004122 0.009518 -0.013466 
943825972050627 0.004122 0.009518 -0.013466 
943825990960002 0.004122 0.009518 -0.013466 
943826009869325 0.004122 0.009518 -0.013466 
943826028778700 0.004122 0.009518 -0.013466 
943826047688023 0.004122 0.009518 -0.013466 
943826066597398 0.004122 0.009518 -0.013466 
943826085506721 0.004122 0.009518 -0.013466 
943826104416096 0.004122 0.009518 -0.013466 
943826123325419 0.004122 0.009518 -0.013466 
943826142234794 0.004122 0.009518 -0.013466 
943826161144117 0.004122 0.009518 -0.013466 
943826180053440 0.004122 0.009518 -0.013466 
943826198962815 0.004122 0.009518 -0.013466 
943826217872138 0.004122 0.009518 -0.013466 
943826236781513 0.004122 0.009518 -0.013466 
943826255690835 0.004122 0.009518 -0.013466 
943826274600210 0.004122 0.009518 -0.013466 
943826293509533 0.004122 0.009518 -0.013466 
943826312418856 0.004122 0.009518 -0.013466 
943826331328231 0.004122 0.009518 -0.013466 
943826350237554 0.004122 0.009518 -0.013466 
943826369146929 0.004122 0.009518 -0.013466 
943826388056252 0.004122 0.009518 -0.013466 
943826406965627 0.004122 0.009518 -0.013466 
943826425874950 0.004122 0.009518 -0.013466 
943826444784273 0.004122 0.009518 -0.013466 
943826463693648 0.004122 0.009518 -0.013466 
943826482602971 0.004122 0.009518 -0.013466 
943826501512346 0.004122 0.009518 -0.013466 
943826520421669 0.004122 0.009518 -0.013466 
943826539330992 0.004122 0.009518 -0.013466 
943826558240367 0.004122 0.009518 -0.013466 
943826577149690 0.004122 0.009518 -0.013466 
943826596059065 0.004122 0.009518 -0.013466 
943826614968388 0.004122 0.009518 -0.013466 
943826633877710 0.004122 0.009518 -0.013466 
943826652787085 0.004122 0.009518 -0.013466 
943826671696408 0.004122 0.009518 -0.013466 
943826690605731 0.004122 0.009518 -0.013466 
943826709515106 0.004122 0.009518 -0.013466 
943826728424429 0.004122 0.009518 -0.013466 
943826747333752 0.004122 0.009518 -0.013466 
943826766243127 0.004122 0.009518 -0.013466 
943826785152450 0.004122 0.009518 -0.013466 
943826804061773 0.004122 0.009518 -0.013466 
943826822971148 0.004122 0.009518 -0.013466 
943826841880471 0.004122 0.009518 -0.013466 
943826860789794 0.004122 0.009518 -0.013466 
943826879699169 0.004122 0.009518 -0.013466 
943826898608492 0.004122 0.009518 -0.013466 
943826917517815 0.004122 0.009518 -0.013466 
943826936427138 0.004122 0.009518 -0.013466 
943826955336513 0.004122 0.009518 -0.013466 
943826974245835 0.004122 0.009518 -0.013466 
943826993155158 0.004122 0.009518 -0.013466 
943827012064533 0.004122 0.009518 -0.013466 
943827030973856 0.004122 0.009518 -0.013466 
943827049883179 0.004122 0.009518 -0.013466 
943827068792554 0.004122 0.009518 -0.013466 
943827087701877 0.004122 0.009518 -0.013466 
943827106611200 0.004122 0.009518 -0.013466 
943827125520523 0.004122 0.009518 -0.013466 
943827144429898 0.004122 0.009518 -0.013466 
943827163339221 0.004122 0.009518 -0.013466 
943827182248544 0.004122 0.009518 -0.013466 
943827201157919 0.004122 0.009518 -0.013466 
943827220067242 0.004122 0.009518 -0.013466 
943827238976565 0.004122 0.009518 -0.013466 
943827257885888 0.004122 0.009518 -0.013466 
943827276795210 0.004122 0.009518 -0.013466 
943827295704585 0.004122 0.009518 -0.013466 
943827314613908 0.004122 0.009518 -0.013466 
943827333523231 0.004122 0.009518 -0.013466 
943827352432554 0.004122 0.009518 -0.013466 
943827371341929 0.004122 0.009518 -0.013466 
943827390251252 0.004122 0.009518 -0.013466 
943827409160575 0.004122 0.009518 -0.013466 
943827428069898 0.004122 0.009518 -0.013466 
943827446979221 0.004122 0.009518 -0.013466 
943827465888596 0.004122 0.009518 -0.013466 
943827484797919 0.004122 0.009518 -0.013466 
943827503707242 0.004122 0.009518 -0.013466 
943827522616565 0.004122 0.009518 -0.013466 
943827541525888 0.004122 0.009518 -0.013466 
943827560435263 0.004122 0.009518 -0.013466 
943827579344585 0.004122 0.009518 -0.013466 
943827598253908 0.004122 0.009518 -0.013466 
943827617163231 0.004122 0.009518 -0.013466 
943827636072554 0.004122 0.009518 -0.013466 
943827654981877 0.004122 0.009518 -0.013466 
943827673891252 0.004122 0.009518 -0.013466 
943827692800575 0.004122 0.009518 -0.013466 
943827711709898 0.004122 0.009518 -0.013466 
943827730619221 0.004122 0.009518 -0.013466 
943827749528544 0.004122 0.009518 -0.013466 
943827768437867 0.004122 0.009518 -0.013466 
943827787347190 0.004122 0.009518 -0.013466 
943827806256513 0.004122 0.009518 -0.013466 
943827825165888 0.004122 0.009518 -0.013466 
943827844075210 0.004122 0.009518 -0.013466 
943827862984533 0.004122 0.009518 -0.013466 
943827881893856 0.004122 0.009518 -0.013466 
943827900803179 0.004122 0.009518 -0.013466 
943827919712502 0.004122 0.009518 -0.013466 
943827938621825 0.004122 0.009518 -0.013466 
943827957531148 0.004122 0.009518 -0.013466 
943827976440471 0.004122 0.009518 -0.013466 
943827995349846 0.004122 0.009518 -0.013466 
943828014259169 0.004122 0.009518 -0.013466 
943828033168492 0.004122 0.009518 -0.013466 
943828052077815 0.004122 0.009518 -0.013466 
943828070987138 0.004122 0.009518 -0.013466 
943828089896460 0.004122 0.009518 -0.013466 
943828108805783 0.004122 0.009518 -0.013466 
943828127715106 0.004122 0.009518 -0.013466 
943828146624429 0.004122 0.009518 -0.013466 
943828165533752 0.004122 0.009518 -0.013466 
943828184443075 0.004122 0.009518 -0.013466 
943828203352398 0.004122 0.009518 -0.013466 
943828222261721 0.004122 0.009518 -0.013466 
943828241171044 0.004122 0.009518 -0.013466 
943828260080367 0.004122 0.009518 -0.013466 
943828278989690 0.004122 0.009518 -0.013466 
943828297899065 0.004122 0.009518 -0.013466 
943828316808388 0.004122 0.009518 -0.013466 
943828335717658 0.004122 0.009518 -0.013466 
943828354627033 0.004122 0.009518 -0.013466 
943828373536356 0.004122 0.009518 -0.013466 
943828392445679 0.004122 0.009518 -0.013466 
943828411355002 0.004122 0.009518 -0.013466 
943828430264325 0.004122 0.009518 -0.013466 
943828449173648 0.004122 0.009518 -0.013466 
943828468082971 0.004122 0.009518 -0.013466 
943828486992294 0.004122 0.009518 -0.013466 
943828505901617 0.004122 0.009518 -0.013466 
943828524810940 0.004122 0.009518 -0.013466 
943828543720263 0.004122 0.009518 -0.013466 
943828562629585 0.004122 0.009518 -0.013466 
943828581538908 0.004122 0.009518 -0.013466 
943828600448231 0.004122 0.009518 -0.013466 
943828619357554 0.004122 0.009518 -0.013466 
943828638266877 0.004122 0.009518 -0.013466 
943828657176200 0.004122 0.009518 -0.013466 
943828676085523 0.004122 0.009518 -0.013466 
943828694994846 0.004122 0.009518 -0.013466 
943828713904169 0.004122 0.009518 -0.013466 
943828732813492 0.004122 0.009518 -0.013466 
943828751722815 0.004122 0.009518 -0.013466 
943828770632138 0.004122 0.009518 -0.013466 
943828789541460 0.004122 0.009518 -0.013466 
943828808450783 0.004122 0.009518 -0.013466 
943828827360106 0.004122 0.009518 -0.013466 
943828846269429 0.004122 0.009518 -0.013466 
943828865178752 0.004122 0.009518 -0.013466 
943828884088075 0.004122 0.009518 -0.013466 
943828902997398 0.004122 0.009518 -0.013466 
943828921906721 0.004122 0.009518 -0.013466 
943828940816044 0.004122 0.009518 -0.013466 
943828959725367 0.004122 0.009518 -0.013466 
943828978634690 0.004122 0.009518 -0.013466 
943828997544013 0.004122 0.009518 -0.013466 
943829016453335 0.004122 0.009518 -0.013466 
943829035362658 0.004122 0.009518 -0.013466 
943829054271981 0.004122 0.009518 -0.013466 
943829073181304 0.004122 0.009518 -0.013466 
943829092090627 0.004122 0.009518 -0.013466 
943829110999950 0.004122 0.009518 -0.013466 
943829129909221 0.004122 0.009518 -0.013466 
943829148818544 0.004122 0.009518 -0.013466 
943829167727867 0.004122 0.009518 -0.013466 
943829186637190 0.004122 0.009518 -0.013466 
943829205546513 0.004122 0.009518 -0.013466 
943829224455835 0.004122 0.009518 -0.013466 
943829243365158 0.004122 0.009518 -0.013466 
943829262274481 0.004122 0.009518 -0.013466 
943829281183804 0.004122 0.009518 -0.013466 
943829300093127 0.004122 0.009518 -0.013466 
943829319002450 0.004122 0.009518 -0.013466 
943829337911773 0.004122 0.009518 -0.013466 
943829356821096 0.004122 0.009518 -0.013466 
943829375730419 0.004122 0.009518 -0.013466 
943829394639742 0.004122 0.009518 -0.013466 
943829413549065 0.004122 0.009518 -0.013466 
943829432458388 0.004122 0.009518 -0.013466 
943829451367710 0.004122 0.009518 -0.013466 
943829470276981 0.004122 0.009518 -0.013466 
943829489186304 0.004122 0.009518 -0.013466 
943829508095627 0.004122 0.009518 -0.013466 
943829527004950 0.004122 0.009518 -0.013466 
943829545914273 0.004122 0.009518 -0.013466 
943829564823596 0.004122 0.009518 -0.013466 
943829583732919 0.004122 0.009518 -0.013466 
943829602642242 0.004122 0.009518 -0.013466 
943829621551565 0.004122 0.009518 -0.013466 
943829640460888 0.004122 0.009518 -0.013466 
943829659370158 0.004122 0.009518 -0.013466 
943829678279481 0.004122 0.009518 -0.013466 
943829697188804 0.004122 0.009518 -0.013466 
943829716098127 0.004122 0.009518 -0.013466 
943829735007450 0.004122 0.009518 -0.013466 
943829753916773 0.004122 0.009518 -0.013466 
943829772826096 0.004122 0.009518 -0.013466 
943829791735419 0.004122 0.009518 -0.013466 
943829810644742 0.004122 0.009518 -0.013466 
943829829554013 0.004122 0.009518 -0.013466 
943829848463335 0.004122 0.009518 -0.013466 
943829867372658 0.004122 0.009518 -0.013466 
943829886281981 0.004122 0.009518 -0.013466 
943829905191304 0.004122 0.009518 -0.013466 
943829924100627 0.004122 0.009518 -0.013466 
943829943009950 0.004122 0.009518 -0.013466 
943829961919221 0.004122 0.009518 -0.013466 
943829980828544 0.004122 0.009518 -0.013466 
943829999737867 0.004122 0.009518 -0.013466 
943830018647190 0.004122 0.009518 -0.013466 
943830037556513 0.004122 0.009518 -0.013466 
943830056465835 0.004122 0.009518 -0.013466 
943830075375106 0.004122 0.009518 -0.013466 
943830094284429 0.004122 0.009518 -0.013466 
943830113193752 0.004122 0.009518 -0.013466 
943830132103075 0.004122 0.009518 -0.013466 
943830151012398 0.004122 0.009518 -0.013466 
943830169921669 0.004122 0.009518 -0.013466 
943830188830992 0.004122 0.009518 -0.013466 
943830207740315 0.004122 0.009518 -0.013466 
943830226649638 0.004122 0.009518 -0.013466 
943830245558960 0.004122 0.009518 -0.013466 
943830264468231 0.004122 0.009518 -0.013466 
943830283377554 0.004122 0.009518 -0.013466 
943830302286877 0.004122 0.009518 -0.013466 
943830321196200 0.004122 0.009518 -0.013466 
943830340105471 0.004122 0.009518 -0.013466 
943830359014794 0.004122 0.009518 -0.013466 
943830377924117 0.004122 0.009518 -0.013466 
943830396833440 0.004122 0.009518 -0.013466 
943830415742710 0.004122 0.009518 -0.013466 
943830434652033 0.004122 0.009518 -0.013466 
943830453561356 0.004122 0.009518 -0.013466 
943830472470679 0.004122 0.009518 -0.013466 
943830491379950 0.004122 0.009518 -0.013466 
943830510289273 0.004122 0.009518 -0.013466 
943830529198596 0.004122 0.009518 -0.013466 
943830548107919 0.004122 0.009518 -0.013466 
943830567017190 0.004122 0.009518 -0.013466 
943830585926513 0.004122 0.009518 -0.013466 
943830604835835 0.004122 0.009518 -0.013466 
943830623745106 0.004122 0.009518 -0.013466 
943830642654429 0.004122 0.009518 -0.013466 
943830661563752 0.004122 0.009518 -0.013466 
943830680473023 0.004122 0.009518 -0.013466 
943830699382346 0.004122 0.009518 -0.013466 
943830718291669 0.004122 0.009518 -0.013466 
943830737200940 0.004122 0.009518 -0.013466 
943830756110263 0.004122 0.009518 -0.013466 
943830775019585 0.004122 0.009518 -0.013466 
943830793928856 0.004122 0.009518 -0.013466 
943830812838179 0.004122 0.009518 -0.013466 
943830831747450 0.004122 0.009518 -0.013466 
943830850656773 0.004122 0.009518 -0.013466 
943830869566096 0.004122 0.009518 -0.013466 
943830888475367 0.004122 0.009518 -0.013466 
943830907384690 0.004122 0.009518 -0.013466 
943830926294013 0.004122 0.009518 -0.013466 
943830945203283 0.004122 0.009518 -0.013466 
943830964112606 0.004122 0.009518 -0.013466 
943830983021877 0.004122 0.009518 -0.013466 
943831001931200 0.004122 0.009518 -0.013466 
943831020840523 0.004122 0.009518 -0.013466 
943831039749794 0.004122 0.009518 -0.013466 
943831058659117 0.004122 0.009518 -0.013466 
943831077568388 0.004122 0.009518 -0.013466 
943831096477710 0.004122 0.009518 -0.013466 
943831115387322 0.004122 0.009518 -0.013466 
943831134297687 0.004122 0.009518 -0.013466 
943831153206958 0.004122 0.009518 -0.013466 
943831172116281 0.004122 0.009518 -0.013466 
943831191025604 0.004122 0.009518 -0.013466 
943831209934875 0.004122 0.009518 -0.013466 
943831228844198 0.004122 0.009518 -0.013466 
943831247753468 0.004122 0.009518 -0.013466 
943831266662791 0.004122 0.009518 -0.013466 
943831285572062 0.004122 0.009518 -0.013466 
943831304481333 0.004122 0.009518 -0.013466 
943831323390656 0.004122 0.009518 -0.013466 
943831342299979 0.004122 0.009518 -0.013466 
943831361209250 0.004122 0.009518 -0.013466 
943831380118573 0.004122 0.009518 -0.013466 
943831399027843 0.004122 0.009518 -0.013466 
943831417937166 0.004122 0.009518 -0.013466 
943831436846437 0.004122 0.009518 -0.013466 
943831455755708 0.004122 0.009518 -0.013466 
943831474665031 0.004122 0.009518 -0.013466 
943831493574302 0.004122 0.009518 -0.013466 
943831512483625 0.004122 0.009518 -0.013466 
943831531392896 0.004122 0.009518 -0.013466 
943831550302218 0.004122 0.009518 -0.013466 
943831569211489 0.004122 0.009518 -0.013466 
943831588120812 0.004122 0.009518 -0.013466 
943831607030083 0.004122 0.009518 -0.013466 
943831625939354 0.004122 0.009518 -0.013466 
943831644848677 0.004122 0.009518 -0.013466 
943831663757948 0.004122 0.009518 -0.013466 
943831682667271 0.004122 0.009518 -0.013466 
943831701576541 0.004122 0.009518 -0.013466 
943831720485812 0.004122 0.009518 -0.013466 
943831739395135 0.004122 0.009518 -0.013466 
943831758304406 0.004122 0.009518 -0.013466 
943831777213729 0.004122 0.009518 -0.013466 
943831796123000 0.004122 0.009518 -0.013466 
943831815032271 0.004122 0.009518 -0.013466 
943831833941593 0.004122 0.009518 -0.013466 
943831852850864 0.004122 0.009518 -0.013466 
943831871760135 0.004122 0.009518 -0.013466 
943831890669458 0.004122 0.009518 -0.013466 
943831909578729 0.004122 0.009518 -0.013466 
943831928488000 0.004122 0.009518 -0.013466 
943831947397323 0.004122 0.009518 -0.013466 
943831966306593 0.004122 0.009518 -0.013466 
943831985215916 0.004122 0.009518 -0.013466 
943832004125187 0.004122 0.009518 -0.013466 
943832023034458 0.004122 0.009518 -0.013466 
943832041943781 0.004122 0.009518 -0.013466 
943832060853052 0.004122 0.009518 -0.013466 
943832079762323 0.004122 0.009518 -0.013466 
943832098671646 0.004122 0.009518 -0.013466 
943832117580916 0.004122 0.009518 -0.013466 
943832136490187 0.004122 0.009518 -0.013466 
943832155399510 0.004122 0.009518 -0.013466 
943832174308781 0.004122 0.009518 -0.013466 
943832193218052 0.004122 0.009518 -0.013466 
943832212127375 0.004122 0.009518 -0.013466 
943832231036646 0.004122 0.009518 -0.013466 
943832249945916 0.004122 0.009518 -0.013466 
943832268855239 0.004122 0.009518 -0.013466 
943832287764510 0.004122 0.009518 -0.013466 
943832306673781 0.004122 0.009518 -0.013466 
943832325583104 0.004122 0.009518 -0.013466 
943832344492375 0.004122 0.009518 -0.013466 
943832363401646 0.004122 0.009518 -0.013466 
943832382310916 0.004122 0.009518 -0.013466 
943832401220239 0.004122 0.009518 -0.013466 
943832420129510 0.004122 0.009518 -0.013466 
943832439038781 0.004122 0.009518 -0.013466 
943832457948104 0.004122 0.009518 -0.013466 
943832476857375 0.004122 0.009518 -0.013466 
943832495766646 0.004122 0.009518 -0.013466 
943832514675916 0.004122 0.009518 -0.013466 
943832533585239 0.004122 0.009518 -0.013466 
943832552494510 0.004122 0.009518 -0.013466 
943832571403781 0.004122 0.009518 -0.013466 
943832590313104 0.004122 0.009518 -0.013466 
943832609222375 0.004122 0.009518 -0.013466 
943832628131646 0.004122 0.009518 -0.013466 
943832647040916 0.004122 0.009518 -0.013466 
943832665950239 0.004122 0.009518 -0.013466 
943832684859510 0.004122 0.009518 -0.013466 
943832703768781 0.004122 0.009518 -0.013466 
943832722678052 0.004122 0.009518 -0.013466 
943832741587375 0.004122 0.009518 -0.013466 
943832760496646 0.004122 0.009518 -0.013466 
943832779405916 0.004122 0.009518 -0.013466 
943832798315187 0.004122 0.009518 -0.013466 
943832817224510 0.004122 0.009518 -0.013466 
943832836133781 0.004122 0.009518 -0.013466 
943832855043052 0.004122 0.009518 -0.013466 
943832873952323 0.004122 0.009518 -0.013466 
943832892861593 0.004122 0.009518 -0.013466 
943832911770916 0.004122 0.009518 -0.013466 
943832930680187 0.004122 0.009518 -0.013466 
943832949589458 0.004122 0.009518 -0.013466 
943832968498729 0.004122 0.009518 -0.013466 
943832987408052 0.004122 0.009518 -0.013466 
943833006317323 0.004122 0.009518 -0.013466 
943833025226593 0.004122 0.009518 -0.013466 
943833044135864 0.004122 0.009518 -0.013466 
943833063045135 0.004122 0.009518 -0.013466 
943833081954458 0.004122 0.009518 -0.013466 
943833100863729 0.004122 0.009518 -0.013466 
943833119773000 0.004122 0.009518 -0.013466 
943833138682271 0.004122 0.009518 -0.013466 
943833157591541 0.004122 0.009518 -0.013466 
943833176500812 0.004122 0.009518 -0.013466 
943833195410135 0.004122 0.009518 -0.013466 
943833214319406 0.004122 0.009518 -0.013466 
943833233228677 0.004122 0.009518 -0.013466 
943833252137948 0.004122 0.009518 -0.013466 
943833271047218 0.004122 0.009518 -0.013466 
943833289956489 0.004122 0.009518 -0.013466 
943833308865760 0.004122 0.009518 -0.013466 
943833327775083 0.004122 0.009518 -0.013466 
943833346684354 0.004122 0.009518 -0.013466 
943833365593625 0.004122 0.009518 -0.013466 
943833384502896 0.004122 0.009518 -0.013466 
943833403412166 0.004122 0.009518 -0.013466 
943833422321437 0.004122 0.009518 -0.013466 
943833441230708 0.004122 0.009518 -0.013466 
943833460140031 0.004122 0.009518 -0.013466 
943833479049302 0.004122 0.009518 -0.013466 
943833497958573 0.004122 0.009518 -0.013466 
943833516867843 0.004122 0.009518 -0.013466 
943833535777114 0.004122 0.009518 -0.013466 
943833554686385 0.004122 0.009518 -0.013466 
943833573595656 0.004122 0.009518 -0.013466 
943833592504927 0.004122 0.009518 -0.013466 
943833611414198 0.004122 0.009518 -0.013466 
943833630323468 0.004122 0.009518 -0.013466 
943833649232739 0.004122 0.009518 -0.013466 
943833668142062 0.004122 0.009518 -0.013466 
943833687051333 0.004122 0.009518 -0.013466 
943833705960604 0.004122 0.009518 -0.013466 
943833724869875 0.004122 0.009518 -0.013466 
943833743779146 0.004122 0.009518 -0.013466 
943833762688416 0.004122 0.009518 -0.013466 
943833781597687 0.004122 0.009518 -0.013466 
943833800506958 0.004122 0.009518 -0.013466 
943833819416229 0.004122 0.009518 -0.013466 
943833838325500 0.004122 0.009518 -0.013466 
943833857234771 0.004122 0.009518 -0.013466 
943833876144041 0.004122 0.009518 -0.013466 
943833895053312 0.004122 0.009518 -0.013466 
943833913962583 0.004122 0.009518 -0.013466 
943833932871854 0.004122 0.009518 -0.013466 
943833951781125 0.004122 0.009518 -0.013466 
943833970690396 0.004122 0.009518 -0.013466 
943833989599666 0.004122 0.009518 -0.013466 
943834008508937 0.004122 0.009518 -0.013466 
943834027418208 0.004122 0.009518 -0.013466 
943834046327479 0.004122 0.009518 -0.013466 
943834065236750 0.004122 0.009518 -0.013466 
943834084146021 0.004122 0.009518 -0.013466 
943834103055291 0.004122 0.009518 -0.013466 
943834121964562 0.004122 0.009518 -0.013466 
943834140873833 0.004122 0.009518 -0.013466 
943834159783104 0.004122 0.009518 -0.013466 
943834178692375 0.004122 0.009518 -0.013466 
943834197601646 0.004122 0.009518 -0.013466 
943834216510916 0.004122 0.009518 -0.013466 
943834235420187 0.004122 0.009518 -0.013466 
943834254329458 0.004122 0.009518 -0.013466 
943834273238729 0.004122 0.009518 -0.013466 
943834292148000 0.004122 0.009518 -0.013466 
943834311057271 0.004122 0.009518 -0.013466 
943834329966541 0.004122 0.009518 -0.013466 
943834348875812 0.004122 0.009518 -0.013466 
943834367785083 0.004122 0.009518 -0.013466 
943834386694354 0.004122 0.009518 -0.013466 
943834405603625 0.004122 0.009518 -0.013466 
943834424512896 0.004122 0.009518 -0.013466 
943834443422114 0.004122 0.009518 -0.013466 
943834462331385 0.004122 0.009518 -0.013466 
943834481240656 0.004122 0.009518 -0.013466 
943834500149927 0.004122 0.009518 -0.013466 
943834519059198 0.004122 0.009518 -0.013466 
943834537968468 0.004122 0.009518 -0.013466 
943834556877739 0.004122 0.009518 -0.013466 
943834575787010 0.004122 0.009518 -0.013466 
943834594696281 0.004122 0.009518 -0.013466 
943834613605552 0.004122 0.009518 -0.013466 
943834632514823 0.004122 0.009518 -0.013466 
943834651424041 0.004122 0.009518 -0.013466 
943834670333312 0.004122 0.009518 -0.013466 
943834689242583 0.004122 0.009518 -0.013466 
943834708151854 0.004122 0.009518 -0.013466 
943834727061125 0.004122 0.009518 -0.013466 
943834745970396 0.004122 0.009518 -0.013466 
943834764879666 0.004122 0.009518 -0.013466 
943834783788937 0.004122 0.009518 -0.013466 
943834802698208 0.004122 0.009518 -0.013466 
943834821607427 0.004122 0.009518 -0.013466 
943834840516698 0.004122 0.009518 -0.013466 
943834859425968 0.004122 0.009518 -0.013466 
943834878335239 0.004122 0.009518 -0.013466 
943834897244510 0.004122 0.009518 -0.013466 
943834916153781 0.004122 0.009518 -0.013466 
943834935063052 0.004122 0.009518 -0.013466 
943834953972323 0.004122 0.009518 -0.013466 
943834972881541 0.004122 0.009518 -0.013466 
943834991790812 0.004122 0.009518 -0.013466 
943835010700083 0.004122 0.009518 -0.013466 
943835029609354 0.004122 0.009518 -0.013466 
943835048518625 0.004122 0.009518 -0.013466 
943835067427843 0.004122 0.009518 -0.013466 
943835086337114 0.004122 0.009518 -0.013466 
943835105246385 0.004122 0.009518 -0.013466 
943835124155656 0.004122 0.009518 -0.013466 
943835143064927 0.004122 0.009518 -0.013466 
943835161974198 0.004122 0.009518 -0.013466 
943835180883416 0.004122 0.009518 -0.013466 
943835199792687 0.004122 0.009518 -0.013466 
943835218701958 0.004122 0.009518 -0.013466 
943835237611229 0.004122 0.009518 -0.013466 
943835256520500 0.004122 0.009518 -0.013466 
943835275429771 0.004122 0.009518 -0.013466 
943835294338989 0.004122 0.009518 -0.013466 
943835313248260 0.004122 0.009518 -0.013466 
943835332157531 0.004122 0.009518 -0.013466 
943835351066802 0.004122 0.009518 -0.013466 
943835369976021 0.004122 0.009518 -0.013466 
943835388885291 0.004122 0.009518 -0.013466 
943835407794562 0.004122 0.009518 -0.013466 
943835426703833 0.004122 0.009518 -0.013466 
943835445613104 0.004122 0.009518 -0.013466 
943835464522323 0.004122 0.009518 -0.013466 
943835483431593 0.004122 0.009518 -0.013466 
943835502340864 0.004122 0.009518 -0.013466 
943835521250083 0.004122 0.009518 -0.013466 
943835540159354 0.004122 0.009518 -0.013466 
943835559068625 0.004122 0.009518 -0.013466 
943835577977896 0.004122 0.009518 -0.013466 
943835596887114 0.004122 0.009518 -0.013466 
943835615796385 0.004122 0.009518 -0.013466 
943835634705656 0.004122 0.009518 -0.013466 
943835653614927 0.004122 0.009518 -0.013466 
943835672524146 0.004122 0.009518 -0.013466 
943835691433416 0.004122 0.009518 -0.013466 
943835710342687 0.004122 0.009518 -0.013466 
943835729251906 0.004122 0.009518 -0.013466 
943835748161177 0.004122 0.009518 -0.013466 
943835767070448 0.004122 0.009518 -0.013466 
943835785979666 0.004122 0.009518 -0.013466 
943835804888937 0.004122 0.009518 -0.013466 
943835823798208 0.004122 0.009518 -0.013466 
943835842707479 0.004122 0.009518 -0.013466 
943835861616698 0.004122 0.009518 -0.013466 
943835880525968 0.004122 0.009518 -0.013466 
943835899435239 0.004122 0.009518 -0.013466 
943835918344458 0.004122 0.009518 -0.013466 
943835937253729 0.004122 0.009518 -0.013466 
943835956162948 0.004122 0.009518 -0.013466 
943835975072218 0.004122 0.009518 -0.013466 
943835993981489 0.004122 0.009518 -0.013466 
943836012890708 0.004122 0.009518 -0.013466 
943836031799979 0.004122 0.009518 -0.013466 
943836050709250 0.004122 0.009518 -0.013466 
943836069618468 0.004122 0.009518 -0.013466 
943836088527739 0.004122 0.009518 -0.013466 
943836107437010 0.004122 0.009518 -0.013466 
943836126346229 0.004122 0.009518 -0.013466 
943836145255500 0.004122 0.009518 -0.013466 
943836164164718 0.004122 0.009518 -0.013466 
943836183073989 0.004122 0.009518 -0.013466 
943836201983260 0.004122 0.009518 -0.013466 
943836220892479 0.004122 0.009518 -0.013466 
943836239801750 0.004122 0.009518 -0.013466 
943836258710968 0.004122 0.009518 -0.013466 
943836277620239 0.004122 0.009518 -0.013466 
943836296529510 0.004122 0.009518 -0.013466 
943836315438729 0.004122 0.009518 -0.013466 
943836334348000 0.004122 0.009518 -0.013466 
943836353257218 0.004122 0.009518 -0.013466 
943836372166489 0.004122 0.009518 -0.013466 
943836391075760 0.004122 0.009518 -0.013466 
943836409984979 0.004122 0.009518 -0.013466 
943836428894250 0.004122 0.009518 -0.013466 
943836447803468 0.004122 0.009518 -0.013466 
943836466712739 0.004122 0.009518 -0.013466 
943836485622010 0.004122 0.009518 -0.013466 
943836504531229 0.004122 0.009518 -0.013466 
943836523440500 0.004122 0.009518 -0.013466 
943836542349718 0.004122 0.009518 -0.013466 
943836561258989 0.004122 0.009518 -0.013466 
943836580168208 0.004122 0.009518 -0.013466 
943836599077479 0.004122 0.009518 -0.013466 
943836617986698 0.004122 0.009518 -0.013466 
943836636895968 0.004122 0.009518 -0.013466 
943836655805187 0.004122 0.009518 -0.013466 
943836674714458 0.004122 0.009518 -0.013466 
943836693623729 0.004122 0.009518 -0.013466 
943836712532948 0.004122 0.009518 -0.013466 
943836731442218 0.004122 0.009518 -0.013466 
943836750351437 0.004122 0.009518 -0.013466 
943836769260708 0.004122 0.009518 -0.013466 
943836788169927 0.004122 0.009518 -0.013466 
943836807079198 0.004122 0.009518 -0.013466 
943836825988416 0.004122 0.009518 -0.013466 
943836844897687 0.004122 0.009518 -0.013466 
943836863806906 0.004122 0.009518 -0.013466 
943836882716177 0.004122 0.009518 -0.013466 
943836901625396 0.004122 0.009518 -0.013466 
943836920534666 0.004122 0.009518 -0.013466 
943836939443885 0.004122 0.009518 -0.013466 
943836958353156 0.004122 0.009518 -0.013466 
943836977262375 0.004122 0.009518 -0.013466 
943836996171646 0.004122 0.009518 -0.013466 
943837015080864 0.004122 0.009518 -0.013466 
943837033990083 0.004122 0.009518 -0.013466 
943837052899354 0.004122 0.009518 -0.013466 
943837071808573 0.004122 0.009518 -0.013466 
943837090717843 0.004122 0.009518 -0.013466 
943837109627062 0.004122 0.009518 -0.013466 
943837128536333 0.004122 0.009518 -0.013466 
943837147445552 0.004122 0.009518 -0.013466 
943837166354823 0.004122 0.009518 -0.013466 
943837185264041 0.004122 0.009518 -0.013466 
943837204173312 0.004122 0.009518 -0.013466 
943837223082531 0.004122 0.009518 -0.013466 
943837241991802 0.004122 0.009518 -0.013466 
943837260901021 0.004122 0.009518 -0.013466 
943837279810291 0.004122 0.009518 -0.013466 
943837298719510 0.004122 0.009518 -0.013466 
943837317628729 0.004122 0.009518 -0.013466 
943837336538000 0.004122 0.009518 -0.013466 
943837355447218 0.004122 0.009518 -0.013466 
943837374356489 0.004122 0.009518 -0.013466 
943837393265708 0.004122 0.009518 -0.013466 
943837412174979 0.004122 0.009518 -0.013466 
943837431084198 0.004122 0.009518 -0.013466 
943837449993468 0.004122 0.009518 -0.013466 
943837468902687 0.004122 0.009518 -0.013466 
943837487811906 0.004122 0.009518 -0.013466 
943837506721177 0.004122 0.009518 -0.013466 
943837525630396 0.004122 0.009518 -0.013466 
943837544539666 0.004122 0.009518 -0.013466 
943837563448885 0.004122 0.009518 -0.013466 
943837582358104 0.004122 0.009518 -0.013466 
943837601267375 0.004122 0.009518 -0.013466 
943837620176593 0.004122 0.009518 -0.013466 
943837639085864 0.004122 0.009518 -0.013466 
943837657995083 0.004122 0.009518 -0.013466 
943837676904302 0.004122 0.009518 -0.013466 
943837695813573 0.004122 0.009518 -0.013466 
943837714722791 0.004122 0.009518 -0.013466 
943837733632062 0.004122 0.009518 -0.013466 
943837752541281 0.004122 0.009518 -0.013466 
943837771450500 0.004122 0.009518 -0.013466 
943837790359771 0.004122 0.009518 -0.013466 
943837809268989 0.004122 0.009518 -0.013466 
943837828178260 0.004122 0.009518 -0.013466 
943837847087479 0.004122 0.009518 -0.013466 
943837865996698 0.004122 0.009518 -0.013466 
943837884905968 0.004122 0.009518 -0.013466 
943837903815187 0.004122 0.009518 -0.013466 
943837922724406 0.004122 0.009518 -0.013466 
943837941633677 0.004122 0.009518 -0.013466 
943837960542896 0.004122 0.009518 -0.013466 
943837979452114 0.004122 0.009518 -0.013466 
943837998361385 0.004122 0.009518 -0.013466 
943838017270604 0.004122 0.009518 -0.013466 
943838036179823 0.004122 0.009518 -0.013466 
943838055089093 0.004122 0.009518 -0.013466 
943838073998312 0.004122 0.009518 -0.013466 
943838092907531 0.004122 0.009518 -0.013466 
943838111816802 0.004122 0.009518 -0.013466 
943838130726021 0.004122 0.009518 -0.013466 
943838149635239 0.004122 0.009518 -0.013466 
943838168544510 0.004122 0.009518 -0.013466 
943838187453729 0.004122 0.009518 -0.013466 
943838206362948 0.004122 0.009518 -0.013466 
943838225272218 0.004122 0.009518 -0.013466 
943838244181437 0.004122 0.009518 -0.013466 
943838263090656 0.004122 0.009518 -0.013466 
943838281999927 0.004122 0.009518 -0.013466 
943838300909146 0.004122 0.009518 -0.013466 
943838319818364 0.004122 0.009518 -0.013466 
943838338727635 0.004122 0.009518 -0.013466 
943838357636854 0.004122 0.009518 -0.013466 
943838376546073 0.004122 0.009518 -0.013466 
943838395455291 0.004122 0.009518 -0.013466 
943838414364562 0.004122 0.009518 -0.013466 
943838433273781 0.004122 0.009518 -0.013466 
943838452183000 0.004122 0.009518 -0.013466 
943838471092271 0.004122 0.009518 -0.013466 
943838490001489 0.004122 0.009518 -0.013466 
943838508910708 0.004122 0.009518 -0.013466 
943838527819927 0.004122 0.009518 -0.013466 
943838546729198 0.004122 0.009518 -0.013466 
943838565638416 0.004122 0.009518 -0.013466 
943838584547635 0.004122 0.009518 -0.013466 
943838603456854 0.004122 0.009518 -0.013466 
943838622366125 0.004122 0.009518 -0.013466 
943838641275343 0.004122 0.009518 -0.013466 
943838660184562 0.004122 0.009518 -0.013466 
943838679093781 0.004122 0.009518 -0.013466 
943838698003052 0.004122 0.009518 -0.013466 
943838716912271 0.004122 0.009518 -0.013466 
943838735821489 0.004122 0.009518 -0.013466 
943838754730708 0.004122 0.009518 -0.013466 
943838773639927 0.004122 0.009518 -0.013466 
943838792549198 0.004122 0.009518 -0.013466 
943838811458416 0.004122 0.009518 -0.013466 
943838830367635 0.004122 0.009518 -0.013466 
943838849276854 0.004122 0.009518 -0.013466 
943838868186125 0.004122 0.009518 -0.013466 
943838887095343 0.004122 0.009518 -0.013466 
943838906004562 0.004122 0.009518 -0.013466 
943838924913781 0.004122 0.009518 -0.013466 
943838943823000 0.004122 0.009518 -0.013466 
943838962732271 0.004122 0.009518 -0.013466 
943838981641489 0.004122 0.009518 -0.013466 
943839000550708 0.004122 0.009518 -0.013466 
943839019459927 0.004122 0.009518 -0.013466 
943839038369146 0.004122 0.009518 -0.013466 
943839057278364 0.004122 0.009518 -0.013466 
943839076187635 0.004122 0.009518 -0.013466 
943839095096854 0.004122 0.009518 -0.013466 
943839114006073 0.004122 0.009518 -0.013466 
943839132915291 0.004122 0.009518 -0.013466 
943839151824510 0.004122 0.009518 -0.013466 
943839170733729 0.004122 0.009518 -0.013466 
943839189642948 0.004122 0.009518 -0.013466 
943839208552166 0.004122 0.009518 -0.013466 
943839227461437 0.004122 0.009518 -0.013466 
943839246370656 0.004122 0.009518 -0.013466 
943839265279875 0.004122 0.009518 -0.013466 
943839284189093 0.004122 0.009518 -0.013466 
943839303098312 0.004122 0.009518 -0.013466 
943839322007531 0.004122 0.009518 -0.013466 
943839340916750 0.004122 0.009518 -0.013466 
943839359825968 0.004122 0.009518 -0.013466 
943839378735187 0.004122 0.009518 -0.013466 
943839397644406 0.004122 0.009518 -0.013466 
943839416553625 0.004122 0.009518 -0.013466 
943839435462843 0.004122 0.009518 -0.013466 
943839454372062 0.004122 0.009518 -0.013466 
943839473281281 0.004122 0.009518 -0.013466 
943839492190500 0.004122 0.009518 -0.013466 
943839511099718 0.004122 0.009518 -0.013466 
943839530008937 0.004122 0.009518 -0.013466 
943839548918156 0.004122 0.009518 -0.013466 
943839567827375 0.004122 0.009518 -0.013466 
943839586736593 0.004122 0.009518 -0.013466 
943839605645812 0.004122 0.009518 -0.013466 
943839624555031 0.004122 0.009518 -0.013466 
943839643464250 0.004122 0.009518 -0.013466 
943839662373468 0.004122 0.009518 -0.013466 
943839681282687 0.004122 0.009518 -0.013466 
943839700191906 0.004122 0.009518 -0.013466 
943839719101125 0.004122 0.009518 -0.013466 
943839738010343 0.004122 0.009518 -0.013466 
943839756919562 0.004122 0.009518 -0.013466 
943839775828781 0.004122 0.009518 -0.013466 
943839794738000 0.004122 0.009518 -0.013466 
943839813647218 0.004122 0.009518 -0.013466 
943839832556437 0.004122 0.009518 -0.013466 
943839851465656 0.004122 0.009518 -0.013466 
943839870374875 0.004122 0.009518 -0.013466 
943839889284093 0.004122 0.009518 -0.013466 
943839908193312 0.004122 0.009518 -0.013466 
943839927102531 0.004122 0.009518 -0.013466 
943839946011750 0.004122 0.009518 -0.013466 
943839964920968 0.004122 0.009518 -0.013466 
943839983830187 0.004122 0.009518 -0.013466 
943840002739354 0.004122 0.009518 -0.013466 
943840021648573 0.004122 0.009518 -0.013466 
943840040557791 0.004122 0.009518 -0.013466 
943840059467010 0.004122 0.009518 -0.013466 
943840078376229 0.004122 0.009518 -0.013466 
943840097285448 0.004122 0.009518 -0.013466 
943840116194666 0.004122 0.009518 -0.013466 
943840135103885 0.004122 0.009518 -0.013466 
943840154013052 0.004122 0.009518 -0.013466 
943840172922271 0.004122 0.009518 -0.013466 
943840191831489 0.004122 0.009518 -0.013466 
943840210740708 0.004122 0.009518 -0.013466 
943840229649927 0.004122 0.009518 -0.013466 
943840248559146 0.004122 0.009518 -0.013466 
943840267468364 0.004122 0.009518 -0.013466 
943840286377531 0.004122 0.009518 -0.013466 
943840305286750 0.004122 0.009518 -0.013466 
943840324195968 0.004122 0.009518 -0.013466 
943840343105187 0.004122 0.009518 -0.013466 
943840362014406 0.004122 0.009518 -0.013466 
943840380923573 0.004122 0.009518 -0.013466 
943840399832791 0.004122 0.009518 -0.013466 
943840418742010 0.004122 0.009518 -0.013466 
943840437651229 0.004122 0.009518 -0.013466 
943840456560448 0.004122 0.009518 -0.013466 
943840475469614 0.004122 0.009518 -0.013466 
943840494378833 0.004122 0.009518 -0.013466 
943840513288052 0.004122 0.009518 -0.013466 
943840532197271 0.004122 0.009518 -0.013466 
943840551106437 0.004122 0.009518 -0.013466 
943840570015656 0.004122 0.009518 -0.013466 
943840588924875 0.004122 0.009518 -0.013466 
943840607834093 0.004122 0.009518 -0.013466 
943840626743260 0.004122 0.009518 -0.013466 
943840645652479 0.004122 0.009518 -0.013466 
943840664561698 0.004122 0.009518 -0.013466 
943840683470916 0.004122 0.009518 -0.013466 
943840702380083 0.004122 0.009518 -0.013466 
943840721289302 0.004122 0.009518 -0.013466 
943840740198521 0.004122 0.009518 -0.013466 
943840759107687 0.004122 0.009518 -0.013466 
943840778016906 0.004122 0.009518 -0.013466 
943840796926125 0.004122 0.009518 -0.013466 
943840815835291 0.004122 0.009518 -0.013466 
943840834744510 0.004122 0.009518 -0.013466 
943840853653729 0.004122 0.009518 -0.013466 
943840872562896 0.004122 0.009518 -0.013466 
943840891472114 0.004122 0.009518 -0.013466 
943840910381333 0.004122 0.009518 -0.013466 
943840929290500 0.004122 0.009518 -0.013466 
943840948199718 0.004122 0.009518 -0.013466 
943840967108937 0.004122 0.009518 -0.013466 
943840986018104 0.004122 0.009518 -0.013466 
943841004927323 0.004122 0.009518 -0.013466 
943841023836541 0.004122 0.009518 -0.013466 
943841042745708 0.004122 0.009518 -0.013466 
943841061654927 0.004122 0.009518 -0.013466 
943841080564093 0.004122 0.009518 -0.013466 
943841099473312 0.004122 0.009518 -0.013466 
943841118382531 0.004122 0.009518 -0.013466 
943841137291698 0.004122 0.009518 -0.013466 
943841156200916 0.004122 0.009518 -0.013466 
943841175110083 0.004122 0.009518 -0.013466 
943841194019302 0.004122 0.009518 -0.013466 
943841212928521 0.004122 0.009518 -0.013466 
943841231837687 0.004122 0.009518 -0.013466 
943841250746906 0.004122 0.009518 -0.013466 
943841269656073 0.004122 0.009518 -0.013466 
943841288565291 0.004122 0.009518 -0.013466 
943841307474458 0.004122 0.009518 -0.013466 
943841326383677 0.004122 0.009518 -0.013466 
943841345292843 0.004122 0.009518 -0.013466 
943841364202062 0.004122 0.009518 -0.013466 
943841383111229 0.004122 0.009518 -0.013466 
943841402020448 0.004122 0.009518 -0.013466 
943841420929666 0.004122 0.009518 -0.013466 
943841439838833 0.004122 0.009518 -0.013466 
943841458748052 0.004122 0.009518 -0.013466 
943841477657218 0.004122 0.009518 -0.013466 
943841496566437 0.004122 0.009518 -0.013466 
943841515475604 0.004122 0.009518 -0.013466 
943841534384823 0.004122 0.009518 -0.013466 
943841553293989 0.004122 0.009518 -0.013466 
943841572203208 0.004122 0.009518 -0.013466 
943841591112375 0.004122 0.009518 -0.013466 
943841610021593 0.004122 0.009518 -0.013466 
943841628930760 0.004122 0.009518 -0.013466 
943841647839927 0.004122 0.009518 -0.013466 
943841666749146 0.004122 0.009518 -0.013466 
943841685658312 0.004122 0.009518 -0.013466 
943841704567531 0.004122 0.009518 -0.013466 
943841723476698 0.004122 0.009518 -0.013466 
943841742385916 0.004122 0.009518 -0.013466 
943841761295083 0.004122 0.009518 -0.013466 
943841780204302 0.004122 0.009518 -0.013466 
943841799113468 0.004122 0.009518 -0.013466 
943841818022635 0.004122 0.009518 -0.013466 
943841836931854 0.004122 0.009518 -0.013466 
943841855841021 0.004122 0.009518 -0.013466 
943841874750239 0.004122 0.009518 -0.013466 
943841893659406 0.004122 0.009518 -0.013466 
943841912568573 0.004122 0.009518 -0.013466 
943841931477791 0.004122 0.009518 -0.013466 
943841950386958 0.004122 0.009518 -0.013466 
943841969296125 0.004122 0.009518 -0.013466 
943841988205343 0.004122 0.009518 -0.013466 
943842007114510 0.004122 0.009518 -0.013466 
943842026023729 0.004122 0.009518 -0.013466 
943842044932896 0.004122 0.009518 -0.013466 
943842063842062 0.004122 0.009518 -0.013466 
943842082751281 0.004122 0.009518 -0.013466 
943842101660448 0.004122 0.009518 -0.013466 
943842120569614 0.004122 0.009518 -0.013466 
943842139478833 0.004122 0.009518 -0.013466 
943842158388000 0.004122 0.009518 -0.013466 
943842177297166 0.004122 0.009518 -0.013466 
943842196206385 0.004122 0.009518 -0.013466 
943842215115552 0.004122 0.009518 -0.013466 
943842234024718 0.004122 0.009518 -0.013466 
943842252933937 0.004122 0.009518 -0.013466 
943842271843104 0.004122 0.009518 -0.013466 
943842290752271 0.004122 0.009518 -0.013466 
943842309661489 0.004122 0.009518 -0.013466 
943842328570656 0.004122 0.009518 -0.013466 
943842347479823 0.004122 0.009518 -0.013466 
943842366388989 0.004122 0.009518 -0.013466 
943842385298208 0.004122 0.009518 -0.013466 
943842404207375 0.004122 0.009518 -0.013466 
943842423116541 0.004122 0.009518 -0.013466 
943842442025708 0.004122 0.009518 -0.013466 
943842460934927 0.004122 0.009518 -0.013466 
943842479844093 0.004122 0.009518 -0.013466 
943842498753260 0.004122 0.009518 -0.013466 
943842517662427 0.004122 0.009518 -0.013466 
943842536571646 0.004122 0.009518 -0.013466 
943842555480812 0.004122 0.009518 -0.013466 
943842574389979 0.004122 0.009518 -0.013466 
943842593299146 0.004122 0.009518 -0.013466 
943842612208364 0.004122 0.009518 -0.013466 
943842631117531 0.004122 0.009518 -0.013466 
943842650026698 0.004122 0.009518 -0.013466 
943842668935864 0.004122 0.009518 -0.013466 
943842687845031 0.004122 0.009518 -0.013466 
943842706754250 0.004122 0.009518 -0.013466 
943842725663416 0.004122 0.009518 -0.013466 
943842744572583 0.004122 0.009518 -0.013466 
943842763481750 0.004122 0.009518 -0.013466 
943842782390916 0.004122 0.009518 -0.013466 
943842801300083 0.004122 0.009518 -0.013466 
943842820209302 0.004122 0.009518 -0.013466 
943842839118468 0.004122 0.009518 -0.013466 
943842858027635 0.004122 0.009518 -0.013466 
943842876936802 0.004122 0.009518 -0.013466 
943842895845968 0.004122 0.009518 -0.013466 
943842914755135 0.004122 0.009518 -0.013466 
943842933664302 0.004122 0.009518 -0.013466 
943842952573468 0.004122 0.009518 -0.013466 
943842971482687 0.004122 0.009518 -0.013466 
943842990391854 0.004122 0.009518 -0.013466 
943843009301021 0.004122 0.009518 -0.013466 
943843028210187 0.004122 0.009518 -0.013466 
943843047119354 0.004122 0.009518 -0.013466 
943843066028521 0.004122 0.009518 -0.013466 
943843084937687 0.004122 0.009518 -0.013466 
943843103846854 0.004122 0.009518 -0.013466 
943843122756021 0.004122 0.009518 -0.013466 
943843141665239 0.004122 0.009518 -0.013466 
943843160574406 0.004122 0.009518 -0.013466 
943843179483573 0.004122 0.009518 -0.013466 
943843198392739 0.004122 0.009518 -0.013466 
943843217301906 0.004122 0.009518 -0.013466 
943843236211073 0.004122 0.009518 -0.013466 
943843255120239 0.004122 0.009518 -0.013466 
943843274029406 0.004122 0.009518 -0.013466 
943843292938573 0.004122 0.009518 -0.013466 
943843311847739 0.004122 0.009518 -0.013466 
943843330756906 0.004122 0.009518 -0.013466 
943843349666073 0.004122 0.009518 -0.013466 
943843368575239 0.004122 0.009518 -0.013466 
943843387484406 0.004122 0.009518 -0.013466 
